tree
version=v3
num_class=1
num_tree_per_iteration=1
label_index=0
max_feature_idx=12
objective=regression
feature_names=Column_0 Column_1 Column_2 Column_3 Column_4 Column_5 Column_6 Column_7 Column_8 Column_9 Column_10 Column_11 Column_12
feature_infos=[0.0063200000000000001:88.976200000000006] [0:100] [0.46000000000000002:27.739999999999998] [0:1] [0.38500000000000001:0.871] [3.5609999999999999:8.7799999999999994] [2.8999999999999999:100] [1.137:12.1265] [1:24] [187:711] [12.6:22] [0.32000000000000001:396.89999999999998] [1.9199999999999999:37.969999999999999]
tree_sizes=4661 4389 4558 4781 4730 4980 4736 4700 4506 4946 4711 4505 4803 5003 5002 4612 4736 4653 4778 4821 4777 5081 4817 4608 4688 4486 4609 5156 4641 4915 5023 4580 4849 4747 4842 4879 4897 4708 4755 4736 4823 4824 4919 4466 4914 4893 4830 4574 5000 4819 4557 4939 4659 4557 4624 4759 4754 4866 5005 4642 4600 4960 4754 4690 4896 4951 5126 4962 4760 4882 4802 4786 4898 4536 4715 4831 4876 4717 4843 4860 4902 4615 4820 4447 4883 5037 4584 4933 5042 4833 4441 5092 5004 5267 4796 5032 4966 4682 5113 4620 4803 4705 4668 4708 4877 4848 4730 4804 4743 4795 5103 5085 4914 4711 4969 4917 4761 5095 4862 4714 4610 4521 5027 5103 5098 4876 5146 4842 5033 4826 5117 4809 4802 4597 4847 4722 4568 4903 4666 4786 5045 4950 5092 4842 4927 5000 4722 4928 4869 4869 5023 4954 4787 4963 4727 4599 4637 5102 4576 4735 4911 4809 4621 4938 4802 4771 4735 4641 4467 4609 4855 5145 4705 5115 4730 4778 4741 4795 4614 4934 4639 4618 5057 4890 4803 4908 4617 4909 4690 4822 4532 4984 4733 4733 4790 4917 5151 4959 4867 4838 4807 4572 4557 4724 4948 5051 4692 4840 5080 4771 4725 4979 4779 4688 5191 4670 5234 5019 4919 4702 4843 5054 4735 4829 4739 4902 4848 4982 4889 4726 4805 4804 4954 5040 5169 4688 5120 4886 5004 4725 4731 4851 5081 4789 4876 5025 4901 4776 4901 4977 4769 4818 4492 5036 5065 5005 5080 4900 4919 5028 5044 4846 4659 5130 4934 4836 4874 4920 4641 4922 4918 4886 4768 5157 4886 4797 4808 4936 5054 4942 4882 4920 4500 5217 5105 5001 5227 4906 4695 4689 5159 4903 4815 4873 4740 4805 4665 4615 4922 5037 4946 5151 4685 5140 4873 4753 5064 5015 4993 4807 4872 4891 4933 4818 5216 4800 4851 5022 4853 4925 4699 4672 5103 5016 4913 4816 4930 5278 4858 4569 4954 5048 5183 4960 4686 5152 4561 4620 4797 4586 5085 5260 4666 4918 4991 4772 4834 4641 4912 4729 4711 4962 4533 5189 5098 5090 5044 4757 4750 4911 4806 4951 4851 4964 4723 4935 4830 4954

Tree=0
num_leaves=47
num_cat=0
split_feature=5 4 5 5 4 7 11 10 5 11 10 11 6 6 10 6 9 6 5 6 10 7 4 11 4 5 7 10 7 7 11 7 11 5 5 6 5 11 7 6 7 9 6 9 5 9
split_gain=139.749 39.6368 21.1773 16.781 6.59565 5.68221 5.5876 5.15459 3.57617 2.82898 2.67168 1.71794 1.66969 1.43805 1.34974 1.25978 1.05941 0.871629 0.850954 0.830964 0.790401 0.714501 0.609956 0.581047 0.541068 0.531106 0.524089 1.00399 0.367383 0.355184 0.326696 0.282588 0.255441 0.247132 0.246983 0.237048 0.213883 0.211628 0.143898 0.138318 0.187222 0.129822 0.10266 0.0663257 0.0550808 0.0530862
threshold=6.9775000000000009 0.65700000000000014 6.2085000000000008 7.4620000000000006 0.70650000000000002 1.8075500000000002 367.19500000000005 19.650000000000002 6.7265000000000006 251.77000000000001 20.950000000000003 377.00500000000005 73.350000000000009 91.750000000000014 18.950000000000003 80.550000000000011 267.00000000000006 46.500000000000007 6.1410000000000009 85.550000000000026 17.200000000000003 1.3989500000000004 0.61150000000000004 386.55500000000001 0.58450000000000013 6.4215000000000009 6.0749500000000003 17.700000000000006 1.6857000000000004 3.9258500000000005 88.320000000000007 2.5366000000000004 385.72500000000008 5.6065000000000014 6.7755000000000001 32.600000000000001 5.7825000000000015 391.98500000000007 2.2729500000000002 44.350000000000009 4.7833000000000014 278.00000000000006 45.500000000000007 355.00000000000006 5.676000000000001 284.50000000000006
decision_type=2 2 2 2 2 2 2 2 2 2 2 2 2 2 2 2 2 2 2 2 2 2 2 2 2 2 2 2 2 2 2 2 2 2 2 2 2 2 2 2 2 2 2 2 2 2
left_child=1 2 6 16 21 -4 14 8 25 38 11 -8 18 -11 -1 -12 -2 34 35 -9 -5 -3 31 -15 29 32 27 -27 44 43 -30 33 -7 -16 -10 -13 -37 -17 -6 45 41 -41 -34 -14 -23 -38
right_child=3 4 5 20 9 7 10 19 17 13 15 12 24 23 22 37 -18 -19 -20 -21 -22 28 -24 -25 -26 26 -28 -29 30 -31 -32 -33 42 -35 -36 36 39 -39 -40 40 -42 -43 -44 -45 -46 -47
leaf_value=-0.0027915639176791093 0.019322451981254478 -0.012631790216366134 0.017387136258125609 0.03679489874845996 -0.014163301726932306 0.00026110152235931506 0.0049972371815223847 0.00067570276648595015 0.01066794797845068 -0.001477269710692326 -0.0022349760417410573 0.0008669646868782058 -0.001848299273686415 -0.0057291815493576868 -0.014584993564700555 -0.0073133309876921414 0.013203997932121441 0.0062628370187680898 0.0034559299915267556 -0.0053180049109597958 0.030435185509730713 -0.018265212462129119 -0.0065212336819663692 -0.010698901093566223 -0.007729404644682236 0.010807350098793999 0.0023173539524854428 0.00364171990509539 -0.018544017298808588 -0.0064160223245660203 -0.014243791835073846 -0.0092251822339153647 0.0045342492821595307 -0.010542328200790881 0.014710612746367565 -0.0040461840437564555 -0.0011744979583629864 -0.010587193450873346 -0.011322981028301994 0.0006309865461182879 -0.0033766894369788433 -0.0019959945827481436 0.0022127987472321414 -0.0034463928217812771 -0.020467768228326334 0.00050849256823353654
leaf_weight=5.0000000000000027 9.0000000000000018 6.0000000000000027 4.9999999999999991 8.9999999999999982 7.9999999999999982 8.0000000000000018 5.9999999999999991 5.9999999999999991 4.9999999999999982 8.0000000000000018 7.0000000000000027 6.9999999999999991 9.0000000000000089 7.9999999999999982 5.0000000000000053 6.9999999999999982 8.9999999999999982 4.9999999999999991 6.9999999999999991 8.9999999999999982 4.9999999999999991 5.0000000000000018 5.9999999999999991 7 5.9999999999999991 5.0000000000000027 7.9999999999999991 7.9999999999999991 4.9999999999999982 4.9999999999999991 7 6.9999999999999991 4.9999999999999991 5 5 4.9999999999999991 4.9999999999999982 6 5 5.0000000000000018 7.9999999999999991 7 7.9999999999999991 7.9999999999999991 5 7
leaf_count=5 9 6 5 9 8 8 6 6 5 8 7 7 9 8 5 7 9 5 7 9 5 5 6 7 6 5 8 8 5 5 7 7 5 5 5 5 5 6 5 5 8 7 8 8 5 7
internal_value=2.0814e-09 -0.00334388 -0.000718821 0.0242613 -0.0119559 0.00449759 -0.0037395 0.00360118 0.00531744 -0.00841187 -0.00241528 -0.00144676 -0.0019373 -0.00577054 -0.00870215 -0.00652703 0.0162684 0.0105593 -0.000588818 -0.0029148 0.0345308 -0.0165092 -0.00998321 -0.00805441 -0.00439032 0.00344319 0.0048518 0.00640467 -0.0175625 -0.00347558 -0.0160434 -0.0111998 0.00203037 -0.0125729 0.0126985 -0.0012343 -0.00163418 -0.00883132 -0.013078 -0.00125455 -0.00189159 -0.000894223 0.00311245 -0.00260551 -0.019376 -0.000185557
internal_weight=0 274 210 32 64 77 133 72 57 36 105 85 79 23 28 20 18 15 51 15 14 28 23 15 28 42 21 13 22 22 12 17 21 10 10 44 37 13 13 32 20 12 13 17 10 12
internal_count=306 274 210 32 64 77 133 72 57 36 105 85 79 23 28 20 18 15 51 15 14 28 23 15 28 42 21 13 22 22 12 17 21 10 10 44 37 13 13 32 20 12 13 17 10 12
is_linear=0
shrinkage=1


Tree=1
num_leaves=44
num_cat=0
split_feature=12 5 12 12 4 9 5 5 12 12 5 11 5 9 9 7 4 12 11 9 11 7 7 12 5 7 5 4 7 11 5 12 7 5 11 5 7 11 4 11 12 11 12
split_gain=136.468 33.2581 24.0226 9.68043 7.36339 6.68592 5.99313 4.26058 4.01917 3.61838 1.87831 1.42974 1.3923 1.3838 0.82796 0.710457 0.594185 0.550404 0.525084 0.508667 0.501397 0.45719 0.535932 0.407042 0.402554 0.414232 0.396111 0.388829 0.320214 0.265605 0.256369 0.235406 0.212594 0.151747 0.153852 0.120294 0.105667 0.103945 0.0583178 0.0451437 0.0451212 0.0421763 0.0336503
threshold=7.580000000000001 7.418000000000001 14.915000000000001 4.9150000000000009 0.6070000000000001 394.50000000000006 6.7080000000000011 7.096000000000001 5.2000000000000011 19.730000000000004 6.7970000000000015 377.7000000000001 6.3440000000000003 453.00000000000006 267.00000000000006 1.9952500000000002 0.51650000000000007 14.475000000000001 329.75000000000006 243.50000000000003 389.52000000000004 1.4178000000000004 1.9283000000000003 18.135000000000002 6.0985000000000005 2.3852000000000007 6.4570000000000016 0.69650000000000001 2.8001000000000005 251.77000000000001 6.0440000000000014 10.250000000000002 2.7626000000000004 5.7580000000000009 388.01000000000005 6.5940000000000003 4.2452500000000013 380.28500000000003 0.49600000000000005 343.66500000000002 12.865 379.39500000000004 9.6450000000000014
decision_type=2 2 2 2 2 2 2 2 2 2 2 2 2 2 2 2 2 2 2 2 2 2 2 2 2 2 2 2 2 2 2 2 2 2 2 2 2 2 2 2 2 2 2
left_child=1 3 6 5 11 10 12 14 20 26 -1 15 17 -11 -5 -4 -14 24 -17 -12 -3 -15 27 32 25 37 29 39 -27 -6 -31 -26 -13 -30 -35 36 -16 -2 -36 -23 -33 -38 -40
right_child=2 8 4 7 9 -7 -8 -9 -10 13 19 23 16 21 35 18 -18 -19 -20 -21 -22 22 -24 -25 31 28 -28 -29 33 30 -32 40 -34 34 38 -37 41 -39 42 -41 -42 -43 -44
leaf_value=0.0073183097906014058 -0.0016863886745167285 0.032938346043885652 -0.004037138134938955 0.0084137361126205255 -0.010414686925536839 0.029418486161689374 0.00943932388649746 0.016773303012389263 0.022077054702998228 -0.0095610624370717542 0.018529497860842618 -0.0038794032095958667 0.0043193973499512407 -0.012754285599866756 0.004258716301534831 -0.011616467412364129 -0.00065956243665114269 -0.0056077623367129167 -0.0063994969668330435 0.013290466106396892 0.038773528596314541 -0.018741040594649497 -0.013778417451004797 -0.0057108470954475602 0.0012090280904141939 -0.0062955298965158947 -0.011427129008674068 -0.015649694674887131 -0.004929205968563305 -0.0088796404441922813 -0.0056648764910412104 -0.0010294318872240656 -0.0009579647476477464 -0.0039292837150282671 -0.00117910294282482 0.0049212990065612009 0.0011585490001684319 0.00074632816341741099 -0.001712127210593134 -0.020805324838848376 -0.0025731428228193236 0.0026617661716040889 -0.0031099049253918046
leaf_weight=6.0000000000000062 5.9999999999999982 4.9999999999999982 5.0000000000000027 6.0000000000000027 6.0000000000000062 4.9999999999999991 7.9999999999999991 4.9999999999999991 4.9999999999999991 5.9999999999999991 5.9999999999999982 7.0000000000000062 6.9999999999999991 5.0000000000000027 5.0000000000000062 7.9999999999999982 7.9999999999999991 7.9999999999999991 5 6 5 5.0000000000000053 5.9999999999999991 7.9999999999999991 7.0000000000000027 4.9999999999999991 7.9999999999999991 5.9999999999999991 4.9999999999999991 7.9999999999999991 7.9999999999999991 7.9999999999999982 8.9999999999999982 9.0000000000000018 9.0000000000000018 4.9999999999999991 4.9999999999999991 5 4.9999999999999982 5 5 7.9999999999999991 7
leaf_count=6 6 5 5 6 6 5 8 5 5 6 6 7 7 5 5 8 8 8 5 6 5 5 6 8 7 5 8 6 5 8 8 8 9 9 9 5 5 5 5 5 5 8 7
internal_value=0 0.0147128 -0.0052662 0.0103523 -0.00946329 0.0166176 -0.000944791 0.00611127 0.0312764 -0.0121672 0.0130564 -0.00540534 -0.00182951 -0.0150274 0.00426977 -0.00807191 0.00165824 -0.00249284 -0.00961689 0.0159178 0.0358662 -0.0162388 -0.0170265 -0.00340169 -0.00214061 -0.00273054 -0.00901778 -0.0182387 -0.00332175 -0.0081375 -0.00727787 -0.000631938 -0.00224158 -0.00289438 -0.00255228 0.00318483 0.00269756 -0.000572753 -0.00195795 -0.0197827 -0.00162989 0.00209032 -0.0025348
internal_weight=0 72 207 57 105 23 102 34 15 63 18 42 94 33 29 18 15 79 13 12 10 27 22 24 71 51 30 16 40 22 16 20 16 35 30 23 18 11 21 10 13 13 12
internal_count=279 72 207 57 105 23 102 34 15 63 18 42 94 33 29 18 15 79 13 12 10 27 22 24 71 51 30 16 40 22 16 20 16 35 30 23 18 11 21 10 13 13 12
is_linear=0
shrinkage=0.0125


Tree=2
num_leaves=46
num_cat=0
split_feature=5 12 5 12 4 5 12 12 12 6 0 9 1 0 4 5 12 6 0 6 11 4 0 9 2 4 4 6 9 5 11 6 0 6 4 4 5 6 4 12 6 12 9 5 2
split_gain=133.014 52.8421 15.4503 13.1465 6.99013 5.30665 4.42241 2.14114 2.10801 2.6841 1.93183 1.80093 1.54835 1.47193 0.858281 0.814906 0.663878 0.643515 0.519902 0.866243 0.459113 0.457936 0.40862 0.38762 0.304485 0.30349 0.276825 0.285676 0.263197 0.230829 0.21665 0.212994 0.207655 0.202094 0.164979 0.157244 0.0980803 0.0943595 0.119556 0.0860103 0.100336 0.0600099 0.0599751 0.0523397 0.0263646
threshold=6.9775000000000009 14.475000000000001 7.4620000000000006 4.830000000000001 0.6070000000000001 6.1410000000000009 19.900000000000002 5.495000000000001 10.040000000000001 86.300000000000011 0.64730500000000013 453.00000000000006 15.000000000000002 12.524750000000003 0.44245000000000007 6.7080000000000011 4.1750000000000007 72.300000000000026 2.5917500000000007 76.850000000000009 318.59000000000009 0.67500000000000016 0.068795000000000009 355.00000000000006 18.840000000000003 0.69650000000000001 0.69650000000000001 95.100000000000009 304.50000000000006 6.0145000000000008 310.51000000000005 73.350000000000009 0.035815000000000007 37.000000000000007 0.68600000000000005 0.43200000000000005 5.9605000000000006 32.600000000000001 0.58050000000000013 11.845000000000002 82.950000000000017 25.160000000000004 294.50000000000006 6.0075000000000012 9.9550000000000018
decision_type=2 2 2 2 2 2 2 2 2 2 2 2 2 2 2 2 2 2 2 2 2 2 2 2 2 2 2 2 2 2 2 2 2 2 2 2 2 2 2 2 2 2 2 2 2
left_child=1 3 7 14 10 18 20 16 9 15 31 -8 -9 30 32 23 -2 -4 19 22 -6 -13 29 33 -21 34 -22 -28 -10 -5 -12 -3 -1 35 -23 -7 44 -24 43 -30 -41 -27 -35 -39 -33
right_child=2 4 17 5 6 8 11 12 28 -11 13 21 -14 -15 -16 -17 -18 -19 -20 24 26 25 37 -25 -26 41 27 -29 39 -31 -32 36 -34 42 -36 -37 -38 38 -40 40 -42 -43 -44 -45 -46
leaf_value=0.012659358101372399 0.022548367159604829 -0.0016701623389220378 0.035817386136417877 -0.004284434467492707 -0.011078513292091516 0.0029601403653424772 -0.0094083152628146594 0.006789007056697916 0.0022312279011607841 0.013271999999318732 -0.011776561045332732 -0.014113370727547507 0.015936858880374712 -0.0025053162810702934 0.017211862229603598 0.0068396160218229451 0.016955566683016673 0.030070808812202789 0.00097354020035324913 -0.0064097826016014424 -0.0095711922771503071 -0.017444427560749817 0.0011619317482188727 -0.0006219156939007999 -0.0029027511710099031 -0.014866753180121857 -0.0041780967649832313 -0.0079527477144942255 0.00024498156433478292 -0.0012364475247988596 -0.0088744669238063519 -0.0055881609771538908 0.0089516796550919691 0.0014871224763549175 -0.020865409853159732 0.0061454480694088367 -0.0026986142539758042 -0.002147847814614683 0.00085679260117147772 -0.0004760302288301012 -0.0030042290073531886 -0.017080969992480471 0.0031041152244410722 -0.00053330294388188773 -0.0042381671222857503
leaf_weight=4.9999999999999982 6.0000000000000027 8.0000000000000018 5.9999999999999982 8.9999999999999982 9.0000000000000018 5.0000000000000053 6.9999999999999991 4.9999999999999982 5.0000000000000027 4.9999999999999991 8.0000000000000053 9.0000000000000018 7 4.9999999999999991 4.9999999999999991 8.9999999999999982 7.9999999999999991 7 7.9999999999999991 8.9999999999999982 8.0000000000000018 5.0000000000000018 5.0000000000000027 4.9999999999999991 6.9999999999999991 4.9999999999999982 4.9999999999999991 8.9999999999999982 4.9999999999999991 6.9999999999999991 8.9999999999999982 4.9999999999999982 5 7.9999999999999982 5 5 4.9999999999999991 7.0000000000000018 4.9999999999999991 4.9999999999999982 5 5 7 6 6
leaf_count=5 6 8 6 9 9 5 7 5 5 5 8 9 7 5 5 9 8 7 8 9 8 5 5 5 7 5 5 9 5 7 9 5 5 8 5 5 5 7 5 5 5 5 7 6 6
internal_value=0 -0.00318926 0.0215979 0.00188627 -0.0095681 0.000578422 -0.0121453 0.0160276 0.00311406 0.00464363 -0.00581233 -0.0151287 0.0121329 -0.00849041 0.0129533 0.00353507 0.0193593 0.0327309 -0.00199609 -0.00242962 -0.0086778 -0.0165064 -0.00142166 0.00254073 -0.00488099 -0.0175786 -0.00769155 -0.00661102 -0.000246701 -0.00295642 -0.0102455 -0.0033537 0.0108147 0.00317673 -0.0191644 0.00456166 -0.00418999 -0.000350204 -0.00077507 -0.00107849 -0.00174886 -0.0159832 0.00224756 -0.00140938 -0.00485987
internal_weight=0 255 39 142 113 127 67 26 64 44 46 36 12 22 15 39 14 13 63 55 31 29 39 30 16 20 22 14 20 16 17 24 10 25 10 10 16 23 18 15 10 10 15 13 11
internal_count=294 255 39 142 113 127 67 26 64 44 46 36 12 22 15 39 14 13 63 55 31 29 39 30 16 20 22 14 20 16 17 24 10 25 10 10 16 23 18 15 10 10 15 13 11
is_linear=0
shrinkage=0.0125


Tree=3
num_leaves=49
num_cat=0
split_feature=5 12 12 12 12 0 5 5 9 11 12 11 4 4 0 5 2 5 6 6 4 6 4 6 0 0 9 6 11 5 0 5 6 9 12 4 0 12 0 12 5 6 12 11 12 12 12 0
split_gain=130.728 51.3319 15.5428 11.7116 9.08562 6.69703 5.38206 4.6221 3.22553 2.7222 2.04814 2.09406 1.316 0.960173 0.9392 0.889957 0.75549 0.7331 0.667222 0.640912 0.475582 0.414509 0.411246 0.322135 0.31644 0.197579 0.196446 0.21663 0.187909 0.169381 0.169142 0.15863 0.339032 0.154376 0.137672 0.136229 0.117131 0.105523 0.100218 0.0995424 0.0883195 0.0693148 0.068074 0.0608839 0.0413676 0.0281837 0.0193017 0.0180803
threshold=6.9625000000000012 14.475000000000001 4.9150000000000009 3.9900000000000007 19.900000000000002 0.77859500000000004 6.0985000000000005 7.7280000000000006 453.00000000000006 176.13500000000002 10.040000000000001 370.75500000000005 0.6070000000000001 0.6695000000000001 2.5917500000000007 7.7280000000000006 8.3500000000000032 6.6270000000000007 71.450000000000003 76.850000000000009 0.69650000000000001 99.65000000000002 0.51650000000000007 94.050000000000011 6.7594450000000004 8.7544350000000026 332.00000000000006 33.250000000000007 393.84500000000008 6.1940000000000008 11.695100000000002 5.9455000000000009 82.950000000000017 280.00000000000006 11.845000000000002 0.68600000000000005 0.082545000000000021 12.760000000000002 0.6028650000000001 17.135000000000002 7.1510000000000007 42.150000000000013 12.965000000000002 394.95500000000004 25.160000000000004 10.545000000000002 7.3000000000000007 0.12236500000000002
decision_type=2 2 2 2 2 2 2 2 2 2 2 2 2 2 2 2 2 2 2 2 2 2 2 2 2 2 2 2 2 2 2 2 2 2 2 2 2 2 2 2 2 2 2 2 2 2 2 2
left_child=1 2 -1 15 9 7 14 18 23 25 11 -8 16 21 19 -2 -11 22 40 26 35 -10 33 -6 39 -3 27 -4 -19 -12 -22 32 -18 43 -31 -15 -28 45 -21 -14 -5 46 -36 -13 -25 47 -35 -29
right_child=3 4 6 5 8 -7 10 -9 13 12 29 17 24 20 -16 -17 31 28 -20 38 30 -23 -24 44 -26 -27 36 37 -30 34 -32 -33 -34 41 42 -37 -38 -39 -40 -41 -42 -43 -44 -45 -46 -47 -48 -49
leaf_value=0.017798967039594032 0.028331038589552462 -0.0098516072285687976 0.00070860022958055442 0.014220460643923825 -0.0062076725523725236 0.0039472825165629563 0.012077760760729282 0.030585996426853293 -0.014950072973810572 -0.0065534029103821922 0.0019347960952343986 0.0055255386911119289 -0.0050442140098259924 -0.017376272682895762 0.0021612284077770073 0.035625316131666744 -0.0011624346144349998 0.0048614293632387373 0.020898817931667063 -0.0042592821602546954 -0.013243043204800149 -0.0097743198029929187 -0.00061999459491575285 -0.011015994071426422 -0.0092971853027422873 -0.012947523103146228 -0.0047955213189160954 -0.0026771315071879229 0.0082045991766041722 0.00069693105916863193 -0.016655705288699019 -0.0006388638829363675 -0.0051114901202043003 0.0027602751226477869 -0.0024403388715311782 -0.020139631582239682 -0.00216388553209822 -0.00036945649087049464 -0.0067266294070763115 -0.0072241232110446564 0.016485836113622358 0.0016718556034731444 -0.00044093633346481154 0.0034954568162021936 -0.0093345115762977857 -0.0032810781681527068 0.0038374852770358282 -0.001595818076863543
leaf_weight=8.9999999999999982 4.9999999999999982 7.9999999999999982 6.0000000000000027 6.0000000000000089 5.0000000000000027 4.9999999999999991 4.9999999999999991 4.9999999999999991 4.9999999999999982 8.0000000000000018 5.0000000000000027 5.0000000000000018 7.0000000000000018 7.0000000000000018 6.9999999999999991 6 8.0000000000000018 5.9999999999999982 4.9999999999999991 5.9999999999999982 4.9999999999999982 5 4.9999999999999991 4.9999999999999982 7.9999999999999991 6 4.9999999999999982 5.0000000000000053 5 7.0000000000000027 5 7.9999999999999991 5.9999999999999991 8.0000000000000018 5.9999999999999982 6 6 4.9999999999999991 5 7 7 7.9999999999999991 5 5 7 4.9999999999999991 4.9999999999999991 6
leaf_count=9 5 8 6 6 5 5 5 5 5 8 5 5 7 7 7 6 8 6 5 6 5 5 5 5 8 6 5 5 5 7 5 8 6 8 6 6 6 5 5 7 7 8 5 5 7 5 5 6
internal_value=0 -0.00318564 0.0019089 0.0213812 -0.00933495 0.0170808 0.000816495 0.019932 -0.0133557 -0.00628752 0.0030063 0.00438012 -0.00496722 -0.015638 -0.00211473 0.0323189 -0.00325903 0.00355927 0.016967 -0.00272737 -0.0170543 -0.0123714 0.0026921 -0.00892006 -0.00729252 -0.011185 -0.00195459 -0.00137546 0.0063892 -9.59876e-05 -0.0149587 -0.00205703 -0.00286118 0.0032291 -0.000664938 -0.018659 -0.0033681 -0.00197503 -0.0053889 -0.00614055 0.0154475 0.00261048 -0.00153944 0.00451936 -0.0100427 -0.00247134 0.00318136 -0.00209528
internal_weight=0 256 140 39 116 28 131 23 50 66 75 52 52 33 56 11 30 47 18 49 23 10 36 17 22 14 38 27 11 23 10 22 14 31 18 13 11 21 11 14 13 21 11 10 12 16 13 11
internal_count=295 256 140 39 116 28 131 23 50 66 75 52 52 33 56 11 30 47 18 49 23 10 36 17 22 14 38 27 11 23 10 22 14 31 18 13 11 21 11 14 13 21 11 10 12 16 13 11
is_linear=0
shrinkage=0.0125


Tree=4
num_leaves=48
num_cat=0
split_feature=5 4 5 5 0 7 2 11 5 10 10 11 7 10 4 11 5 2 11 11 4 11 7 7 4 5 5 11 7 0 0 11 5 0 7 5 5 5 5 4 5 4 4 8 2 2 0
split_gain=107.319 31.3475 18.5295 12.3607 8.46303 5.42097 4.05205 3.86891 2.25867 2.21432 1.64716 2.14478 1.58349 1.46311 1.59662 1.07053 1.04687 0.957317 0.87876 0.870819 0.837652 0.766751 0.76054 0.619729 0.593687 0.663648 0.460856 0.399332 0.589275 0.353418 0.338214 0.228602 0.290199 0.207752 0.193008 0.186909 0.178802 0.145785 0.144037 0.135517 0.127689 0.176565 0.132563 0.113665 0.0888844 0.0684498 0.000799892
threshold=6.9775000000000009 0.6695000000000001 6.2085000000000008 7.4620000000000006 7.5379550000000011 2.0312500000000004 7.0150000000000015 375.27000000000004 6.5940000000000003 17.200000000000003 20.950000000000003 379.39500000000004 2.0581000000000005 18.750000000000004 0.62750000000000006 390.24000000000007 5.7080000000000011 4.2200000000000006 391.98500000000007 395.26000000000005 0.6070000000000001 354.62500000000006 6.0749500000000003 4.4546500000000009 0.50850000000000006 6.1410000000000009 6.4215000000000009 385.03500000000003 2.5016000000000003 38.006850000000007 0.11048000000000001 27.370000000000001 6.3755000000000015 0.053310000000000003 1.7636500000000004 5.8625000000000016 6.3440000000000003 5.964500000000001 6.0035000000000007 0.52800000000000014 6.0035000000000007 0.52200000000000013 0.58050000000000013 4.5000000000000009 5.4800000000000013 6.0100000000000007 7.0365050000000009
decision_type=2 2 2 2 2 2 2 2 2 2 2 2 2 2 2 2 2 2 2 2 2 2 2 2 2 2 2 2 2 2 2 2 2 2 2 2 2 2 2 2 2 2 2 2 2 2 2
left_child=1 2 7 15 21 -4 8 13 22 -5 11 -9 29 -1 20 -2 43 -10 36 -17 35 38 26 -12 25 37 -7 -23 -29 31 -19 -6 34 -24 -33 46 -8 45 -3 -20 42 -42 -26 -13 -39 -18 -15
right_child=3 4 5 9 12 6 18 10 17 -11 23 16 -14 14 -16 19 24 30 39 -21 -22 27 33 -25 40 -27 -28 28 -30 -31 -32 32 -34 -35 -36 -37 -38 44 -40 -41 41 -43 -44 -45 -46 -47 -48
leaf_value=-0.0013453388459664533 0.0097443383106003145 -0.0064107968099272649 0.01595343144187188 0.034712746243016047 -0.017751861805651914 0.0029839160210241508 -0.0016392405688959604 0.006685088261797709 0.012776687820224151 0.024585488014495657 -0.0081399932556982645 -0.0065122719592522471 -0.008863333627620755 -0.008987699150559374 -0.0017899199719106766 0.020733236231512787 -0.0027024249300357395 0.0094328686729364605 0.0025576192410199793 0.014010721847236571 -0.014159915104098484 -0.00096960115339385594 -0.00072183037634896601 -0.0030207577404889581 -0.0026651180429883275 0.0033515116002174718 0.0077366373854107556 -0.0081086366621104192 -0.0020109567069833017 -0.019063146394353036 0.005127567925462144 -0.017486622952534663 -0.012564835826394914 0.0025151538735621332 -0.014006893654245298 -0.0066912392349515433 -0.0050166438583274008 -0.0013549089182953915 -0.009503411423942433 0.0001620914274552617 -0.0017136906487104011 -0.004823293938578499 -0.00010806605167771012 -0.003894199718952425 0.00072345387398090261 -0.00098544779416405827 -0.0098350488620256998
leaf_weight=5.9999999999999991 5.0000000000000027 5.0000000000000018 5.9999999999999991 7.9999999999999982 5.0000000000000062 6.0000000000000018 5.0000000000000018 4.9999999999999991 7.0000000000000027 6 7.9999999999999982 5.9999999999999982 5.9999999999999991 5.0000000000000089 4.9999999999999991 4.9999999999999991 7.0000000000000027 4.9999999999999982 7.9999999999999982 7.9999999999999991 4.9999999999999991 5.9999999999999991 4.9999999999999991 7 9.0000000000000018 6.9999999999999991 7 4.9999999999999982 5 4.9999999999999991 7 6.0000000000000018 6.9999999999999991 7.9999999999999991 5 6.9999999999999991 5 4.9999999999999991 5 7 4.9999999999999982 7 4.9999999999999991 5 8.9999999999999982 7.9999999999999991 5
leaf_count=6 5 5 6 8 5 6 5 5 7 6 8 6 6 5 5 5 7 5 8 8 5 6 5 7 9 7 7 5 5 5 7 6 7 8 5 7 5 5 5 7 5 7 5 5 9 8 5
internal_value=0 -0.00268429 -0.000327374 0.0215647 -0.0106177 0.0045468 0.00356776 -0.00326805 0.00580951 0.0303796 -0.00196196 -0.00123101 -0.0147244 -0.00694614 -0.00818751 0.0147033 -0.00177444 0.00908818 -0.000463953 0.0166036 -0.00963751 -0.00524395 0.0034101 -0.00575695 -0.00114212 -0.000100106 0.00554991 -0.00353701 -0.00506868 -0.0159771 0.00692894 -0.0153021 -0.0146164 0.00126352 -0.0159134 -0.00830196 -0.00333675 -0.00093628 -0.00796612 0.00144552 -0.00258156 -0.00353495 -0.0017581 -0.00533032 -1.26548e-05 -0.00179253 -0.00942045
internal_weight=0 262 202 32 60 76 70 126 45 14 93 78 34 33 27 18 73 19 25 13 22 26 26 15 62 36 13 16 10 28 12 23 18 13 11 17 10 29 10 15 26 12 14 11 14 15 10
internal_count=294 262 202 32 60 76 70 126 45 14 93 78 34 33 27 18 73 19 25 13 22 26 26 15 62 36 13 16 10 28 12 23 18 13 11 17 10 29 10 15 26 12 14 11 14 15 10
is_linear=0
shrinkage=0.0125


Tree=5
num_leaves=51
num_cat=0
split_feature=5 4 5 0 5 10 6 4 5 10 4 6 10 11 11 11 5 6 11 10 5 0 5 6 11 5 5 8 6 4 9 9 0 6 5 0 0 4 6 5 11 9 0 0 11 6 6 11 11 0
split_gain=117.37 36.6327 19.1415 8.3635 7.61347 4.32357 4.15816 5.53674 3.56123 3.08899 1.46228 1.42809 1.40503 1.51564 1.64878 1.26697 1.18587 1.0667 0.991756 0.845802 0.844313 0.841899 0.747883 0.694566 0.571022 0.568534 0.408706 0.3557 0.33577 0.316896 0.291281 0.274055 0.243289 0.257445 0.224169 0.219916 0.218195 0.1757 0.144598 0.14202 0.0949017 0.091131 0.077228 0.0687925 0.0672344 0.0624405 0.0591282 0.0577084 0.0527294 0.0163171
threshold=6.9775000000000009 0.6695000000000001 6.2085000000000008 7.0365050000000009 7.418000000000001 17.700000000000006 76.850000000000009 0.62750000000000006 6.6655000000000006 19.150000000000002 0.69650000000000001 84.450000000000017 20.950000000000003 357.48500000000007 372.86000000000007 251.77000000000001 6.1205000000000007 42.500000000000007 376.74000000000007 17.850000000000005 6.4660000000000011 11.695100000000002 6.7540000000000004 61.900000000000006 369.76000000000005 5.9515000000000002 6.1835000000000013 4.5000000000000009 93.700000000000003 0.6070000000000001 294.50000000000006 394.50000000000006 0.21099500000000002 46.500000000000007 5.8755000000000015 0.34473000000000004 4.3855350000000008 0.58050000000000013 45.500000000000007 6.2115000000000009 395.61000000000007 304.50000000000006 0.30724500000000005 0.30724500000000005 396.66000000000003 32.600000000000001 97.350000000000009 396.66000000000003 391.88000000000005 0.98230000000000006
decision_type=2 2 2 2 2 2 2 2 2 2 2 2 2 2 2 2 2 2 2 2 2 2 2 2 2 2 2 2 2 2 2 2 2 2 2 2 2 2 2 2 2 2 2 2 2 2 2 2 2 2
left_child=1 2 6 15 11 41 16 9 12 25 26 23 13 -4 -15 -3 24 19 29 -10 31 39 -19 40 -1 42 -5 43 36 46 -22 38 33 34 -26 -34 -17 -27 -16 -12 -2 -6 -8 -20 -40 -36 -11 -35 -28 -37
right_child=4 3 8 10 5 -7 7 -9 17 18 21 -13 -14 14 20 28 -18 22 27 -21 30 -23 -24 -25 32 37 48 -29 -30 -31 -32 -33 35 47 45 49 -38 -39 44 -41 -42 -43 -44 -45 -46 -47 -48 -49 -50 -51
leaf_value=-0.0054132633097828736 0.014710082046316759 -0.010582908789746867 -0.0030646764784119048 -0.019321340977774076 0.033651441895329502 0.018765774603038538 -0.0063326587208351734 0.0069118068290593823 0.014646957131400105 -0.010965350843718861 -0.011756107468560513 0.02174666358364355 -0.0035015374234499581 0.010953753947143827 0.0041619675855972928 -0.004235335769324086 0.0033719238006434111 0.0099568322990371601 -0.0092982983685995935 0.0076324945113113926 0.0074536234844854504 -0.015520601884320778 0.0037659420518303451 0.010134046977816835 -0.0027273858331354865 -0.0025170441133696747 -0.016601925878230488 -0.004518987498119559 -0.0057364794144362163 -0.013982932061646176 0.0040178626815564628 -0.00050537232721506648 0.0015936791776214995 -0.0044702190980679913 0.00052222680684305145 -0.0018121857042418922 -0.00052023953610220064 0.00064479387402255556 0.0026224738221381134 -0.0087901799392102707 0.017170996195171203 0.030802885955327115 -0.0040542527014843953 -0.007181268435583546 0.00063213875842971657 -0.0010910277520803859 -0.0090195268051545992 -0.0026547911601249091 -0.014500474479925278 -0.00075892629287331603
leaf_weight=5.9999999999999991 7.0000000000000053 6.0000000000000027 4.9999999999999991 9.0000000000000018 4.9999999999999982 5.9999999999999991 5.0000000000000018 4.9999999999999991 6.0000000000000018 7.0000000000000018 5.0000000000000018 4.9999999999999991 4.9999999999999991 4.9999999999999991 6.0000000000000062 5.0000000000000018 7.9999999999999991 4.9999999999999991 6.0000000000000018 5 6.9999999999999991 7.9999999999999991 7.9999999999999991 4.9999999999999991 9.0000000000000018 5.9999999999999982 4.9999999999999982 5.9999999999999991 8.9999999999999982 4.9999999999999991 8.9999999999999982 5.9999999999999991 7.0000000000000027 4.9999999999999982 7.9999999999999982 4.9999999999999982 5 5 5.9999999999999982 6 5 5 5 5 5 7 5 7 5 5
leaf_count=6 7 6 5 9 5 6 5 5 6 7 5 5 5 5 6 5 8 5 6 5 7 8 8 5 9 6 5 6 9 5 9 6 7 5 8 5 5 5 6 6 5 5 5 5 5 7 5 7 5 5
internal_value=0 -0.00285107 -0.000288681 -0.0111876 0.0206229 0.0271915 -0.00328248 -0.00567296 0.00458473 -0.00681865 -0.014883 0.0158414 0.00280169 0.00344667 0.00418858 -0.00556681 -0.00114044 0.00859283 -0.00914804 0.0114669 0.00331892 -0.0124142 0.00615397 0.0140989 -0.00175378 -0.00304303 -0.017347 -0.00699938 -0.00397801 -0.0112914 0.00552659 0.0017793 -0.00133782 -0.00191993 -0.00116695 -0.000100012 -0.00238655 -0.00107201 0.00259074 -0.0101466 0.0157433 0.0322373 -0.00520235 -0.00834421 0.00172571 -0.000224864 -0.0101622 -0.00341857 -0.0155606 -0.00129427
internal_weight=0 268 205 63 38 16 127 60 78 55 38 22 54 49 44 25 67 24 34 11 39 19 13 17 59 21 19 17 19 17 16 23 53 36 24 17 10 11 17 11 12 10 10 11 11 15 12 12 10 10
internal_count=306 268 205 63 38 16 127 60 78 55 38 22 54 49 44 25 67 24 34 11 39 19 13 17 59 21 19 17 19 17 16 23 53 36 24 17 10 11 17 11 12 10 10 11 11 15 12 12 10 10
is_linear=0
shrinkage=0.0125


Tree=6
num_leaves=48
num_cat=0
split_feature=12 5 12 5 12 12 12 5 10 7 10 12 5 12 12 12 5 2 11 5 12 7 2 7 10 7 9 7 11 9 12 11 11 2 7 5 2 2 11 7 12 2 7 5 7 7 5
split_gain=114.996 31.5998 25.2232 10.1108 6.86689 3.81729 3.54911 2.81717 2.63541 2.12646 2.05119 1.1187 0.949317 1.27389 0.883054 0.854987 0.541712 0.518028 0.513939 0.713361 0.859719 0.542693 0.437681 0.424785 0.423872 0.403729 0.358151 0.340908 0.262684 0.258843 0.243271 0.240438 0.238188 0.176842 0.16727 0.220123 0.150683 0.133125 0.198156 0.137707 0.119809 0.104558 0.0819003 0.0792898 0.0407998 0.0396693 0.0189011
threshold=8.2100000000000026 7.418000000000001 14.915000000000001 6.6655000000000006 19.900000000000002 4.1750000000000007 4.9150000000000009 6.1680000000000001 19.900000000000002 2.4780500000000005 19.900000000000002 11.845000000000002 6.9625000000000012 4.830000000000001 26.435000000000006 7.580000000000001 5.0275000000000007 5.7500000000000009 176.13500000000002 5.8200000000000012 18.405000000000005 1.9556500000000001 4.9400000000000004 2.7626000000000004 20.950000000000003 2.1234500000000005 280.00000000000006 1.6206000000000003 333.24500000000006 267.00000000000006 17.200000000000006 370.75500000000005 394.77500000000003 3.5400000000000005 2.4150500000000004 6.0625000000000009 7.0150000000000015 10.300000000000002 396.37500000000006 5.1663000000000006 12.230000000000002 10.300000000000002 1.8075500000000002 6.5710000000000006 4.8896500000000005 7.1317000000000013 6.3160000000000016
decision_type=2 2 2 2 2 2 2 2 2 2 2 2 2 2 2 2 2 2 2 2 2 2 2 2 2 2 2 2 2 2 2 2 2 2 2 2 2 2 2 2 2 2 2 2 2 2 2
left_child=1 3 7 6 10 33 -1 24 -6 -9 23 22 13 -5 25 26 -16 -15 -12 -20 21 -21 -11 -4 28 27 -8 -10 -2 -14 -23 -30 43 -3 -33 37 45 38 39 -36 -37 -25 -29 -24 -40 -28 -13
right_child=2 5 4 12 8 -7 15 9 14 11 18 46 29 17 16 -17 -18 -19 19 20 -22 30 32 41 -26 -27 36 42 31 -31 -32 34 -34 -35 35 40 -38 -39 44 -41 -42 -43 -44 -45 -46 -47 -48
leaf_value=0.012799086044475237 0.0010780920113411239 0.033985928551500774 -0.0054055153877027367 0.016453678181721356 -0.0064879318982086044 0.018850165535671468 0.0058005452380602502 0.0099114864102110983 -0.011550051114371884 -0.00037686636926684757 -0.010544284038652324 -0.0017195020208661549 0.017130563264448916 0.0115503434867157 -0.013933427707544802 -0.0015454698761368194 -0.019604582689966343 0.0058067645436760892 -0.010261386104808819 -0.010135910544512149 -0.0014734184787700436 -0.0045485091506439895 0.0038357590397598007 -0.0025027170375167881 -0.0047270020413577151 -0.0095456418348962967 0.0023795436207025571 -0.015932711937975741 -0.0045269277014086205 0.013934677909385013 -0.007697755810688935 5.2285801493446756e-06 0.001624728386294716 0.030473581373222189 -0.00077984414061059394 0.00070024223640026428 0.0042574570432437784 -0.00090071864783256017 -0.0051658792918444427 -0.0035168751026436042 -0.0017914141924422649 -0.00011713204856415253 -0.013861942513857249 0.0061390910053125353 -0.0034768881017195152 0.00090934870649559416 -0.0028777979125450487
leaf_weight=5.9999999999999991 4.9999999999999991 4.9999999999999982 7.0000000000000027 4.9999999999999991 8.9999999999999982 4.9999999999999991 7.0000000000000062 4.9999999999999991 9.0000000000000053 5.0000000000000062 8.9999999999999982 4.9999999999999982 9.0000000000000018 4.9999999999999982 4.9999999999999982 6.9999999999999991 6 5 8.9999999999999982 7.0000000000000062 4.9999999999999991 8.9999999999999982 4.9999999999999982 6.9999999999999982 7.9999999999999991 4.9999999999999991 6.0000000000000018 5.9999999999999991 4.9999999999999991 7.9999999999999991 6.9999999999999991 7.9999999999999991 4.9999999999999991 6 7.0000000000000036 5.9999999999999982 4.9999999999999991 5.9999999999999991 5 5 6 5 8.9999999999999982 5 5 6 5
leaf_count=6 5 5 7 5 9 5 7 5 9 5 9 5 9 5 5 7 6 5 9 7 5 9 5 7 8 5 6 6 5 8 7 8 5 6 7 6 5 6 5 5 6 5 9 5 5 6 5
internal_value=0 0.0121218 -0.00505258 0.0084498 -0.00908255 0.0279513 0.00399648 -0.000503018 -0.0126178 0.0023626 -0.00641611 0.00110143 0.0135961 0.0112825 -0.0139948 0.00228979 -0.0170353 0.0086876 -0.00784434 -0.00718514 -0.00619311 -0.00721531 0.0028102 -0.00295362 -0.00202398 -0.0128383 0.00341203 -0.0135204 -0.00164962 0.0156321 -0.00593189 -0.00190859 0.0038783 0.0320793 -0.00163401 -0.00196401 0.0024233 -0.00257189 -0.0030237 -0.00192758 -0.000538393 -0.00151598 -0.0146965 0.00499631 -0.00433023 0.00165172 -0.00230741
internal_weight=0 85 215 69 114 16 37 101 49 35 65 30 32 15 40 31 11 10 46 37 28 23 20 19 66 29 24 24 58 17 16 53 15 11 48 40 17 28 22 12 12 12 15 10 10 12 10
internal_count=300 85 215 69 114 16 37 101 49 35 65 30 32 15 40 31 11 10 46 37 28 23 20 19 66 29 24 24 58 17 16 53 15 11 48 40 17 28 22 12 12 12 15 10 10 12 10
is_linear=0
shrinkage=0.0125


Tree=7
num_leaves=48
num_cat=0
split_feature=5 12 12 12 0 0 5 12 11 5 7 7 12 6 7 11 11 10 10 0 0 7 2 6 12 5 5 10 0 7 6 5 6 6 11 6 9 6 9 12 10 5 0 6 10 7 11
split_gain=113.83 49.1633 12.533 9.98982 8.63182 5.0442 2.80016 2.67515 2.54583 2.30476 2.23723 2.17019 1.72982 2.52932 1.4088 1.38648 1.16069 0.703307 0.451161 0.433377 0.429049 0.425459 0.418665 0.417378 0.416108 0.57462 0.355327 0.294998 0.284145 0.253233 0.322076 0.232693 0.217633 0.214855 0.211942 0.168211 0.163539 0.155474 0.10635 0.153681 0.103181 0.0944725 0.074067 0.0656398 0.0582793 0.0495056 0.0377382
threshold=6.9625000000000012 14.475000000000001 4.4750000000000005 7.3000000000000007 7.0365050000000009 0.77859500000000004 6.6655000000000006 19.900000000000002 377.7000000000001 6.0765000000000011 3.0794000000000001 5.1085500000000001 10.040000000000001 84.050000000000011 1.9556500000000001 392.80500000000001 176.13500000000002 20.950000000000003 20.950000000000003 2.0796850000000004 0.047800000000000002 6.7277000000000013 6.660000000000001 32.150000000000013 26.435000000000006 5.676000000000001 5.7200000000000015 17.950000000000003 4.6578600000000003 2.3852000000000007 45.500000000000007 5.6970000000000001 98.850000000000009 58.750000000000007 88.320000000000007 97.350000000000009 302.00000000000006 87.350000000000009 302.00000000000006 17.510000000000002 18.650000000000002 5.4620000000000006 0.22325000000000003 41.300000000000004 19.150000000000002 2.5366000000000004 395.19500000000005
decision_type=2 2 2 2 2 2 2 2 2 2 2 2 2 2 2 2 2 2 2 2 2 2 2 2 2 2 2 2 2 2 2 2 2 2 2 2 2 2 2 2 2 2 2 2 2 2 2
left_child=1 3 15 6 8 10 21 16 19 17 -4 -8 13 20 -10 -2 -6 29 38 26 -11 22 23 -1 25 -9 -3 -14 -21 31 36 -5 34 -12 -27 -18 43 42 46 45 -22 -26 -29 -31 -32 -40 -16
right_child=2 4 5 9 7 -7 11 24 14 12 33 -13 27 -15 18 -17 35 -19 -20 28 40 -23 -24 -25 41 32 -28 37 -30 30 44 -33 -34 -35 -36 -37 -38 -39 39 -41 -42 -43 -44 -45 -46 -47 -48
leaf_value=0.010183941334707861 0.032942364185790524 -0.012773425154657276 0.024749643046565257 0.0020764747520980323 -0.012972761882449195 0.0034113814153894726 0.018459057775352779 -0.01122313399108895 -0.0089363532618142553 -0.00019877162288511505 0.016158002179866439 0.0079285533426711498 0.001772195781629844 0.011981667314066885 -0.0005551077294590755 0.024893441555889309 -0.0079531188964069854 -0.0061269619548717982 -0.0061892473342227078 -0.0060552114042222421 0.0045193017222702747 0.0022158976280187656 0.0038679971473525028 0.0050243788670938025 -0.016018085071683279 -0.0163880997527578 -0.0085567621894336379 -0.00152443342328538 -0.0097077523725109319 0.0010741353175663746 -0.0043732939392656387 -0.0015738823966846762 -0.017830865717466574 0.012799318517972792 -0.012608236520803394 -0.0046431584411088783 -0.0022610863349084979 -0.0027120022194040833 -0.0048233575352186857 -0.0013597192708713164 0.0021238354900424794 -0.018693994412859082 0.00026243929982384094 -0.00095024849391210956 -0.0027064234727365443 -0.0030671892137012959 -0.0021209003418985613
leaf_weight=5.0000000000000053 7.9999999999999982 7.0000000000000018 5.0000000000000062 4.9999999999999982 7.0000000000000027 4.9999999999999991 4.9999999999999991 7.0000000000000027 7.9999999999999991 8.0000000000000053 8.9999999999999982 7.9999999999999991 7.0000000000000027 4.9999999999999991 5.0000000000000018 6 4.9999999999999982 5.9999999999999991 5.9999999999999991 7.9999999999999982 6.9999999999999982 6.9999999999999991 8.9999999999999982 5 4.9999999999999982 4.9999999999999982 6 6.0000000000000027 6 5.0000000000000018 6.9999999999999982 6 4.9999999999999991 4.9999999999999991 5 5 8.9999999999999982 6.9999999999999991 5.0000000000000018 5.9999999999999991 5 5 8.9999999999999982 5 7 6 5
leaf_count=5 8 7 5 5 7 5 5 7 8 8 9 8 7 5 5 6 5 6 6 8 7 7 9 5 5 5 6 6 6 5 7 6 5 5 5 5 9 7 5 6 5 5 9 5 7 6 5
internal_value=0 -0.00306672 0.0200947 0.00184942 -0.00907606 0.0146043 0.00724461 -0.0130773 -0.00619146 -0.000172959 0.0175451 0.0119859 0.00161671 0.00402662 -0.00422474 0.0294999 -0.00905713 -0.00210753 -0.0030798 -0.00917463 0.00203331 0.00487046 0.00584382 0.00761316 -0.0152102 -0.0142262 -0.0108343 -0.000457845 -0.00762703 -0.0015574 -0.00210499 7.75182e-05 -0.0156215 0.0149651 -0.0145075 -0.00630708 -0.00103847 -0.00117136 -0.00238551 -0.00299142 0.00352852 -0.0173655 -0.000446563 5.32895e-05 -0.00354616 -0.00387348 -0.00134672
internal_weight=0 260 38 143 117 24 39 49 68 104 19 13 54 25 41 14 17 50 33 27 20 26 19 10 32 22 13 29 14 44 33 11 15 14 10 10 19 22 27 17 12 10 15 10 14 11 10
internal_count=298 260 38 143 117 24 39 49 68 104 19 13 54 25 41 14 17 50 33 27 20 26 19 10 32 22 13 29 14 44 33 11 15 14 10 10 19 22 27 17 12 10 15 10 14 11 10
is_linear=0
shrinkage=0.0125


Tree=8
num_leaves=45
num_cat=0
split_feature=12 12 5 0 6 5 5 10 5 12 12 12 6 0 0 9 6 10 10 5 12 8 0 2 5 7 10 5 5 6 8 9 5 12 7 12 2 6 6 7 7 7 12 7
split_gain=103.776 29.2536 24.9129 6.9715 6.56826 5.31177 4.37409 2.94897 2.32995 2.19538 1.80853 1.43523 2.28084 1.26463 0.738739 0.733445 0.59263 0.473738 0.472976 0.465015 0.526268 0.456223 0.426865 0.412022 0.387422 0.343676 0.342759 0.316569 0.231356 0.230361 0.226224 0.302781 0.202124 0.19599 0.188888 0.172177 0.170521 0.170445 0.139385 0.139235 0.0700008 0.0653953 0.0563831 0.0123841
threshold=7.580000000000001 14.915000000000001 7.418000000000001 9.2806950000000032 92.000000000000014 6.7265000000000006 6.7755000000000001 17.700000000000006 6.0985000000000005 18.930000000000003 24.030000000000005 10.040000000000001 84.050000000000011 0.25651000000000007 16.863500000000005 280.00000000000006 99.65000000000002 20.950000000000003 19.900000000000002 7.096000000000001 5.2000000000000011 5.5000000000000009 0.18586500000000003 3.4250000000000003 5.7080000000000011 2.1234500000000005 18.650000000000002 5.6065000000000014 7.8165000000000004 23.350000000000005 7.5000000000000009 302.00000000000006 5.4400000000000004 16.920000000000005 2.7626000000000004 10.410000000000002 5.4800000000000013 94.450000000000017 87.350000000000009 2.3348000000000004 4.6947500000000009 7.1317000000000013 12.020000000000001 3.9258500000000005
decision_type=2 2 2 2 2 2 2 2 2 2 2 2 2 2 2 2 2 2 2 2 2 2 2 2 2 2 2 2 2 2 2 2 2 2 2 2 2 2 2 2 2 2 2 2
left_child=2 6 4 9 5 15 8 28 17 13 14 12 21 34 16 36 25 29 -11 20 23 -10 41 -7 -15 -5 -13 -20 -4 -2 31 40 -12 -26 -3 -33 -1 -29 -28 -35 -31 -17 -32 -37
right_child=1 3 7 10 -6 19 -8 -9 11 18 32 26 -14 24 -16 22 -18 -19 27 -21 -22 -23 -24 -25 33 -27 38 37 -30 30 42 35 -34 39 -36 43 -38 -39 -40 -41 -42 -43 -44 -45
leaf_value=0.0084550743149411581 0.00040792612205841716 -0.0037604783552273955 0.028568295576034294 -0.013347212290542095 0.02240050076479571 0.014367795006246666 0.0094066099229170221 0.018804851793207154 -0.00043661461193690229 -0.0074579939057333308 -0.015045747847278365 0.0012340187832806963 0.011091943967126537 -0.0099622461672750889 -0.014485808862555983 0.0023753357098054814 -0.0063622416430415846 -0.0056096214576806551 -0.013732272538036126 0.014335060017202323 0.0071845113814162269 0.0040059018598361546 0.0058648075004008029 0.009428409454793547 -0.0046233262713742838 -0.0089751838977148307 -0.00076988091893974442 -0.011445644282343303 0.032660683129414392 -0.00061239228581407338 -0.0018452514500713086 -0.0024612850578607376 -0.018330601882253245 -0.0053750360744620439 -0.00093026023822401791 -0.0046336353456806348 0.0051181331165083173 -0.0083693807938039211 -0.0031385774923042725 -0.0081090045884298825 -0.0023784425655547625 0.00074182481869707539 -3.285834927983825e-05 -0.0056998705154598511
leaf_weight=5.0000000000000018 4.9999999999999991 6.9999999999999991 4.9999999999999982 7.0000000000000053 4.9999999999999991 6.0000000000000053 6.9999999999999991 4.9999999999999991 9.0000000000000018 9.0000000000000018 4.9999999999999991 9.0000000000000018 4.9999999999999991 5.0000000000000027 8.9999999999999982 9.0000000000000053 4.9999999999999991 6.9999999999999991 5.0000000000000027 7.9999999999999991 4.9999999999999991 5.9999999999999991 4.9999999999999991 5 9.0000000000000018 5 8.9999999999999982 5.9999999999999982 5 6.0000000000000027 4.9999999999999982 5.9999999999999991 8.9999999999999982 4.9999999999999991 7.9999999999999991 4.9999999999999982 5 6 6.9999999999999991 7.9999999999999991 8.9999999999999982 6.9999999999999991 6 5
leaf_count=5 5 7 5 7 5 6 7 5 9 9 5 9 5 5 9 9 5 7 5 8 5 6 5 5 9 5 9 6 5 6 5 6 9 5 8 5 5 6 7 8 9 7 6 5
internal_value=0 -0.00480716 0.0122799 -0.00938577 0.00867552 0.00742605 -0.000141331 0.0266911 -0.000817352 -0.0069473 -0.0135289 0.00128202 0.00377852 -0.00517569 -0.0115678 0.00400373 -0.0100176 -0.00256843 -0.00980566 0.0118428 0.0105909 0.00133469 0.00267004 0.012131 -0.00679399 -0.0115332 -0.000711747 -0.0110432 0.0306245 -0.0021136 -0.00241584 -0.00296347 -0.0171641 -0.00606981 -0.00225687 -0.00416327 0.00679557 -0.0099151 -0.00181166 -0.00706436 -0.00167783 0.00166613 -0.000864585 -0.00517564
internal_weight=0 214 75 108 60 55 106 15 99 68 40 45 20 42 26 31 17 54 26 24 16 15 21 11 27 12 25 17 10 47 42 31 14 22 15 16 10 12 16 13 15 16 11 10
internal_count=289 214 75 108 60 55 106 15 99 68 40 45 20 42 26 31 17 54 26 24 16 15 21 11 27 12 25 17 10 47 42 31 14 22 15 16 10 12 16 13 15 16 11 10
is_linear=0
shrinkage=0.0125


Tree=9
num_leaves=50
num_cat=0
split_feature=12 5 12 6 7 5 5 0 0 5 5 12 0 6 6 10 6 6 5 5 12 7 0 0 0 5 5 6 10 6 3 0 5 7 0 5 12 0 5 6 7 0 12 7 10 0 2 6 1
split_gain=116.872 29.0662 26.9916 12.0519 8.73501 7.15656 4.88844 2.82074 2.42727 2.16287 2.00135 1.66379 1.84698 0.96354 1.07065 0.829615 0.739785 0.692582 0.736146 0.581737 0.551599 0.471041 0.461615 0.310488 0.302784 0.29832 0.271977 0.295022 0.233049 0.232212 0.244121 0.211804 0.201797 0.152797 0.129003 0.116589 0.115944 0.112637 0.113272 0.168496 0.0982878 0.0779876 0.0678651 0.0561695 0.0504574 0.0383185 0.032613 0.0274322 0.0134005
threshold=7.8100000000000014 7.418000000000001 14.915000000000001 96.750000000000014 2.0055500000000004 6.7265000000000006 6.8840000000000012 0.82162500000000016 7.5379550000000011 6.2115000000000009 7.7280000000000006 10.040000000000001 0.13995000000000005 76.850000000000009 82.550000000000011 17.200000000000003 84.90000000000002 61.900000000000006 6.7970000000000015 6.4215000000000009 25.160000000000004 6.0749500000000003 0.25651000000000007 1.6426200000000002 0.25651000000000007 6.4660000000000011 5.9200000000000008 45.500000000000007 18.650000000000002 73.350000000000009 1.0000000180025095e-35 0.17388500000000004 6.1525000000000007 4.7833000000000014 2.3789550000000004 5.8505000000000011 6.8200000000000012 9.9415450000000032 5.988500000000001 94.050000000000011 4.4546500000000009 0.17127000000000001 9.8450000000000024 2.8954500000000007 20.150000000000002 14.143450000000003 9.1250000000000018 96.950000000000017 31.500000000000004
decision_type=2 2 2 2 2 2 2 2 2 2 2 2 2 2 2 2 2 2 2 2 2 2 2 2 2 2 2 2 2 2 2 2 2 2 2 2 2 2 2 2 2 2 2 2 2 2 2 2 2
left_child=1 3 6 5 8 19 9 29 22 13 -3 12 -11 26 -15 -12 -9 18 -7 32 25 -21 -4 24 -16 45 40 31 -13 -6 41 -28 -1 46 -24 -22 -34 38 -18 -40 44 -31 -42 -30 -2 -10 -29 -36 -20
right_child=2 10 4 -5 7 17 -8 16 20 11 15 28 -14 14 23 -17 37 -19 48 21 35 -23 34 -25 -26 -27 27 33 43 30 -32 -33 36 -35 47 -37 -38 -39 39 -41 42 -43 -44 -45 -46 -47 -48 -49 -50
leaf_value=-5.6822586506574528e-05 -0.00040375717510433259 0.022618707781876111 -0.012718457418088703 0.027901958488852213 -0.00084249790892349885 0.0098656603933088647 0.011678499073891251 -0.0038595605896668719 -0.013632643669614955 0.0016423793587529414 0.035498945677737252 0.0011953840238486406 0.011131947152980149 -0.0092589915724715158 -0.0022740762621626101 0.028134692932955941 -0.010027834740957555 0.0086767782732677674 0.016339689641440489 0.0077712639476841044 -0.01576065728589587 0.0029669410183595945 -0.0069950335446321912 -0.0010436963054544777 -0.0064709959882894748 -0.011116726007170043 -0.00011469389046486957 0.00010098005113528283 -0.0028497590767326019 -0.0031299863474647223 -0.001003430951238903 0.003085335386212361 0.0039608601194141271 -0.0032875844353219782 -0.010048177154426609 -0.018554991309696546 0.0014340133903177909 -0.010918853353662647 -0.0092189126069297887 -0.0061356074460109118 -0.0018133779819025139 -0.0050717609409503192 -0.003666447429999178 -0.0010232175050355343 -0.0019873727325227983 -0.015109288462677326 -0.0013120171373141596 -0.0085078255633275271 0.015078033050905174
leaf_weight=5.0000000000000062 6.0000000000000018 5.9999999999999991 5.0000000000000027 4.9999999999999991 8.0000000000000018 5.0000000000000062 4.9999999999999991 5.0000000000000027 7.0000000000000062 9.0000000000000018 4.9999999999999982 6.0000000000000027 4.9999999999999991 5.0000000000000027 6.0000000000000018 5 7.0000000000000062 4.9999999999999991 4.9999999999999991 6.9999999999999982 5.9999999999999982 6 7.0000000000000027 8.9999999999999982 5 5.9999999999999991 9.0000000000000018 4.9999999999999982 4.9999999999999982 6.0000000000000027 4.9999999999999991 4.9999999999999991 6.9999999999999982 4.9999999999999991 4.9999999999999982 5 5 4.9999999999999991 6.9999999999999982 5 5.9999999999999982 7.9999999999999991 7 6 7 8.9999999999999982 5 5 7.9999999999999991
leaf_count=5 6 6 5 5 8 5 5 5 7 9 5 6 5 5 6 5 7 5 5 7 6 6 7 9 5 6 9 5 5 6 5 5 7 5 5 5 5 5 7 5 6 8 7 6 7 9 5 5 8
internal_value=0 0.0134619 -0.0046273 0.00934485 -0.00903368 0.00759232 -0.000410089 -0.00555573 -0.0125732 -0.000955445 0.02838 0.0018461 0.00503794 -0.00204213 -0.00407816 0.0318269 -0.00826407 0.0128396 0.0139909 0.00356637 -0.014722 0.00556072 -0.00934592 -0.00277845 -0.00418982 -0.013559 -0.00111506 -0.000279284 -0.00077745 -0.00264349 -0.00339721 0.00102205 0.00203609 -0.00149963 -0.0083486 -0.0170394 0.00291531 -0.00917798 -0.00871505 -0.00794169 -0.00204392 -0.00424588 -0.00281794 -0.00186142 -0.00126317 -0.0144691 -0.000596889 -0.00928708 0.0155705
internal_weight=0 74 227 58 111 53 116 56 55 111 16 31 14 80 25 10 29 23 18 30 33 13 22 20 11 22 55 29 17 27 19 14 17 15 17 11 12 24 19 12 26 14 13 11 13 16 10 10 13
internal_count=301 74 227 58 111 53 116 56 55 111 16 31 14 80 25 10 29 23 18 30 33 13 22 20 11 22 55 29 17 27 19 14 17 15 17 11 12 24 19 12 26 14 13 11 13 16 10 10 13
is_linear=0
shrinkage=0.0125


Tree=10
num_leaves=48
num_cat=0
split_feature=12 12 12 5 5 0 4 0 12 11 5 9 4 5 11 11 5 12 12 4 4 8 5 12 8 10 5 8 5 12 5 9 11 5 10 10 4 5 4 0 4 10 11 3 10 10 12
split_gain=110.558 34.1423 22.4547 8.92582 8.12426 7.22809 5.32419 2.06219 1.98721 1.94011 1.17952 1.00173 0.976236 0.935722 0.698253 0.996158 0.659784 0.54059 0.531258 0.531173 0.76727 0.517213 0.482868 0.416775 0.391909 0.327707 0.294011 0.316722 0.282895 0.258825 0.246381 0.227047 0.230262 0.183548 0.155455 0.139859 0.105501 0.104447 0.135388 0.113969 0.15311 0.0890762 0.0885829 0.0746712 0.0976512 0.0607367 0.0174376
threshold=8.2100000000000026 4.4750000000000005 14.475000000000001 6.7265000000000006 7.418000000000001 7.5379550000000011 0.45550000000000007 7.5379550000000011 21.650000000000002 377.7000000000001 6.9625000000000012 267.00000000000006 0.6070000000000001 6.0765000000000011 391.88000000000005 176.13500000000002 6.4215000000000009 11.845000000000002 7.580000000000001 0.67500000000000016 0.69650000000000001 2.5000000000000004 5.6065000000000014 20.935000000000006 3.5000000000000004 20.550000000000001 6.0035000000000007 5.5000000000000009 6.3160000000000016 13.065000000000001 6.0440000000000014 280.00000000000006 396.26000000000005 6.0220000000000011 16.950000000000003 18.550000000000004 0.50850000000000006 5.9200000000000008 0.48850000000000005 0.17388500000000004 0.45100000000000007 17.850000000000005 392.26500000000004 1.0000000180025095e-35 18.550000000000004 18.100000000000005 12.500000000000002
decision_type=2 2 2 2 2 2 2 2 2 2 2 2 2 2 2 2 2 2 2 2 2 2 2 2 2 2 2 2 2 2 2 2 2 2 2 2 2 2 2 2 2 2 2 2 2 2 2
left_child=1 4 7 16 6 9 -1 13 14 22 34 41 25 33 15 -7 18 21 36 -10 -21 -15 -4 30 -6 43 27 -24 -23 46 -14 -18 -33 37 -5 -30 45 38 -2 40 -39 -12 -40 44 -11 -3 -19
right_child=2 3 5 10 24 8 -8 -9 19 12 11 -13 23 17 -16 -17 31 29 -20 20 -22 28 26 -25 -26 -27 -28 -29 35 -31 -32 32 -34 -35 -36 -37 -38 39 42 -41 -42 -43 -44 -45 -46 -47 -48
leaf_value=0.010772585433764557 -0.0038325386735147873 0.0010061814859562747 -0.01144203250387406 0.010516409214261313 0.02859662251791005 -0.011466525415982943 0.027245403878520341 0.0076364475266930687 -0.011482856520280783 -0.0035769886784209268 0.018207008396528983 0.01069783091909667 -0.007180393947579607 -0.0016542289497458265 -0.01258729010391707 -0.0053761307216676005 0.0065875654037514126 -0.0017187930548350824 -0.0016041303338945228 -0.018451459322646881 -0.013228948915288065 0.0010516754676481565 -0.0081624819552916714 -0.0095898245692705858 0.033393429816735071 -0.005228687964855201 -0.009407905504974114 -0.0038561468918964837 0.0028423256565326092 0.00099017058494378163 -0.0036871139054150126 0.0055219558990088138 0.0016953898469607024 -0.0042174144473661477 0.0072998030599581813 0.0057195849888544009 0.0042718644242357847 0 -0.0024309131181810238 0.00066784168859551781 -0.0029445226805654996 0.015601403856233043 -0.00040211199300382318 -0.00068870675994460678 -0.0013743787451586775 0.0029061868551771152 -0.0028362505966456593
leaf_weight=8.0000000000000018 6.0000000000000027 5.0000000000000053 7.0000000000000027 5.0000000000000018 4.9999999999999982 8.0000000000000053 4.9999999999999991 4.9999999999999991 6.0000000000000027 6.0000000000000053 5.0000000000000018 6.9999999999999991 6.0000000000000018 5.0000000000000027 8.9999999999999982 8.9999999999999982 7.0000000000000027 4.9999999999999982 5.9999999999999991 9.0000000000000018 8.9999999999999982 8.0000000000000018 6.0000000000000018 4.9999999999999991 7 5.9999999999999991 7.9999999999999991 5 5.9999999999999982 5.9999999999999991 7 4.9999999999999982 5 4.9999999999999991 5 5 4.9999999999999991 4.9999999999999982 7.9999999999999982 4.9999999999999991 6 5 6 5.9999999999999991 7 6 5
leaf_count=8 6 5 7 5 5 8 5 5 6 6 5 7 6 5 9 9 7 5 6 9 9 8 6 5 7 6 8 5 6 6 7 5 5 5 5 5 5 5 8 5 6 5 6 6 7 6 5
internal_value=0 0.0115358 -0.00502012 0.00682157 0.0239776 -0.00853704 0.0171157 -0.000152659 -0.0121577 -0.00591208 0.0123473 0.0143596 -0.00427814 -0.000634577 -0.00975327 -0.00824752 0.00299375 0.00072404 0.0015587 -0.0147586 -0.0158454 0.00191181 -0.00861091 -0.00650115 0.0314031 -0.00267401 -0.00756307 -0.00621316 0.00285481 -0.00105221 -0.00530625 0.0048457 0.00361749 -0.00196216 0.00891716 0.00415822 0.00275018 -0.00164648 -0.00225152 -0.000884728 -0.00159831 0.0169136 -0.00156765 -0.00186261 -0.00239772 0.00205049 -0.00228628
internal_weight=0 91 205 66 25 119 13 86 50 69 27 17 43 81 26 17 39 40 22 24 18 24 26 18 12 25 19 11 19 16 13 17 10 41 10 11 16 36 20 16 11 10 14 19 13 11 10
internal_count=296 91 205 66 25 119 13 86 50 69 27 17 43 81 26 17 39 40 22 24 18 24 26 18 12 25 19 11 19 16 13 17 10 41 10 11 16 36 20 16 11 10 14 19 13 11 10
is_linear=0
shrinkage=0.0125


Tree=11
num_leaves=45
num_cat=0
split_feature=5 12 7 12 5 7 9 11 12 0 5 5 9 12 6 2 0 12 7 6 7 9 7 5 0 0 5 8 12 5 6 6 5 12 0 11 5 5 2 0 0 2 5 12
split_gain=114.263 46.1792 13.6281 11.3256 7.84037 7.25167 2.84293 2.70516 2.14912 1.84957 1.81447 1.34362 0.944069 0.8758 0.6295 0.61132 0.578508 0.421387 0.40143 0.387963 0.383607 0.373034 0.359112 0.31082 0.378056 0.272534 0.223472 0.222678 0.207828 0.186038 0.154582 0.136408 0.150736 0.134701 0.243522 0.121016 0.109571 0.109024 0.0965294 0.0912632 0.0563839 0.0301753 0.0218376 0.00209426
threshold=6.9775000000000009 14.475000000000001 1.5055000000000003 4.7150000000000007 6.3440000000000003 2.0055500000000004 267.00000000000006 367.19500000000005 4.830000000000001 7.5379550000000011 7.7280000000000006 6.0985000000000005 284.50000000000006 19.900000000000002 76.850000000000009 3.4250000000000003 0.25651000000000007 8.7800000000000011 2.4150500000000004 61.900000000000006 4.4546500000000009 407.00000000000006 3.9611500000000004 5.4400000000000004 24.923900000000003 4.6578600000000003 6.2115000000000009 6.5000000000000009 7.7150000000000007 7.926000000000001 22.100000000000005 65.15000000000002 5.8875000000000002 11.845000000000002 0.19467500000000001 393.56000000000006 6.503000000000001 5.9515000000000002 6.9350000000000014 2.3789550000000004 0.066025000000000014 5.2550000000000017 5.8795000000000011 21.385000000000002
decision_type=2 2 2 2 2 2 2 2 2 2 2 2 2 2 2 2 2 2 2 2 2 2 2 2 2 2 2 2 2 2 2 2 2 2 2 2 2 2 2 2 2 2 2 2
left_child=1 2 -1 10 11 9 -5 25 15 16 -2 14 28 -11 20 -6 -3 38 -16 -9 31 27 26 -15 35 -7 37 41 -10 -12 -22 32 -4 34 -19 -25 -27 -21 -13 -18 -32 -14 -42 -41
right_child=3 5 4 6 8 7 -8 19 12 13 29 17 21 23 18 -17 39 33 -20 22 30 -23 -24 24 -26 36 -28 -29 -30 -31 40 -33 -34 -35 -36 -37 -38 -39 -40 43 42 -43 -44 -45
leaf_value=0.022047930495032859 0.023645884997633263 -0.012973565357472122 -0.0008096991819993701 0.019645414431685666 0.013063774678951215 -0.0071761354366054022 0.0096808020708418971 -0.00018915428069359014 0.0073000185562157221 -0.010094729744842053 0.03428816365319657 0.0016205386670955974 0.0016159535147509019 -0.012719488869698509 -0.0022378487541347236 0.0070922324657963602 -0.0070754076936047766 -0.0013535040775937207 -0.0065428907325429456 -0.0032687428335212592 -0.00079684150888717986 -0.00031680061732513014 -0.0060609931859905109 -0.015570436473164639 -0.018751555993647709 -0.011278124947113779 -0.0050648913204550308 0.0050503166876452611 0.0042476704864701943 0.030538429943346896 -0.004204806778442669 -0.0020958811274793209 0.0018082060138161775 -0.0016721440207594102 0.0022043268534423697 -0.012981734332809717 -0.0089532702941640084 -0.0010384744152534687 0.0038165702878907451 -0.0085081953768610351 -0.0033089581526766811 0.0029011787043386004 -0.00206302924062948 -0.0093828911005504716
leaf_weight=4.9999999999999991 5.9999999999999991 5.0000000000000027 8.0000000000000018 9.0000000000000018 4.9999999999999982 8.0000000000000018 8.9999999999999982 4.9999999999999991 8.9999999999999982 7.9999999999999991 4.9999999999999982 8.9999999999999982 8.0000000000000053 8.0000000000000018 5.9999999999999991 6 8.0000000000000018 6.0000000000000018 7.9999999999999991 7.0000000000000053 5.0000000000000027 6.9999999999999991 8.9999999999999982 9.0000000000000018 4.9999999999999991 6.9999999999999982 5.9999999999999991 5.9999999999999991 5.9999999999999991 5 7.0000000000000027 4.9999999999999991 5.9999999999999991 7.9999999999999991 6 4.9999999999999991 7 7 4.9999999999999991 4.9999999999999982 4.9999999999999982 4.9999999999999991 5 5
leaf_count=5 6 5 8 9 5 8 9 5 9 8 5 9 8 8 6 6 8 6 8 7 5 7 9 9 5 7 6 6 6 5 7 5 6 8 6 5 7 7 5 5 5 5 5 5
internal_value=0 -0.00288689 0.00176764 0.0214804 0.0010478 -0.00884871 0.0146683 -0.00563725 0.00490433 -0.0119479 0.029138 -0.00120449 0.00358467 -0.0137625 -0.00241242 0.00981486 -0.00918257 0.000746977 -0.00470419 -0.00342313 -0.00162771 0.00213875 -0.00397771 -0.0148458 -0.0157362 -0.00905501 -0.00303579 0.00304797 0.00608501 0.0324234 -0.00275186 -0.00032148 0.000306099 -0.00041362 0.000418213 -0.0146525 -0.0101222 -0.00215986 0.00241112 -0.00812441 -0.00332174 0.00211701 -0.00269477 -0.0089546
internal_weight=0 260 146 34 141 114 18 56 52 58 16 89 41 35 55 11 23 34 14 34 41 26 29 27 19 22 20 19 15 10 22 19 14 20 12 14 14 14 14 18 17 13 10 10
internal_count=294 260 146 34 141 114 18 56 52 58 16 89 41 35 55 11 23 34 14 34 41 26 29 27 19 22 20 19 15 10 22 19 14 20 12 14 14 14 14 18 17 13 10 10
is_linear=0
shrinkage=0.0125


Tree=12
num_leaves=49
num_cat=0
split_feature=12 12 5 12 4 5 12 0 5 12 11 0 12 12 12 4 10 4 5 9 10 0 5 6 6 0 9 11 6 6 0 6 12 5 0 5 2 12 6 0 11 0 10 12 12 4 12 12
split_gain=86.8118 25.3717 22.3848 7.11305 6.48914 4.88204 3.58461 3.2456 2.27582 2.14683 2.12235 1.28615 1.07786 0.796345 0.991215 0.71275 0.703424 0.689256 0.597352 0.585858 0.573916 0.471187 0.41832 0.360409 0.358922 0.331291 0.327886 0.306455 0.290038 0.253911 0.258655 0.214639 0.182351 0.159361 0.138806 0.166763 0.129898 0.163504 0.12599 0.111174 0.0875077 0.0873798 0.0863242 0.0824708 0.155882 0.0585203 0.0571989 0.0191543
threshold=7.8100000000000014 14.915000000000001 6.9625000000000012 3.9900000000000007 0.6070000000000001 6.8840000000000012 4.9150000000000009 11.695100000000002 6.0985000000000005 10.040000000000001 382.82000000000005 0.82162500000000016 19.900000000000002 6.4500000000000002 4.830000000000001 0.44245000000000007 20.950000000000003 0.67500000000000016 5.9200000000000008 453.00000000000006 17.950000000000003 0.069620000000000015 6.5940000000000003 76.850000000000009 80.550000000000011 16.863500000000005 280.00000000000006 251.77000000000001 95.100000000000009 76.850000000000009 0.17388500000000004 96.050000000000011 12.760000000000002 6.3440000000000003 6.7594450000000004 6.0440000000000014 9.1250000000000018 9.1300000000000008 91.500000000000014 0.25089500000000003 393.27000000000004 0.34473000000000004 18.750000000000004 17.200000000000006 18.135000000000002 0.71550000000000014 23.740000000000006 6.5650000000000004
decision_type=2 2 2 2 2 2 2 2 2 2 2 2 2 2 2 2 2 2 2 2 2 2 2 2 2 2 2 2 2 2 2 2 2 2 2 2 2 2 2 2 2 2 2 2 2 2 2 2
left_child=2 5 6 -4 11 8 15 12 16 10 -10 28 27 14 -5 -1 29 -9 -13 -14 -11 -12 26 40 -18 -19 -8 -6 43 30 36 39 -25 -23 35 -29 37 -2 -20 -31 -22 -32 -39 -3 -45 -36 -21 -28
right_child=1 4 3 13 7 -7 22 17 9 20 21 18 19 -15 -16 -17 24 25 38 46 23 33 -24 32 -26 -27 47 34 -30 31 41 -33 -34 -35 45 -37 -38 42 -40 -41 -42 -43 -44 44 -46 -47 -48 -49
leaf_value=0.0091203793387532369 -0.00066960259252009846 -0.0030114975183979753 0.029450610220961411 0.017225414511975751 -0.010120888425241848 0.011977714131062233 0.0051479386613620497 -0.011635923100964393 0.011359251841912815 0.0028300616164880395 -0.00070431848477341087 -0.0098493951825002635 -0.0086089683186567258 0.020412618029842514 0.010611295421470579 0.015571780974571754 -0.0030205812566335942 -0.014651812106811088 -0.0066618551586501073 -0.012302184681205003 -0.0014227658327873906 0.001842057785393425 0.0062193528030464792 -0.0014874634961385693 -0.0075911089201540537 -0.018480604862083045 0.0023996628053246367 -0.0071764680115616146 -0.005305558934756243 -0.0027020744531533144 0.0015610864711248231 -0.00085904440224443622 -0.0046446111307856504 0.0048001801846086984 -0.0086948407291148871 -0.0038885012178807143 -0.00011321378943103972 -0.0019285345904306618 -0.0037911727623843802 -0.0053911728775666128 0.00081339379767445962 -0.00066854418484535525 -0.0040116922424717864 0.00020597473177564127 -0.0029003193991232784 -0.0066456287703775168 -0.014431212517450326 0.0014813095226422132
leaf_weight=5.9999999999999982 7.0000000000000062 9.0000000000000053 9.0000000000000018 9.0000000000000018 5.0000000000000027 4.9999999999999991 7.0000000000000062 7.0000000000000027 5.0000000000000027 5.0000000000000027 6.0000000000000027 8.0000000000000018 7.0000000000000009 4.9999999999999991 5.9999999999999991 5 5.9999999999999982 7.9999999999999982 4.9999999999999982 5 5.0000000000000018 4.9999999999999982 7.9999999999999991 4.9999999999999982 5 7 6.9999999999999991 5.0000000000000018 5.9999999999999991 4.9999999999999982 5.9999999999999982 4.9999999999999991 7 7 4.9999999999999982 5 5.9999999999999991 5.9999999999999982 5 5 6 5 7 4.9999999999999982 5 5 5 8.9999999999999982
leaf_count=6 7 9 9 9 5 5 7 7 5 5 6 8 7 5 6 5 6 8 5 5 5 5 8 5 5 7 7 5 6 5 6 5 7 7 5 5 6 6 5 5 6 5 7 5 5 5 5 9
internal_value=0 -0.00408243 0.0117626 0.0202104 -0.00849927 -0.000110235 0.00592736 -0.0110235 -0.000641212 0.00132068 0.00415106 -0.00474017 -0.00898085 0.0160474 0.0145859 0.0120612 -0.00223078 -0.0149189 -0.00729107 -0.0114185 -0.00100122 0.00214374 0.00374789 -0.00183791 -0.00510619 -0.0164449 0.00288439 -0.00731964 -0.00289995 -0.00162082 -0.00106102 -0.00299582 -0.00333645 0.00357496 -0.00661479 -0.00554139 -0.0017416 -0.00222577 -0.00523541 -0.00405546 -0.000195189 0.000539762 -0.00305699 -0.00213562 -0.00133858 -0.00767924 -0.013376 0.00188856
internal_weight=0 226 71 29 107 119 42 64 114 51 23 43 42 20 15 11 63 22 18 17 28 18 31 23 11 15 23 25 25 52 37 15 12 12 20 10 26 20 10 10 11 11 13 19 10 10 10 16
internal_count=297 226 71 29 107 119 42 64 114 51 23 43 42 20 15 11 63 22 18 17 28 18 31 23 11 15 23 25 25 52 37 15 12 12 20 10 26 20 10 10 11 11 13 19 10 10 10 16
is_linear=0
shrinkage=0.0125


Tree=13
num_leaves=51
num_cat=0
split_feature=12 12 12 4 4 9 10 12 2 10 0 9 10 10 10 9 12 7 11 7 11 10 0 12 4 7 12 12 8 11 7 7 2 7 0 0 12 11 10 11 1 10 7 12 12 11 11 11 0 12
split_gain=94.0905 24.0433 22.3209 7.87237 7.092 4.70693 4.56836 3.83046 3.09925 2.32378 1.47115 1.46371 1.46258 1.07626 0.770755 1.19234 0.744728 0.734356 0.702048 0.671971 0.6226 0.64459 0.614659 0.60697 0.541211 0.420553 0.679682 0.408913 0.339327 0.32811 0.309746 0.296961 0.286253 0.282556 0.219786 0.190589 0.176841 0.175534 0.137899 0.166501 0.131091 0.186341 0.0949498 0.16362 0.0945768 0.0800606 0.0694078 0.0581282 0.0289919 0.00341876
threshold=8.2100000000000026 4.9150000000000009 14.915000000000001 0.57400000000000007 0.6070000000000001 267.00000000000006 14.750000000000002 18.930000000000003 4.2200000000000006 18.350000000000005 0.82162500000000016 453.00000000000006 16.250000000000004 15.000000000000002 20.150000000000002 332.00000000000006 14.475000000000001 1.4178000000000004 375.9550000000001 6.4079500000000005 393.84500000000008 17.950000000000003 6.4659400000000007 7.580000000000001 0.69650000000000001 3.6949500000000008 19.730000000000004 11.330000000000002 3.5000000000000004 392.14500000000004 1.58945 5.1663000000000006 8.3500000000000032 3.6334500000000003 10.452400000000003 11.695100000000002 9.6450000000000014 382.82000000000005 20.150000000000002 378.31500000000005 29.000000000000004 19.400000000000002 2.7626000000000004 18.135000000000002 23.740000000000006 396.22000000000008 395.61000000000007 394.4500000000001 0.079230000000000009 17.275000000000002
decision_type=2 2 2 2 2 2 2 2 2 2 2 2 2 2 2 2 2 2 2 2 2 2 2 2 2 2 2 2 2 2 2 2 2 2 2 2 2 2 2 2 2 2 2 2 2 2 2 2 2 2
left_child=1 3 14 6 10 8 -1 22 -3 19 28 -9 13 -7 15 20 18 -13 -16 29 21 33 38 40 30 26 -12 -23 -4 -8 -19 37 46 -2 49 -26 48 -17 -6 -40 41 -14 -30 -44 -32 -38 -20 -34 -22 -24
right_child=2 5 4 -5 7 12 9 11 -10 -11 25 17 23 -15 16 31 -18 24 32 -21 36 27 34 -25 35 -27 -28 -29 42 -31 44 -33 47 -35 -36 -37 45 -39 39 -41 -42 -43 43 -45 -46 -47 -48 -49 -50 -51
leaf_value=0.027135488353046817 0.0072050167931330582 0.015880649808377896 -0.0050665886216662136 0.033338817447113082 -0.0076337937383697116 0.0029071526661243962 0.020262002900926491 -0.0085189251845453496 0.0051667184756852558 0.0063575123559114618 -0.0085186357406989224 -0.0099886271926530462 0.0047375130163975444 0.011138532910689357 0.0026184337839749747 -0.0029239297145131878 -0.0055001824764896691 -0.019398196561718359 -0.0045838755736197761 0.012555654192719196 0.00040782358335934838 0.0035188761484755793 -0.008761105667286993 -0.0014462885312875073 -0.011561378011464616 -0.0096341047470771771 -0.0022494823107056575 -0.0011563408454943298 -0.0029113189423656291 0.015940221217658031 -0.014141532153122211 -0.0044744735429679506 -0.00035271679996265226 0.0029605933198718327 -0.01160911977533345 -0.01471607341802565 0.0001808761129560479 -8.400689096155232e-05 -0.0064905136119029197 -0.0033497779976669308 0.0010548162087978183 0.0018251072613041969 0.00025499892600363991 -0.0026957921721850542 -0.01659679366969188 -0.0017771361342655242 -0.0025319515905020767 -0.0018862718072149118 0.0017819308001514782 -0.0078654955131957204
leaf_weight=5.0000000000000027 5.0000000000000018 9.0000000000000018 6.0000000000000027 4.9999999999999991 5.0000000000000062 4.9999999999999982 5.0000000000000053 7.9999999999999991 7.9999999999999991 4.9999999999999991 6.0000000000000018 4.9999999999999991 7.0000000000000053 5 5.9999999999999991 6.0000000000000027 7.9999999999999991 5.0000000000000062 6.0000000000000018 5.9999999999999991 5.0000000000000018 4.9999999999999982 4.9999999999999982 7.9999999999999991 5.9999999999999982 6.9999999999999991 5 7 6.0000000000000027 7 4.9999999999999982 6.9999999999999991 8.9999999999999982 5 4.9999999999999991 7 4.9999999999999991 7.9999999999999991 5.9999999999999982 5 5.9999999999999991 7 6.9999999999999982 5 7 8.9999999999999982 5 6.9999999999999991 5 5
leaf_count=5 5 9 6 5 5 5 5 8 8 5 6 5 7 5 6 6 8 5 6 6 5 5 5 8 6 7 5 7 6 7 5 7 9 5 5 7 5 8 6 5 6 7 7 5 7 9 5 7 5 5
internal_value=0 0.0104385 -0.00481581 0.0188746 -0.00862324 0.00537516 0.0162881 -0.0109525 0.0108442 0.0139257 -0.00451708 -0.0133699 0.00292613 0.00703182 -0.000725537 9.92913e-05 -0.00207552 -0.0144762 -0.00124262 0.016023 0.00122722 0.00274632 -0.00759644 0.00145663 -0.015221 -0.00722095 -0.0056771 0.000784511 -0.00248548 0.0177489 -0.0167097 -0.00236726 -0.00210386 0.00509169 -0.00942401 -0.0132672 -0.000161709 -0.00130735 -0.00587746 -0.00507097 0.00262213 0.0032876 -0.0016202 -0.000967338 -0.0155816 -0.00107168 -0.00365919 -0.00102909 0.00110358 -0.00832233
internal_weight=0 88 224 33 116 55 28 74 17 23 42 43 38 10 108 67 41 35 33 18 46 22 31 28 30 18 11 12 24 12 17 21 27 10 15 13 24 14 16 11 20 14 18 12 12 14 11 16 10 10
internal_count=312 88 224 33 116 55 28 74 17 23 42 43 38 10 108 67 41 35 33 18 46 22 31 28 30 18 11 12 24 12 17 21 27 10 15 13 24 14 16 11 20 14 18 12 12 14 11 16 10 10
is_linear=0
shrinkage=0.0125


Tree=14
num_leaves=51
num_cat=0
split_feature=12 5 12 5 0 10 12 5 12 6 4 4 6 5 12 5 6 6 10 12 5 12 4 0 10 0 4 6 5 11 10 12 12 0 2 5 11 6 4 6 2 12 11 11 0 2 11 10 5 5
split_gain=102.002 30.4003 18.6239 8.23244 5.64417 3.77025 3.03548 2.19104 1.72009 1.34897 1.25129 1.14018 1.01186 1.00777 0.987462 1.36815 1.02533 0.967149 0.886053 0.790228 0.6389 0.578179 0.571483 0.386694 0.321179 0.289074 0.276702 0.271668 0.496957 0.279162 0.260023 0.211437 0.199342 0.154934 0.135422 0.251641 0.134476 0.130594 0.127058 0.116777 0.116427 0.105415 0.0960077 0.0902148 0.0763655 0.0664918 0.0631046 0.0562162 0.0443774 0.0264522
threshold=8.2100000000000026 7.418000000000001 14.915000000000001 6.6655000000000006 7.5379550000000011 17.700000000000006 4.9150000000000009 6.0985000000000005 19.900000000000002 95.100000000000009 0.53500000000000014 0.67500000000000016 97.100000000000009 6.7540000000000004 5.495000000000001 7.096000000000001 45.500000000000007 84.90000000000002 20.150000000000002 7.580000000000001 6.9625000000000012 18.055000000000003 0.69650000000000001 0.045585000000000007 18.350000000000005 0.82162500000000016 0.41400000000000003 68.000000000000014 5.6970000000000001 377.00500000000005 17.950000000000003 13.245000000000003 17.925000000000004 11.695100000000002 5.910000000000001 5.8875000000000002 389.52000000000004 54.350000000000001 0.6070000000000001 96.950000000000017 9.9550000000000018 10.295000000000002 395.62500000000006 388.01000000000005 0.081065000000000012 9.9550000000000018 333.24500000000006 18.750000000000004 5.8100000000000014 5.8200000000000012
decision_type=2 2 2 2 2 2 2 2 2 2 2 2 2 2 2 2 2 2 2 2 2 2 2 2 2 2 2 2 2 2 2 2 2 2 2 2 2 2 2 2 2 2 2 2 2 2 2 2 2 2
left_child=1 3 7 6 10 36 -1 27 12 13 42 -10 32 18 16 24 20 45 23 26 -5 25 46 -9 -16 -19 -8 34 -29 -30 -25 -20 -6 -24 47 49 -3 44 48 -27 -31 -32 -4 -40 -28 -12 -13 -2 -23 -36
right_child=2 5 4 14 8 -7 19 9 11 -11 17 22 -14 -15 15 -17 -18 21 31 -21 -22 38 33 30 -26 39 37 28 29 40 41 -33 -34 -35 35 -37 -38 -39 43 -41 -42 -43 -44 -45 -46 -47 -48 -49 -50 -51
leaf_value=0.012663235753929906 -0.0017879584222369321 0.028619720806900336 -0.0014699525995864266 0.0096800311398698748 -0.012222034519220484 0.016914328654374183 0.00052245312553901124 -0.0019635419129573508 -0.0093623904197374843 0.0072805640025717022 -0.0042295925545326515 -0.015987842906938991 -0.0042542506328392812 0.0056771131635662692 0.0088497900157413125 0.014801019495033433 0.018481907096385586 -0.0041000690675321782 -0.0016536464935676888 -0.0015085110994680106 0.014586635486683522 -0.0087497021645150455 -0.011519267632543267 0.0036541299906017082 0.0045088292624960941 -0.0084667171908167742 0.0041403677064195009 1.7365986000687914e-05 -0.0066424109883967009 -0.0042487715736515448 0.0018010313789906592 -0.0049554887715338031 -0.0089041750505412971 -0.014637734751137211 -0.0027779752087497001 0.00082378124452403979 0.031638826651088074 0.0050914510832972305 -0.011180741381658206 -0.0057910827438261269 -0.0018314704109520332 -0.00064755059216524717 -0.0037076156518119057 -0.0088503662979269888 0.002233693670309339 -0.0021372370679947714 -0.018264424257077579 -0.0034804258696891563 -0.0069255653973875515 -0.0014912616092661066
leaf_weight=4.9999999999999991 6.0000000000000018 7.0000000000000018 7.9999999999999982 9.0000000000000053 6.0000000000000018 4.9999999999999991 5.0000000000000027 5.0000000000000027 8.0000000000000018 4.9999999999999991 4.9999999999999982 5.0000000000000018 5.9999999999999991 4.9999999999999991 5.9999999999999982 4.9999999999999991 4.9999999999999991 8.0000000000000018 7.9999999999999982 6.9999999999999991 7.9999999999999991 5.0000000000000018 5.9999999999999982 8.0000000000000018 5 5.9999999999999982 6.0000000000000027 5.0000000000000027 6.0000000000000027 8.9999999999999982 5.9999999999999982 5 6 5 6.0000000000000018 6.9999999999999991 5 7.9999999999999991 4.9999999999999982 5 4.9999999999999991 5 5 7 7.9999999999999991 5 5 7 5 5
leaf_count=5 6 7 8 9 6 5 5 5 8 5 5 5 6 5 6 5 5 8 8 7 8 5 6 8 5 6 6 5 6 9 6 5 6 5 6 7 5 8 5 5 5 5 5 7 8 5 5 7 5 5
internal_value=0 0.0109457 -0.00467562 0.00760391 -0.00822788 0.0260765 0.00356617 -0.000846585 -0.011519 0.00114218 -0.00580958 -0.0134082 -0.0084702 0.000409292 0.0117455 0.00936435 0.0134731 -0.00669294 -0.000300297 0.00222567 0.0119944 -0.00754462 -0.014945 0.00112075 0.00688476 -0.00593342 0.00319701 -0.00251727 -0.00349019 -0.00437138 0.00193699 -0.00293037 -0.0105707 -0.0129452 -0.00172983 -0.00101993 0.029886 0.00380091 -0.00893202 -0.00725868 -0.00339172 0.000680189 -0.00233735 -0.00982895 0.00305713 -0.00319221 -0.0171356 -0.00270604 -0.00784664 -0.00220106
internal_weight=0 94 214 77 111 17 39 103 47 47 64 29 18 42 38 16 22 51 37 34 17 41 21 24 11 19 27 56 25 20 19 13 12 11 31 18 12 22 22 11 14 11 13 12 14 10 10 13 10 11
internal_count=308 94 214 77 111 17 39 103 47 47 64 29 18 42 38 16 22 51 37 34 17 41 21 24 11 19 27 56 25 20 19 13 12 11 31 18 12 22 22 11 14 11 13 12 14 10 10 13 10 11
is_linear=0
shrinkage=0.0125


Tree=15
num_leaves=47
num_cat=0
split_feature=12 5 12 4 5 11 5 10 4 6 9 12 5 5 12 4 5 5 0 9 4 12 4 9 4 0 8 0 11 5 4 6 4 0 6 6 6 11 4 0 5 6 12 5 6 4
split_gain=104.976 31.7144 14.5455 13.9558 7.50426 4.59559 4.00283 3.22159 2.90012 2.6957 1.5191 1.43915 1.16167 1.02353 0.9573 0.723735 0.984082 0.656847 0.570652 0.50692 0.434143 0.397231 0.388696 0.339605 0.31356 0.29734 0.296712 0.272184 0.265837 0.231833 0.225395 0.198671 0.198434 0.211828 0.190956 0.18799 0.187516 0.153727 0.153124 0.124819 0.0903572 0.110002 0.0647893 0.0585083 0.0365745 0.0280133
threshold=9.8450000000000024 6.9625000000000012 19.900000000000002 0.62750000000000006 7.4620000000000006 105.24000000000001 6.4660000000000011 17.700000000000006 0.6070000000000001 85.550000000000026 453.00000000000006 14.345000000000001 6.0625000000000009 6.3810000000000011 4.9150000000000009 0.6070000000000001 5.8200000000000012 7.0425000000000013 1.6426200000000002 267.00000000000006 0.67500000000000016 17.095000000000002 0.69650000000000001 298.00000000000006 0.45550000000000007 11.695100000000002 4.5000000000000009 1.0902550000000002 390.09000000000009 7.8640000000000008 0.48000000000000004 29.750000000000004 0.43200000000000005 0.12614500000000003 45.500000000000007 46.500000000000007 99.65000000000002 370.75500000000005 0.5485000000000001 0.12614500000000003 6.0440000000000014 69.950000000000017 25.160000000000004 5.9605000000000006 38.650000000000006 0.58200000000000007
decision_type=2 2 2 2 2 2 2 2 2 2 2 2 2 2 2 2 2 2 2 2 2 2 2 2 2 2 2 2 2 2 2 2 2 2 2 2 2 2 2 2 2 2 2 2 2 2
left_child=1 3 5 6 17 25 12 29 27 13 -10 18 35 23 31 16 -13 -3 -11 -19 -12 -17 36 30 39 -2 43 -4 -23 -6 -7 -8 -16 -34 -28 -1 -22 -20 -18 44 41 -36 -24 -25 -14 -42
right_child=2 4 8 -5 7 9 14 -9 10 11 20 15 24 -15 32 21 38 19 37 -21 22 28 42 26 -26 -27 34 -29 -30 -31 -32 -33 33 -35 40 -37 -38 -39 -40 -41 45 -43 -44 -45 -46 -47
leaf_value=-0.001088301514951769 -0.0089008769386439788 0.017648323564349824 -0.0043101644780714999 0.025029427993407273 0.027146015671901072 -0.0014591143692291957 0.0081916579168225759 0.017130273646005847 -0.0083193923607801576 -0.0043727678024474519 -0.011822293595115649 -0.0087988515304038596 0.0013931482847960568 0.0039144288860557533 0.0029506234964093454 -0.0051653643971965495 -0.0033331194499911288 0.015180125772373999 0.0018299927399238977 0.010508651403613407 -0.0152620484368029 -0.0068332457546379163 -0.01245645007524703 -0.0041786318383942502 0.0041741255179758687 -0.012776685393328827 0.00086863114667738413 -0.0077923738118880108 -0.01022962227535603 0.031055155651488545 0.0013379530786971571 0.01165825170843281 0.0072390798952284624 0.0040839335741717012 -0.0012377720184930125 -0.0041987902310538019 -0.018705506609818245 -0.0012664340410248934 -0.00052191804972024551 0.002940574666651076 -0.0017098386354838528 -0.0037813302038331889 -0.014599860898566156 -0.0025323523754332065 0 -0.0004179317087628477
leaf_weight=7.9999999999999982 8.9999999999999982 6.0000000000000027 5.9999999999999991 4.9999999999999991 4.9999999999999982 9.0000000000000018 6.0000000000000018 4.9999999999999991 8.9999999999999982 7.0000000000000027 9.0000000000000018 5.0000000000000027 5.0000000000000053 5.9999999999999991 5.0000000000000027 8.0000000000000018 7.9999999999999982 6.9999999999999991 4.9999999999999982 7.9999999999999991 6.0000000000000018 6.9999999999999991 5.9999999999999982 8.9999999999999982 8.9999999999999982 4.9999999999999991 5.0000000000000027 8.9999999999999982 7.9999999999999991 6 8.9999999999999982 5 7.9999999999999982 6 5.0000000000000018 5 5 5 5 4.9999999999999991 4.9999999999999982 6 5 5.9999999999999991 7 6
leaf_count=8 9 6 6 5 5 9 6 5 9 7 9 5 5 6 5 8 8 7 5 8 6 7 6 9 9 5 5 9 8 6 9 5 8 6 5 5 5 5 5 5 5 6 5 6 7 6
internal_value=0 0.00958824 -0.00566812 0.00486205 0.0190381 -0.00350079 0.00339924 0.0254942 -0.0111045 -0.00273335 -0.0128644 -0.00469979 0.000756158 -0.00100393 0.0068323 -0.00596847 -0.00408032 0.0141146 -0.00163486 0.0126948 -0.014181 -0.00744228 -0.0151417 -0.00149724 0.00228328 -0.0102916 -0.00211294 -0.00640543 -0.00865067 0.0292873 -5.57728e-05 0.00977566 0.00512351 0.00589323 -0.00132466 -0.00229141 -0.0168358 0.000273135 -0.0022586 0.00127707 -0.00182708 -0.00263314 -0.0134392 -0.00352599 0.000576648 -0.00101308
internal_weight=0 111 193 74 37 138 69 16 55 124 40 58 39 66 30 41 18 21 17 15 31 23 22 60 26 14 42 15 15 11 18 11 19 14 27 13 11 10 13 17 22 11 11 15 12 11
internal_count=304 111 193 74 37 138 69 16 55 124 40 58 39 66 30 41 18 21 17 15 31 23 22 60 26 14 42 15 15 11 18 11 19 14 27 13 11 10 13 17 22 11 11 15 12 11
is_linear=0
shrinkage=0.0125


Tree=16
num_leaves=48
num_cat=0
split_feature=5 12 12 12 0 5 2 11 12 5 9 12 12 5 0 4 8 11 12 5 5 12 4 12 8 9 2 9 5 4 12 9 5 0 5 0 9 4 11 11 11 9 9 2 5 4 5
split_gain=87.8227 37.2207 11.2207 7.65712 6.03367 4.75717 3.76691 2.02133 1.42443 1.28985 1.23777 0.900751 0.788553 0.704033 0.571959 0.507452 0.461073 0.504921 0.452228 0.359807 0.326523 0.299849 0.302834 0.296277 0.26583 0.239017 0.228361 0.216283 0.262617 0.311657 0.326434 0.197952 0.192321 0.190886 0.186709 0.411236 0.157222 0.137434 0.133903 0.0935076 0.0850401 0.0819033 0.05447 0.0290435 0.0207072 0.0181066 0.00537191
threshold=6.9625000000000012 14.915000000000001 3.9900000000000007 4.9150000000000009 5.7196700000000007 6.1410000000000009 7.0150000000000015 367.19500000000005 19.730000000000004 7.418000000000001 267.00000000000006 24.275000000000002 10.250000000000002 7.7280000000000006 0.25651000000000007 0.44245000000000007 4.5000000000000009 369.76000000000005 7.580000000000001 6.6305000000000005 5.8505000000000011 19.900000000000002 0.67500000000000016 18.100000000000005 5.5000000000000009 267.00000000000006 16.570000000000004 271.50000000000006 6.0985000000000005 0.5485000000000001 11.035000000000002 355.00000000000006 6.1410000000000009 8.7544350000000026 5.7200000000000015 3.0438000000000005 387.50000000000006 0.69650000000000001 395.12000000000006 390.61500000000007 394.95500000000004 304.50000000000006 237.00000000000003 10.300000000000002 6.408500000000001 0.49100000000000005 6.3160000000000016
decision_type=2 2 2 2 2 2 2 2 2 2 2 2 2 2 2 2 2 2 2 2 2 2 2 2 2 2 2 2 2 2 2 2 2 2 2 2 2 2 2 2 2 2 2 2 2 2 2
left_child=1 3 13 15 8 18 9 -7 14 25 40 21 19 -2 36 -1 17 -10 -5 31 -13 23 -23 33 27 -4 -16 42 29 30 38 39 -28 -6 -26 -36 43 -24 -29 -12 -9 -14 -20 -3 -41 -40 -43
right_child=2 4 6 5 11 7 -8 10 16 -11 12 20 41 -15 26 -17 -18 -19 24 -21 -22 22 37 -25 34 -27 32 28 -30 -31 -32 -33 -34 -35 35 -37 -38 -39 45 44 -42 46 -44 -45 -46 -47 -48
leaf_value=0.0081261385685839314 0.02419553214894923 -0.0022601481728963236 0.01571710073358069 0.0018519753384247169 -0.0090016595369500664 0.0098260622260372202 0.0034242437595419679 0.0073782768361756353 -0.013037166282319379 0.021109774649795587 0.0035655788303826093 -0.012739318376660131 0.00027120507067769981 0.030479389412897878 -0.0080539059726311354 0.013137628595358232 -0.0058987293255309764 -0.0077784085618616983 -0.001734556082481463 0.0047515443982066793 -0.016814116440141403 -0.0097737334870145291 -0.014776955987665203 -0.0072159764001282602 0.0013464023087704515 0.012391906287161913 -0.0034062027690595596 -0.003377551502344007 -0.00057738811016405222 -0.0063251148301980073 -0.0048275922365028749 -0.00051991237330357412 -0.0063778042809369681 -0.012564992624090105 0.00042173077262856956 -0.0042621275408349186 -0.004201563054459268 -0.01182098929280455 -0.00055292268584598912 0.0023055575413209722 0.0049804358708240293 -0.0013297016406010748 -8.842139325245668e-05 -0.00092988117384385123 0.0012356398028546885 -0.0016032099358130566 -0.0020019192490724866
leaf_weight=6.9999999999999982 4.9999999999999982 6.0000000000000018 6.0000000000000062 4.9999999999999991 4.9999999999999982 5.9999999999999991 4.9999999999999991 4.9999999999999982 5.0000000000000018 4.9999999999999991 6.0000000000000062 6.9999999999999982 4.9999999999999991 7 5.0000000000000027 6 6.9999999999999991 7 8.9999999999999982 7.9999999999999991 6 7.0000000000000027 4.9999999999999982 5.9999999999999991 5.0000000000000027 8.9999999999999982 6.9999999999999982 6.0000000000000098 5.9999999999999991 4.9999999999999991 8.9999999999999982 4.9999999999999991 7 5 6.9999999999999982 5 5.9999999999999991 6 5.9999999999999982 4.9999999999999991 5 4.9999999999999982 4.9999999999999991 5 7.9999999999999991 5 5
leaf_count=7 5 6 6 5 5 6 5 5 5 5 6 7 5 7 5 6 7 7 9 8 6 7 5 6 5 9 7 6 6 5 9 5 7 5 7 5 6 6 6 5 5 5 5 5 8 5 5
internal_value=0 -0.00270139 0.0179272 0.00128076 -0.00851928 0.000403983 0.0131511 0.00292104 -0.00570575 0.0155783 0.00219261 -0.0118098 0.00134057 0.0278693 -0.00423943 0.0104462 -0.00847932 -0.00997718 -0.00176709 0.00244988 -0.0146272 -0.0107298 -0.0118562 -0.00945693 -0.00203448 0.0137282 -0.00573348 -0.00248635 -0.00298855 -0.00345242 -0.00289655 0.00167898 -0.00489834 -0.0107925 -0.000673776 -0.00152275 -0.00256441 -0.013173 -0.00186904 0.00226219 0.00618829 -0.0010202 -0.00115286 -0.00166341 0.00165387 -0.00103824 -0.00167454
internal_weight=0 251 37 149 102 136 25 63 55 20 57 47 47 12 36 13 19 12 73 32 13 34 18 16 68 15 19 51 37 31 26 24 14 10 17 12 17 11 17 19 10 15 14 11 13 11 10
internal_count=288 251 37 149 102 136 25 63 55 20 57 47 47 12 36 13 19 12 73 32 13 34 18 16 68 15 19 51 37 31 26 24 14 10 17 12 17 11 17 19 10 15 14 11 13 11 10
is_linear=0
shrinkage=0.0125


Tree=17
num_leaves=47
num_cat=0
split_feature=12 5 12 4 0 5 5 7 12 4 10 5 10 12 5 5 5 9 0 4 4 4 10 12 4 0 4 12 7 10 4 5 5 7 11 0 0 3 11 7 7 11 12 4 4 0
split_gain=92.435 24.1441 20.1636 8.66698 6.30038 5.9988 5.42794 1.73126 1.52668 1.56513 1.19203 1.07593 0.955653 0.690675 0.679879 0.676536 0.637394 0.610664 0.566826 0.561876 0.554449 0.447378 0.36538 0.327664 0.294563 0.277333 0.250906 0.291921 0.238297 0.208507 0.244904 0.199043 0.190234 0.189852 0.16202 0.146136 0.140731 0.110333 0.116519 0.0894529 0.0997532 0.082071 0.056589 0.0458698 0.0377131 0.0153402
threshold=7.580000000000001 7.4620000000000006 14.915000000000001 0.62750000000000006 5.7196700000000007 6.7265000000000006 6.9775000000000009 1.9283000000000003 19.900000000000002 0.67500000000000016 17.200000000000003 6.5540000000000012 20.950000000000003 14.475000000000001 6.2115000000000009 6.0765000000000011 7.096000000000001 280.00000000000006 0.25651000000000007 0.70650000000000002 0.69650000000000001 0.51650000000000007 17.700000000000006 17.510000000000002 0.54100000000000015 0.047800000000000002 0.48000000000000004 10.250000000000002 1.58945 18.450000000000003 0.62750000000000006 5.8200000000000012 5.8795000000000011 4.0419500000000008 348.80500000000006 2.3789550000000004 11.695100000000002 1.0000000180025095e-35 394.89500000000004 4.4546500000000009 3.7972000000000006 378.31500000000005 9.1300000000000008 0.41400000000000003 0.61900000000000011 0.091405000000000014
decision_type=2 2 2 2 2 2 2 2 2 2 2 2 2 2 2 2 2 2 2 2 2 2 2 2 2 2 2 2 2 2 2 2 2 2 2 2 2 2 2 2 2 2 2 2 2 2
left_child=1 3 6 5 7 17 11 18 14 34 -3 13 19 15 -6 25 22 -1 -4 37 28 26 -7 -16 -23 -2 27 -17 -11 32 31 -31 -27 -19 -10 -20 -22 38 41 40 -33 -9 -41 -35 -26 -45
right_child=2 10 4 -5 8 16 -8 12 9 20 -12 -13 -14 -15 23 21 -18 33 35 -21 36 24 -24 -25 44 29 -28 -29 -30 30 -32 39 -34 43 -36 -37 -38 -39 -40 42 -42 -43 -44 45 -46 -47
leaf_value=0.006031991367945716 -0.0043356601806491396 0.029793934514732997 -0.012180476842155497 0.024087318033926598 -0.011096349131530587 0.012068806145947505 0.012133197925175965 -0.003003568498330611 -0.0069657180284362118 -0.018512479739138436 0.022326888442225825 0.0029332550519918649 -0.0073847591678008022 -0.0053682249950382172 -0.0089831859950679199 0.002110529317658975 0.014332917265969939 0.0043059330303904545 -0.0057022936406559257 -0.0065926646035627161 -0.011063551042157074 -0.0033609419650179164 0.0079676860294321389 -0.0047469932706869682 0.00058696061210266736 -0.0051099689091131479 0.0032815002611200532 -0.001976948938656348 -0.014899220700980105 -0.0040291826623821232 0.0012340834004180273 -0.0014327971386428606 -0.0017769578132073153 0.0004883968885630725 -0.010242118427062534 -0.0086734674587547831 -0.014042818759352739 -0.0004999438998895203 -0.003762942103827405 -0.0012637381909385284 0.00081072052363563541 -0.00093826796307060851 -0.0031011362589054461 0.0024967428128680517 -0.00088123929989992089 0.0015286471850221679
leaf_weight=9.0000000000000018 7.9999999999999991 7.9999999999999982 4.9999999999999991 4.9999999999999991 9.0000000000000018 7.0000000000000018 4.9999999999999991 5.0000000000000098 4.9999999999999982 5.0000000000000027 6 8.9999999999999982 8.9999999999999982 6.9999999999999991 4.9999999999999982 6.0000000000000018 8.9999999999999982 5.0000000000000027 5.9999999999999982 4.9999999999999991 5.9999999999999982 7.0000000000000027 7 7 5.9999999999999982 4.9999999999999982 6.9999999999999991 5 7.9999999999999991 5.0000000000000027 4.9999999999999991 8.0000000000000018 6 5.0000000000000027 5 5 5 5.9999999999999991 6.9999999999999991 5.9999999999999982 4.9999999999999991 7.9999999999999991 5 4.9999999999999982 5 7
leaf_count=9 8 8 5 5 9 7 5 5 5 5 6 9 9 7 5 6 9 5 6 5 6 7 7 7 6 5 7 5 8 5 5 8 6 5 5 5 5 6 7 6 5 8 5 5 5 7
internal_value=0 0.0118406 -0.00438284 0.00833651 -0.00814155 0.00687631 -0.000589158 -0.00518725 -0.0111479 -0.0127898 0.0266008 -0.00119586 -0.00379329 -0.00158388 -0.00848536 -0.00128523 0.0117146 0.00328372 -0.00866654 -0.00274772 -0.0145263 3.47559e-05 0.0100248 -0.00651956 -0.00135623 -0.00218345 0.00143055 0.00024471 -0.0162962 -0.00179888 -0.00131064 -0.00175239 -0.00329998 0.00215539 -0.00861296 -0.007061 -0.0124262 -0.00200487 -0.002452 -0.00127438 -0.000563248 -0.00173935 -0.00210688 0.00151769 -7.2542e-05 0.00193931
internal_weight=0 73 221 59 111 54 110 56 55 34 14 105 40 96 21 89 23 31 16 31 24 36 14 12 18 53 18 11 13 45 34 29 11 22 10 11 11 26 20 24 13 13 11 17 11 12
internal_count=294 73 221 59 111 54 110 56 55 34 14 105 40 96 21 89 23 31 16 31 24 36 14 12 18 53 18 11 13 45 34 29 11 22 10 11 11 26 20 24 13 13 11 17 11 12
is_linear=0
shrinkage=0.0125


Tree=18
num_leaves=48
num_cat=0
split_feature=5 12 7 5 4 5 0 12 0 0 12 5 5 12 10 7 10 12 0 4 10 5 10 6 6 7 0 6 12 12 7 12 6 5 7 4 6 5 5 4 5 6 0 7 6 0 12
split_gain=90.8633 34.1122 12.7832 11.6185 5.66832 4.55252 3.61564 2.09243 1.2316 1.13727 1.1323 1.10311 1.07267 1.03005 0.82044 0.681003 0.591154 0.561205 0.47948 0.462265 0.392016 0.301178 0.296992 0.286672 0.282734 0.272528 0.238007 0.510778 0.227379 0.215113 0.164268 0.1877 0.151874 0.140956 0.135904 0.381162 0.104309 0.101269 0.088735 0.0831317 0.0821317 0.0492294 0.0455399 0.0362199 0.0340029 0.027669 0.00105591
threshold=6.9775000000000009 14.475000000000001 1.5055000000000003 7.418000000000001 0.6070000000000001 6.1525000000000007 10.452400000000003 6.7000000000000002 0.64730500000000013 12.524750000000003 19.900000000000002 7.7280000000000006 6.7335000000000003 5.495000000000001 17.700000000000006 1.6206000000000003 17.850000000000005 10.040000000000001 0.063400000000000026 0.67500000000000016 20.550000000000001 5.6220000000000008 17.950000000000003 86.300000000000011 69.300000000000011 1.58945 1.2626250000000001 76.850000000000009 9.2650000000000023 17.095000000000002 4.5006000000000013 10.410000000000002 76.850000000000009 5.988500000000001 6.0749500000000003 0.45900000000000007 45.500000000000007 5.8505000000000011 5.9455000000000009 0.68600000000000005 6.4835000000000012 95.100000000000009 8.7544350000000026 3.3246000000000007 44.350000000000009 0.047800000000000002 17.620000000000005
decision_type=2 2 2 2 2 2 2 2 2 2 2 2 2 2 2 2 2 2 2 2 2 2 2 2 2 2 2 2 2 2 2 2 2 2 2 2 2 2 2 2 2 2 2 2 2 2 2
left_child=1 2 -1 13 8 20 10 12 21 33 23 -5 34 16 -15 -12 -2 28 -13 -8 26 -3 -19 -6 -22 -21 27 30 40 41 36 45 -24 -10 35 -7 -4 -23 -39 -27 44 -25 46 -38 -9 -32 -31
right_child=3 4 5 11 6 7 19 17 9 -11 15 18 -14 14 -16 -17 -18 22 -20 25 24 37 32 29 -26 39 -28 -29 -30 42 31 -33 -34 -35 -36 -37 43 38 -40 -41 -42 -43 -44 -45 -46 -47 -48
leaf_value=0.021050061385994336 0.012524891893792051 -0.0046004914661235555 0.0012755726203741403 0.021650334459077603 -0.0035898318293693093 0.0075361163663374879 -0.010843936750759894 0.002106432760977378 -0.0093017005111520178 -0.0013801313387139238 -0.0078854838660652512 0.031766285075683756 0.010077304054179552 0.013335340438062063 0.0064343672367462267 -0.013088038113825466 0.018233269925350178 0.0025209212723479239 0.026098882542858477 -0.017240925967580544 -0.0016466607351524364 -2.1732029007799642e-06 0.00023987311059934613 -0.0063811226950019426 -0.0057018580782369488 -0.015140522324620875 0.00057774906884359891 -0.0043052071478988227 0.0043714982162250749 -0.007980568015384824 -0.0017494351493741248 -0.0038313060609165327 -0.0021871234443131375 -0.0067474091740548497 0.0024488738630147585 0.0028291684757306137 -3.8679657080611005e-05 -0.0029333274588054644 -0.00078272938878222627 -0.012948037082738029 0.0031959225862610852 -0.0045210909576530465 -0.0067984066081729737 -0.0015616268289162525 0.00076513343067829889 -0.00056685013395569043 -0.008792821722230065
leaf_weight=4.9999999999999991 7.0000000000000018 7.0000000000000027 5.9999999999999991 4.9999999999999991 5.0000000000000027 5.0000000000000053 7.0000000000000027 5.0000000000000062 9.0000000000000018 4.9999999999999991 7.9999999999999991 4.9999999999999982 6.9999999999999991 4.9999999999999982 6 7.9999999999999991 5 5.0000000000000027 5 5.0000000000000027 4.9999999999999982 5.0000000000000027 7.9999999999999991 5.0000000000000018 6 4.9999999999999991 8.9999999999999982 8.9999999999999982 7.9999999999999991 4.9999999999999982 5.0000000000000027 4.9999999999999991 7.9999999999999991 5.9999999999999991 4.9999999999999991 6 4.9999999999999982 7.9999999999999982 5 8.9999999999999982 4.9999999999999991 5 4.9999999999999991 5 7.9999999999999991 8.9999999999999982 5
leaf_count=5 7 7 6 5 5 5 7 5 9 5 8 5 7 5 6 8 5 5 5 5 5 5 8 5 6 5 9 9 8 5 5 5 8 6 5 6 5 8 5 9 5 5 5 5 8 9 5
internal_value=0 -0.00275949 0.00142629 0.0179545 -0.00773306 0.000693341 -0.00990909 0.00289684 -0.00424942 -0.00656392 -0.00779862 0.0265183 0.00598732 0.0123652 0.00957946 -0.0104925 0.0149112 0.0013826 0.0289425 -0.0136395 -0.00171539 -0.00239428 -0.00013333 -0.00635888 -0.0038666 -0.0146646 -0.00126725 -0.00164661 0.00261031 -0.00690915 -0.000960447 -0.00174634 -0.000968242 -0.00828599 0.00419231 0.00497678 -2.17646e-05 -0.0015314 -0.00211289 -0.0137377 0.00182266 -0.00546001 -0.00786928 -0.000808846 0.00128773 -0.000995428 -0.00839573
internal_weight=0 256 139 38 117 134 72 70 45 20 46 15 23 23 11 16 12 47 10 26 64 25 21 30 11 19 53 44 26 25 35 19 16 15 16 11 16 18 13 14 18 10 15 10 13 14 10
internal_count=294 256 139 38 117 134 72 70 45 20 46 15 23 23 11 16 12 47 10 26 64 25 21 30 11 19 53 44 26 25 35 19 16 15 16 11 16 18 13 14 18 10 15 10 13 14 10
is_linear=0
shrinkage=0.0125


Tree=19
num_leaves=49
num_cat=0
split_feature=12 12 12 0 2 7 6 10 12 6 10 7 6 4 7 12 6 7 4 7 7 4 6 7 7 2 10 4 0 0 10 6 6 10 10 6 2 7 7 8 7 6 8 10 12 0 4 6
split_gain=90.7522 23.3649 20.2597 4.87295 3.39723 3.24986 1.84186 1.76634 1.64299 1.21831 2.04844 1.13494 0.913972 0.911991 0.888935 0.861099 0.830649 0.553903 0.544442 0.617647 0.507116 0.473089 0.408495 0.389456 0.380591 0.678813 0.372166 0.331226 0.256019 0.255708 0.246569 0.239755 0.238009 0.236841 0.217303 0.204398 0.157005 0.151791 0.149393 0.138463 0.108928 0.10567 0.1028 0.0807287 0.0419067 0.0381106 0.0337931 0.0161528
threshold=7.580000000000001 4.1750000000000007 14.915000000000001 9.2806950000000032 3.9850000000000008 6.0237500000000006 74.700000000000017 17.850000000000005 18.930000000000003 77.750000000000014 17.200000000000003 2.0581000000000005 76.850000000000009 0.53500000000000014 7.8271500000000005 8.2100000000000026 83.350000000000009 2.9984000000000006 0.67500000000000016 1.58945 5.1663000000000006 0.45550000000000007 85.550000000000026 2.8450500000000005 6.0749500000000003 7.0150000000000015 19.900000000000002 0.6070000000000001 14.143450000000003 0.82162500000000016 18.650000000000002 42.150000000000013 44.350000000000009 20.950000000000003 17.850000000000005 97.350000000000009 7.0150000000000015 2.2729500000000002 2.0581000000000005 4.5000000000000009 1.5266000000000004 90.750000000000014 4.5000000000000009 18.450000000000003 9.4050000000000029 0.068795000000000009 0.53500000000000014 93.850000000000009
decision_type=2 2 2 2 2 2 2 2 2 2 2 2 2 2 2 2 2 2 2 2 2 2 2 2 2 2 2 2 2 2 2 2 2 2 2 2 2 2 2 2 2 2 2 2 2 2 2 2
left_child=1 5 7 8 6 9 14 15 13 10 -1 18 17 -4 21 -2 -14 -9 -5 -20 23 45 -15 37 25 34 40 -28 -21 38 43 -22 39 41 -6 47 -34 -17 -24 -32 -10 42 -18 -19 -41 -3 -38 -31
right_child=2 4 3 11 24 -7 -8 12 26 -11 -12 -13 16 22 -16 20 33 30 19 28 31 -23 29 -25 -26 -27 27 -29 -30 35 32 -33 36 -35 -36 -37 46 -39 -40 44 -42 -43 -44 -45 -46 -47 -48 -49
leaf_value=0.029322174320914659 0.0067754949779552133 0.012948801260565383 -0.0012671218554848338 -0.0098798991565267665 0.0092682750915979717 0.014508769619489093 0.017528867075914886 0.0030174700887376123 -0.0081525155146548959 0.031288673132136437 0.017931248040079222 -0.007567701701863801 -0.0074690094674485057 -0.0030171598336537157 0.0044330169503374109 0.0026481358939819265 -0.00088032550324897976 -0.00054726533219441262 -0.018088988411938678 -0.0113576787431077 0.00083329935706031016 0.0075992873153320666 -0.0063374967669027164 0.005393804455845707 0.0021174317793277051 0.0025270441508404001 -0.0080038714019776309 -0.011558258222159295 -0.014610563263415303 -0.0078389106228307828 -0.0019392580625304204 -0.0030277708103270957 -0.0038516656672706443 -0.0046101723255052122 0.0057928735491498988 -0.0056112340853875682 -0.00087377560139614222 -0.00041934373775365588 -0.0032275395946504137 -0.00033717093221196341 -0.0054530482915040659 -0.0001494606675155453 -0.003336150831122129 0.0013459195832002063 0.0012712219817913421 0.011225538852311714 -0.0022996602297969179 -0.0090512735537269639
leaf_weight=5.0000000000000018 5.0000000000000027 5.0000000000000089 8.9999999999999982 6.0000000000000027 5.0000000000000053 4.9999999999999991 4.9999999999999991 5.9999999999999991 5.0000000000000018 4.9999999999999991 5 6.9999999999999991 6.0000000000000027 6.9999999999999991 4.9999999999999991 5.0000000000000018 5.0000000000000053 6.9999999999999982 5.0000000000000027 7.9999999999999991 4.9999999999999982 5.9999999999999991 5.0000000000000018 4.9999999999999991 7.9999999999999991 7.9999999999999991 8.0000000000000018 8.9999999999999982 7.9999999999999991 6.0000000000000018 5.9999999999999991 5 8.0000000000000018 4.9999999999999991 7 6.9999999999999991 5.9999999999999982 5 5 4.9999999999999982 5 5.9999999999999991 6 7 5 6 5 5
leaf_count=5 5 5 9 6 5 5 5 6 5 5 5 7 6 7 5 5 5 7 5 8 5 6 5 5 8 8 8 9 8 6 6 5 8 5 7 7 6 5 5 5 5 6 6 7 5 6 5 5
internal_value=0 0.0117055 -0.00423537 -0.00818856 0.00749585 0.0232773 0.0106618 -0.000561263 -0.00632247 0.0261938 0.0236364 -0.0120827 -0.00150143 -0.00482844 0.00909682 0.00203697 -0.00334044 -0.000563617 -0.0132499 -0.0142085 0.0010857 0.0104633 -0.00574171 0.00254102 0.00443978 0.00536432 -0.00875384 -0.00989095 -0.0129899 -0.0064197 -0.00100391 -0.00108863 -0.00156521 -0.00221041 0.00724846 -0.00731936 -0.00251208 0.00110579 -0.00479139 -0.000435347 -0.00681174 -0.0014994 -0.00222782 0.000393157 0.00045839 0.0120172 -0.00152984 -0.0083982
internal_weight=0 75 218 105 55 20 27 113 71 15 10 34 83 44 22 30 28 55 27 21 25 17 35 15 28 20 27 17 16 28 49 10 35 22 12 18 19 10 10 16 10 17 11 14 10 11 11 11
internal_count=293 75 218 105 55 20 27 113 71 15 10 34 83 44 22 30 28 55 27 21 25 17 35 15 28 20 27 17 16 28 49 10 35 22 12 18 19 10 10 16 10 17 11 14 10 11 11 11
is_linear=0
shrinkage=0.0125


Tree=20
num_leaves=48
num_cat=0
split_feature=5 12 7 12 12 7 5 11 8 5 5 9 12 4 12 9 7 8 10 10 7 11 7 4 9 7 12 10 5 9 4 12 9 8 11 10 4 11 10 5 5 4 11 12 10 11 4
split_gain=90.6919 33.5073 12.301 9.62701 5.3902 4.55757 3.74735 3.09591 3.07359 1.37645 1.35969 1.13839 0.806444 0.546551 0.506285 0.459727 0.415339 0.385264 0.350681 0.300432 0.294942 0.250168 0.238287 0.299114 0.176513 0.168335 0.183543 0.165238 0.18992 0.160329 0.156097 0.153029 0.147638 0.122675 0.0991538 0.0723758 0.0674256 0.0587709 0.0546604 0.0419536 0.0417666 0.0405431 0.0400089 0.0395321 0.0324037 0.0246811 0.00129039
threshold=6.9625000000000012 14.475000000000001 1.6110500000000003 4.4750000000000005 7.3000000000000007 1.9824500000000003 7.418000000000001 376.74000000000007 6.5000000000000009 6.7265000000000006 6.0765000000000011 453.00000000000006 19.730000000000004 0.6695000000000001 10.040000000000001 280.00000000000006 3.3765000000000005 2.5000000000000004 20.950000000000003 17.950000000000003 2.3348000000000004 392.89500000000004 3.6949500000000008 0.70650000000000002 254.50000000000003 2.4150500000000004 10.175000000000002 20.150000000000002 5.6220000000000008 394.50000000000006 0.48850000000000005 5.495000000000001 302.00000000000006 5.5000000000000009 395.62500000000006 19.400000000000002 0.69650000000000001 388.53500000000003 18.550000000000004 6.3440000000000003 5.9605000000000006 0.68600000000000005 393.75500000000005 16.920000000000005 18.950000000000003 388.01000000000005 0.54100000000000015
decision_type=2 2 2 2 2 2 2 2 2 2 2 2 2 2 2 2 2 2 2 2 2 2 2 2 2 2 2 2 2 2 2 2 2 2 2 2 2 2 2 2 2 2 2 2 2 2 2
left_child=1 2 -1 6 9 11 -2 20 16 15 18 45 -13 -14 17 -4 -5 -12 25 -16 39 -11 23 -22 -8 -6 35 28 -9 44 33 -18 -28 -19 43 40 41 -21 -30 -7 -27 -15 -39 -29 -17 -3 -34
right_child=3 5 4 8 10 7 24 27 -10 21 14 12 13 36 19 29 31 30 -20 37 22 -23 -24 -25 -26 26 32 34 38 -31 -32 -33 46 -35 -36 -37 -38 42 -40 -41 -42 -43 -44 -45 -46 -47 -48
