tree
version=v3
num_class=1
num_tree_per_iteration=1
label_index=0
max_feature_idx=12
objective=regression
feature_names=Column_0 Column_1 Column_2 Column_3 Column_4 Column_5 Column_6 Column_7 Column_8 Column_9 Column_10 Column_11 Column_12
feature_infos=[0.0063200000000000001:88.976200000000006] [0:100] [0.46000000000000002:27.739999999999998] [0:1] [0.38500000000000001:0.871] [3.5609999999999999:8.3369999999999997] [2.8999999999999999:100] [1.137:12.1265] [1:24] [187:711] [12.6:22] [0.32000000000000001:396.89999999999998] [1.9199999999999999:37.969999999999999]
tree_sizes=1707 1725 1957 1965 2067 1830 1684 2205 1944 1691 1708 1854 1746 1918 1924 1913 1930 1715 1821 2072 1841 1722 1844 1838 1860 1876 2111 2039 2013 2090 1854 1759 1974 2027 1933 1791 1924 2039 1751 1749 1994 1781 1905 1838 1823 1892 1754 1846 1891 1879 1880 1995 1884 1884 1882 1990 1986 1768 1880 1802 1860 1858 1822 1762 1837 1868 2166 1910 1976 2046 1896 2016 2045 2001 1780 1786 2049 1895 2050 2031 2079 1788 2041 1714 1898 1919 2149 1824 1891 1931 1828 1863 1930 2172 1993 1922 1878 1921 1920 1837 1925 2041 1772 2021 2122 1699 1776 1985 1693 1922 2043 1892 1827 1925 1860 1801 1764 1952 1801 1819 2055 1796 1917 2018 2029 2062 1759 1812 2160 1894 1898 2026 1894 2278 1894 1927 1913 1827 2115 1823 1771 1892 1884 1809 2000 1910 1901 2182 1927 2026 1992 2079 1772 2004 2052 1663 1778 1783 2065 1944 1931 1911 1707 2083 1827 2017 2012 2020 2033 1772 1783 1935 1830 1762 1923 1945 1800 1779 1831 2031 1895 1760 1802 1807 1940 1840 1918 1923 1899 2063 2033 1801 1956 1778 1943 1795 2000 1769 1904 1810 1794 1987 2130 1902 2156 2033 1809 2030 1807 1699 1682 1907 2052 2035 1923 1800 2068 2160 1802 1869 1809 1694 1915 1918 1972 2067 2153 1703 1929 1935 1863 2174 1979 1871 1959 1937 2024 1810 1713 1917 2120 1882 2028 1925 1701 1873 1928 1696 1850 2087 1721 1717 2106 1899 1798 1925 2008 1810 2091 2045 2083 1966 1828 1894 1956 1813 2079 1945 1936 1953 1965 1674 2061 2154 1953 1791 1824 1803 1804 2081 2029 2074 1935 1782 1981 1915 1817 1918 1911 1913 1796 2044 1841 2195 1813 2011 1972 1952 1806 1838 2058 2080 1858 1808 1951 1848 2107 1886 1958 2048 2041 1978 1903 1923 2054 2036 2039 1992 1810 1942 2044 1840 2098 2046 1836 1795 1863 1833 1717 2086 1964 2049 1975 2067 1863 1926 1818 1826 2052 1921 2195 2033 1941 2034 2034 1939 1982 2063 1907 2047 1951 2105 1933 2203 1797 2041 2012 1712 1943 1811 2111 1953 1824 2075 1922 1950 1935 1908 2097 1822 2079 2181 2187 1936 2060 1852 1957 2078 2115 1832 1941 1826 2047 1850 1981 1828 1910 1827 1848 1964 1962 2089 2062 2072 1804 1675 1857 1960 1930 1821 1951 1849

Tree=0
num_leaves=18
num_cat=0
split_feature=5 12 5 5 0 5 12 6 12 12 0 0 12 4 7 6 12
split_gain=172.997 69.4572 20.0443 13.1717 11.9429 5.08343 3.33788 3.02711 2.63137 1.52422 1.43612 1.40392 1.19666 0.691673 0.544722 0.576228 0.317544
threshold=6.9715000000000007 14.4 7.4370000000000003 6.6785000000000005 6.9923700000000011 6.0985000000000005 19.830000000000002 93.850000000000009 10.140000000000002 5.535000000000001 0.7729100000000001 0.11603500000000001 17.620000000000005 0.68600000000000005 2.4780500000000005 45.650000000000013 7.3550000000000013
decision_type=2 2 2 2 2 2 2 2 2 2 2 2 2 2 2 2 2
left_child=1 3 9 5 7 14 -6 10 11 -2 -3 16 -9 -8 -1 -16 -7
right_child=2 4 -4 -5 6 8 13 12 -10 -11 -12 -13 -14 -15 15 -17 -18
leaf_value=-0.00010349225657407315 0.0777786843870579 -0.010434049156778239 0.13580697369024147 0.043870402839786528 -0.041152957787662849 0.015613501558154719 -0.058722767939716682 -0.025953474750667914 -0.0019494632133203922 0.055238215217441225 -0.029473027175217971 0.027040723537568437 -0.043956141134649622 -0.072400318713588263 -0.0048007011362771607 -0.015432230114719146 0.0063460571936242438
leaf_weight=18 15.000000000000002 26 15.999999999999998 22 22 18 18 14.999999999999998 28 14.999999999999998 15.999999999999998 21 24 19 25 26 19
leaf_count=18 15 26 16 22 22 18 18 15 28 15 16 21 24 19 25 26 19
internal_value=-7.05868e-10 -0.0131488 0.0906123 0.00766621 -0.0394649 0.00252755 -0.0565759 -0.0270013 0.0106382 0.0665084 -0.017687 0.0167151 -0.037032 -0.0657464 -0.00758143 -0.0102207 0.0108545
internal_weight=0 317 46 177 140 155 59 81 86 30 42 58 39 37 69 51 37
internal_count=363 317 46 177 140 155 59 81 86 30 42 58 39 37 69 51 37
is_linear=0
shrinkage=1


Tree=1
num_leaves=18
num_cat=0
split_feature=5 12 5 5 0 5 12 6 12 12 7 0 12 2 6 12 6
split_gain=156.13 62.6851 18.09 11.8875 10.7784 4.60277 3.01243 2.73197 2.45342 1.37561 1.33692 1.2961 1.07999 0.515192 0.478736 0.390656 0.171779
threshold=6.9715000000000007 14.4 7.4370000000000003 6.6785000000000005 6.9923700000000011 6.1435000000000004 19.830000000000002 93.850000000000009 10.140000000000002 5.535000000000001 4.5006000000000013 0.7729100000000001 17.620000000000005 10.300000000000002 45.650000000000013 23.975000000000005 31.200000000000006
decision_type=2 2 2 2 2 2 2 2 2 2 2 2 2 2 2 2 2
left_child=1 3 9 5 7 13 -6 11 10 -2 -7 -3 -9 14 -1 -8 -12
right_child=2 4 -4 -5 6 8 15 12 -10 -11 16 -13 -14 -15 -16 -17 -18
leaf_value=-0.003405213183511726 0.07388975063959756 -0.0099123458234736551 0.1290166236460209 0.041676883162422615 -0.039095309376716618 0.027582216607406736 -0.057458415313770897 -0.024655800461769104 -0.001882793556433171 0.052476304471492763 0.014845201919476187 -0.027999375713989139 -0.041758332556734487 -0.00062036449651651344 -0.013186423225400585 -0.067737509227461287 0.0073973629041574895
leaf_weight=22 15.000000000000002 26 15.999999999999998 22 22 20 19 14.999999999999998 24 14.999999999999998 15.000000000000002 15.999999999999998 24 29 29 18 15.999999999999998
leaf_count=22 15 26 16 22 22 20 19 15 24 15 15 16 24 29 29 18 16
internal_value=0 -0.0124913 0.0860817 0.0072829 -0.0374916 0.00240117 -0.0537472 -0.0256512 0.0112999 0.063183 0.0175035 -0.0168026 -0.0351804 -0.00594139 -0.00896708 -0.0624591 0.0110012
internal_weight=0 317 46 177 140 155 59 81 75 30 51 42 39 80 51 37 31
internal_count=363 317 46 177 140 155 59 81 75 30 51 42 39 80 51 37 31
is_linear=0
shrinkage=0.05


Tree=2
num_leaves=20
num_cat=0
split_feature=5 12 5 12 4 12 5 5 0 12 0 8 12 0 7 6 7 6 10
split_gain=140.907 56.5733 16.3262 10.7401 9.99293 5.60672 4.7757 2.74316 2.0342 1.65994 1.35124 1.28218 1.24149 0.648439 0.462247 0.306997 0.518049 0.13196 0.130921
threshold=6.9715000000000007 14.4 7.4370000000000003 7.3550000000000013 0.6070000000000001 19.605000000000004 6.6785000000000005 6.0985000000000005 0.7729100000000001 10.140000000000002 9.870020000000002 4.5000000000000009 5.535000000000001 6.6863200000000012 5.1663000000000006 68.000000000000014 4.4582500000000005 88.550000000000011 20.150000000000002
decision_type=2 2 2 2 2 2 2 2 2 2 2 2 2 2 2 2 2 2 2
left_child=1 3 12 6 8 13 14 15 17 11 -7 -9 -2 -6 -1 16 -5 -3 -11
right_child=2 4 -4 7 5 10 -8 9 -10 18 -12 -13 -14 -15 -16 -17 -18 -19 -20
leaf_value=0.022194644366391004 0.070195263226826968 -0.0076474610774312172 0.1225657917559147 0.0012429607840364471 -0.026204436414298562 -0.047617447062542562 0.048907579760998493 0.0043102152800808344 -0.03035265204051267 0.0016171193433304626 -0.06489288860133717 0.024658150598406793 0.049852489233016967 -0.039340409987113058 0.010659994599470674 -0.012555272838411234 -0.010165240584562224 -0.014069093941361644 -0.0049889702536165719
leaf_weight=15.999999999999998 15.000000000000002 15.999999999999998 15.999999999999998 17 21 19 15.999999999999998 15.000000000000002 23 15.000000000000002 28 15.999999999999998 14.999999999999998 17 19 24 24 15.999999999999998 14.999999999999998
leaf_count=16 15 16 16 17 21 19 16 15 23 15 28 16 15 17 19 24 24 16 15
internal_value=0 -0.0118668 0.0817776 0.00691875 -0.0356171 -0.0463625 0.026278 -0.000917112 -0.0190105 0.00669846 -0.0579092 0.0148124 0.0600239 -0.0320811 0.015933 -0.00806403 -0.00543501 -0.0108583 -0.00168593
internal_weight=0 317 46 177 140 85 51 126 55 61 47 31 30 38 35 65 41 32 30
internal_count=363 317 46 177 140 85 51 126 55 61 47 31 30 38 35 65 41 32 30
is_linear=0
shrinkage=0.05


Tree=3
num_leaves=20
num_cat=0
split_feature=5 12 5 12 4 12 5 5 0 12 0 8 12 0 7 6 7 6 10
split_gain=127.169 51.0574 14.7344 9.69292 9.01862 5.06006 4.31007 2.47571 1.83587 1.49809 1.21949 1.15717 1.12044 0.585216 0.417178 0.277065 0.467539 0.119094 0.118156
threshold=6.9715000000000007 14.4 7.4370000000000003 7.3550000000000013 0.6070000000000001 19.605000000000004 6.6785000000000005 6.0985000000000005 0.7729100000000001 10.140000000000002 9.870020000000002 4.5000000000000009 5.535000000000001 6.6863200000000012 5.1663000000000006 68.000000000000014 4.4582500000000005 88.550000000000011 20.150000000000002
decision_type=2 2 2 2 2 2 2 2 2 2 2 2 2 2 2 2 2 2 2
left_child=1 3 12 6 8 13 14 15 17 11 -7 -9 -2 -6 -1 16 -5 -3 -11
right_child=2 4 -4 7 5 10 -8 9 -10 18 -12 -13 -14 -15 -16 -17 -18 -19 -20
leaf_value=0.021084912226069719 0.066685498158136999 -0.0072650879737921059 0.11643750332295895 0.0011808127678437708 -0.024894215060131893 -0.045236574976067798 0.046462201094254856 0.0040947045277183241 -0.028835019307292029 0.0015362633392214772 -0.061648244197879523 0.023425242851953954 0.047359864761432016 -0.037373389829607577 0.010126994405628037 -0.011927508857722084 -0.0096569783995316058 -0.013365639309995458 -0.0047395214966187878
leaf_weight=15.999999999999998 15.000000000000002 15.999999999999998 15.999999999999998 17 21 19 15.999999999999998 15.000000000000002 23 15.000000000000002 28 15.999999999999998 14.999999999999998 17 19 24 24 15.999999999999998 14.999999999999998
leaf_count=16 15 16 16 17 21 19 16 15 23 15 28 16 15 17 19 24 24 16 15
internal_value=0 -0.0112734 0.0776887 0.00657282 -0.0338362 -0.0440444 0.0249641 -0.000871256 -0.0180599 0.00636353 -0.0550137 0.0140718 0.0570227 -0.030477 0.0151363 -0.00766083 -0.00516326 -0.0103154 -0.00160163
internal_weight=0 317 46 177 140 85 51 126 55 61 47 31 30 38 35 65 41 32 30
internal_count=363 317 46 177 140 85 51 126 55 61 47 31 30 38 35 65 41 32 30
is_linear=0
shrinkage=0.05


Tree=4
num_leaves=21
num_cat=0
split_feature=5 12 5 12 4 12 5 5 0 12 0 8 12 0 7 7 9 10 12 0
split_gain=114.77 46.0793 13.2978 8.74786 8.1393 4.56671 3.88984 2.23432 1.65687 1.35203 1.10059 1.04435 1.0112 0.528158 0.376503 0.247049 0.146313 0.106636 0.102921 0.0992453
threshold=6.9715000000000007 14.4 7.4370000000000003 7.3550000000000013 0.6070000000000001 19.605000000000004 6.6785000000000005 6.0985000000000005 0.7729100000000001 10.140000000000002 9.870020000000002 4.5000000000000009 5.535000000000001 6.6863200000000012 5.1663000000000006 3.9396000000000004 306.00000000000006 20.150000000000002 12.075000000000001 0.18586500000000003
decision_type=2 2 2 2 2 2 2 2 2 2 2 2 2 2 2 2 2 2 2 2
left_child=1 3 12 6 8 13 14 15 19 11 -7 -9 -2 -6 -1 18 -17 -11 -5 -3
right_child=2 4 -4 7 5 10 -8 9 -10 17 -12 -13 -14 -15 -16 16 -18 -19 -20 -21
leaf_value=0.020030666404636577 0.063351225852966306 -0.0071839965085553781 0.11061563156545162 -0.0068390709173399948 -0.023649503822837557 -0.042974745913555747 0.044139090599492198 0.0038899695348906479 -0.027393268453686132 0.0014594502064088979 -0.058565831716571537 0.022253980221285021 0.044991873403390253 -0.035504720075165523 0.0096206449238755015 -0.0069411810870994546 -0.013501157050760574 -0.0045025456828686099 -0.00107408806681633 -0.012763940555353959
leaf_weight=15.999999999999998 15.000000000000002 17 15.999999999999998 16.000000000000004 21 19 15.999999999999998 15.000000000000002 23 15.000000000000002 28 15.999999999999998 14.999999999999998 17 19 17 17 14.999999999999998 14.999999999999998 14.999999999999998
leaf_count=16 15 17 16 16 21 19 16 15 23 15 28 16 15 17 19 17 17 15 15 15
internal_value=0 -0.0107098 0.0738043 0.00624417 -0.0321444 -0.0418422 0.0237159 -0.000827694 -0.0171569 0.00604536 -0.0522631 0.0133682 0.0541715 -0.0289532 0.0143795 -0.00727779 -0.0102212 -0.00152155 -0.00404956 -0.0097996
internal_weight=0 317 46 177 140 85 51 126 55 61 47 31 30 38 35 65 34 30 31 32
internal_count=363 317 46 177 140 85 51 126 55 61 47 31 30 38 35 65 34 30 31 32
is_linear=0
shrinkage=0.05


Tree=5
num_leaves=19
num_cat=0
split_feature=5 12 5 12 4 12 5 12 7 11 0 12 4 6 0 7 7 12
split_gain=103.58 41.5866 12.0013 7.98253 7.34572 4.12145 3.73457 2.06346 1.61356 1.54372 0.993285 0.912606 0.504559 0.7881 0.476662 0.31099 0.26342 0.235279
threshold=6.9715000000000007 14.4 7.4370000000000003 4.9750000000000005 0.6070000000000001 19.605000000000004 6.1435000000000004 10.140000000000002 4.5006000000000013 377.7000000000001 9.870020000000002 5.535000000000001 0.60100000000000009 68.000000000000014 6.6863200000000012 5.5588500000000005 3.8181500000000006 6.9700000000000006
decision_type=2 2 2 2 2 2 2 2 2 2 2 2 2 2 2 2 2 2
left_child=1 3 11 -1 9 14 12 8 -8 -3 -7 -2 13 15 -6 -5 -11 -10
right_child=2 4 -4 6 5 10 7 -9 17 16 -12 -13 -14 -15 -16 -17 -18 -19
leaf_value=0.040827158025931565 0.060183663964271529 -0.026558417437428778 0.1050848474726081 -0.00050937240493708648 -0.022467028527032765 -0.040826008429652769 0.025404108245857062 -0.0014410560252144933 0.012280901729622309 -0.0053815626060693634 -0.055637540136064804 0.042742279618978501 0.002956681256182492 -0.016580560430884361 -0.03372948480879559 -0.0087391513252728873 -0.014353153705596925 0.0036894605440708503
leaf_weight=14.999999999999998 15.000000000000002 22 15.999999999999998 29 21 19 24 26 17 18 28 14.999999999999998 15.999999999999998 15.999999999999998 17 19 14.999999999999998 14.999999999999998
leaf_count=15 15 22 16 29 21 19 24 26 17 18 28 15 16 16 17 19 15 15
internal_value=0 -0.0101743 0.0701141 0.00593197 -0.0305372 -0.03975 0.00270093 0.0101994 0.0156039 -0.0162991 -0.0496499 0.051463 -0.00498497 -0.00697039 -0.0275055 -0.00376699 -0.00945956 0.00825366
internal_weight=0 317 46 177 140 85 162 82 56 55 47 30 80 64 38 48 33 32
internal_count=363 317 46 177 140 85 162 82 56 55 47 30 80 64 38 48 33 32
is_linear=0
shrinkage=0.05


Tree=6
num_leaves=18
num_cat=0
split_feature=5 12 5 5 7 5 11 9 12 12 0 12 6 7 6 4 9
split_gain=93.4808 37.5319 10.8312 7.25232 6.68483 2.86611 2.45181 2.41179 1.54142 1.42 0.958774 0.823627 0.470226 0.40682 0.439756 0.352702 0.34685
threshold=6.9715000000000007 14.4 7.4370000000000003 6.6785000000000005 2.0055500000000004 6.1205000000000007 377.7000000000001 453.00000000000006 10.140000000000002 19.830000000000002 0.11603500000000001 5.535000000000001 91.65000000000002 2.4780500000000005 45.650000000000013 0.68600000000000005 282.50000000000006
decision_type=2 2 2 2 2 2 2 2 2 2 2 2 2 2 2 2 2
left_child=1 3 11 5 7 13 -6 -3 10 -9 16 -2 -8 -1 -15 -11 -7
right_child=2 4 -4 -5 6 8 12 9 -10 15 -12 -13 -14 14 -16 -17 -18
leaf_value=0.00090699889697134497 0.057174479961395255 -0.024682901685009712 0.09983060322701931 0.032499713357537985 -0.029247756605898897 0.01401576136859755 -0.004590995712870998 -0.033150521534330707 -0.0013183860677397916 -0.045735270116064292 0.022355330009993755 0.040605163921912518 -0.015446918658716113 -0.0028673868936796984 -0.011810655559280091 -0.055633383823765648 0.0038448941991909556
leaf_weight=20 15.000000000000002 20 15.999999999999998 22 27 14.999999999999998 21 17 27 18 19 14.999999999999998 19 27 28 18 19
leaf_count=20 15 20 16 22 27 15 21 17 27 18 19 15 19 27 28 18 19
internal_value=0 -0.00966557 0.0666084 0.00563537 -0.0290103 0.00182236 -0.0176058 -0.0394774 0.00840555 -0.0450603 0.0133593 0.0488898 -0.00974756 -0.0051997 -0.00742032 -0.0506843 0.00833204
internal_weight=0 317 46 177 140 155 67 73 80 53 53 30 40 75 55 36 34
internal_count=363 317 46 177 140 155 67 73 80 53 53 30 40 75 55 36 34
is_linear=0
shrinkage=0.05


Tree=7
num_leaves=22
num_cat=0
split_feature=5 12 5 12 4 0 12 7 0 12 12 0 5 7 6 12 4 7 12 6 6
split_gain=84.3665 33.8725 9.77512 6.72884 6.09899 3.45161 3.08684 1.89209 1.2669 1.08568 0.743323 0.593414 0.591224 0.466391 0.44191 0.358066 0.26384 0.197995 0.178856 0.156845 0.100652
threshold=6.9715000000000007 14.4 7.4370000000000003 4.9750000000000005 0.6070000000000001 9.870020000000002 9.9250000000000025 4.4582500000000005 0.7729100000000001 20.330000000000002 5.535000000000001 0.089880000000000015 6.1205000000000007 3.9396000000000004 69.300000000000011 24.245000000000005 0.60100000000000009 1.9952500000000002 6.9700000000000006 52.100000000000001 88.550000000000011
decision_type=2 2 2 2 2 2 2 2 2 2 2 2 2 2 2 2 2 2 2 2 2
left_child=1 3 10 -1 8 9 7 11 20 17 -2 -5 -9 14 -8 -7 -16 -6 -14 -15 -3
right_child=2 4 -4 6 5 15 13 12 -10 -11 -12 -13 18 19 16 -17 -18 -19 -20 -21 -22
leaf_value=0.03739158914114038 0.054315757751464834 -0.0053484074829611931 0.094839077815413481 0.012247994786594061 -0.025883549700180686 -0.043617459684610366 0.0049057725433479344 -0.0040063602953321403 -0.023537124316815452 -0.036935750316632425 0.03857490681111813 0.026090804289948817 0.010829905847854475 -0.0059138526643315939 -0.0099146724430223317 -0.053836851517359424 -0.00093592783539659459 -0.017887555203651574 0.0034645369392819706 -0.013144450808564823 -0.010956783697474749
leaf_weight=14.999999999999998 15.000000000000002 15.999999999999998 15.999999999999998 16.000000000000004 15.000000000000002 20 17 18 23 19 14.999999999999998 14.999999999999998 17 15.000000000000002 14.999999999999998 14.999999999999998 18 15.999999999999998 15.999999999999998 14.999999999999998 15.999999999999998
leaf_count=15 15 16 16 16 15 20 17 18 23 19 15 15 17 15 15 15 18 16 16 15 16
internal_value=0 -0.00918229 0.0632779 0.0053536 -0.0275598 -0.0359545 0.00238712 0.00920435 -0.0145861 -0.0275247 0.0464453 0.0189461 0.00328287 -0.00460054 -0.00164337 -0.0479972 -0.00501718 -0.0217566 0.00725882 -0.00952915 -0.0081526
internal_weight=0 317 46 177 140 85 162 82 55 50 30 31 51 80 50 35 33 31 33 30 32
internal_count=363 317 46 177 140 85 162 82 55 50 30 31 51 80 50 35 33 31 33 30 32
is_linear=0
shrinkage=0.05


Tree=8
num_leaves=20
num_cat=0
split_feature=5 12 5 5 4 0 5 12 0 12 7 12 7 12 12 0 12 7 0
split_gain=76.1407 30.57 8.82204 6.10517 5.50434 3.11508 2.38198 1.21435 1.14338 0.979824 0.802264 0.670849 0.329501 0.323155 0.216107 0.192006 0.186527 0.178691 0.0978625
threshold=6.9715000000000007 14.4 7.4370000000000003 6.6785000000000005 0.6070000000000001 9.870020000000002 6.1205000000000007 10.140000000000002 0.7729100000000001 20.330000000000002 4.5006000000000013 5.535000000000001 2.4780500000000005 24.245000000000005 11.265000000000002 0.12236500000000002 6.9700000000000006 1.9952500000000002 0.18586500000000003
decision_type=2 2 2 2 2 2 2 2 2 2 2 2 2 2 2 2 2 2 2
left_child=1 3 11 6 8 9 12 10 18 17 -8 -2 -1 -7 15 -14 -12 -6 -3
right_child=2 4 -4 -5 5 13 7 -9 -10 -11 16 -13 14 -15 -16 -17 -18 -19 -20
leaf_value=0.00068170871818438181 0.051599967479705799 -0.0051476521800984353 0.090097123198211199 0.029734210709152237 -0.024589372202754017 -0.041436587199568747 0.019579528233346841 -0.001041907669234745 -0.022360268355671155 -0.035088962826289628 0.010588197690873024 0.036646162091443939 -0.0077935905031421603 -0.051145009398460388 -0.010509488796410353 -3.2320519288380941e-05 0.0029384731873869901 -0.016993177635595203 -0.010688587948679926
leaf_weight=20 15.000000000000002 17 15.999999999999998 22 15.000000000000002 20 21 27 23 19 17 14.999999999999998 17 14.999999999999998 23 14.999999999999998 14.999999999999998 15.999999999999998 14.999999999999998
leaf_count=20 15 17 16 22 15 20 21 27 23 19 17 15 17 15 23 15 15 16 15
internal_value=0 -0.00872317 0.060114 0.00508592 -0.0261818 -0.0341568 0.00158745 0.00758894 -0.0138568 -0.0261484 0.0119858 0.0441231 -0.00481413 -0.0455973 -0.00681262 -0.0041555 0.00700239 -0.0206688 -0.00774497
internal_weight=0 317 46 177 140 85 155 80 55 50 53 30 75 35 55 32 32 31 32
internal_count=363 317 46 177 140 85 155 80 55 50 53 30 75 35 55 32 32 31 32
is_linear=0
shrinkage=0.05


Tree=9
num_leaves=18
num_cat=0
split_feature=12 12 12 9 4 0 12 9 10 11 2 12 2 12 7 12 6
split_gain=68.3039 18.0943 16.0689 4.5925 3.67564 2.14763 1.36449 1.23269 1.19709 1.14146 0.990993 0.729668 0.57259 0.557656 0.468848 0.212156 0.208949
threshold=8.1300000000000008 4.5200000000000005 16.320000000000004 267.00000000000006 0.6070000000000001 9.870020000000002 9.9250000000000025 298.00000000000006 18.100000000000005 393.92000000000007 9.1250000000000018 14.4 3.5400000000000005 20.330000000000002 3.7925500000000008 24.245000000000005 79.450000000000017
decision_type=2 2 2 2 2 2 2 2 2 2 2 2 2 2 2 2 2
left_child=1 -1 6 -3 10 13 9 -8 12 -2 -4 14 -5 -6 16 -7 -9
right_child=2 3 4 8 5 15 7 11 -10 -11 -12 -13 -14 -15 -16 -17 -18
leaf_value=0.07000819195348483 0.016103523696462313 0.039763754572719336 -0.025310493508974713 0.026203942298889161 -0.021640684675763956 -0.0405363400777181 0.0039128761308697552 0.0020634034895920194 0.004532022861808184 -0.0025721262053896984 -0.0086438106415285317 -0.015705851618200539 0.013226705195163103 -0.033334515322195855 -0.011449960492212665 -0.048587756752967837 -0.005313172631819422
leaf_weight=26 14.999999999999998 25 14.999999999999998 17 22 18 26 15.999999999999998 21 18 22 25 17 19 22 14.999999999999998 24
leaf_count=26 15 25 15 17 22 18 26 16 21 18 22 25 17 19 22 15 24
internal_value=0 0.0337717 -0.0139292 0.0219948 -0.028268 -0.0347016 -0.00302779 -0.00563993 0.0139181 0.00591681 -0.0154006 -0.00849479 0.0197153 -0.0270598 -0.00558711 -0.0441961 -0.00236254
internal_weight=0 106 257 80 111 74 146 113 55 33 37 87 34 41 62 33 40
internal_count=363 106 257 80 111 74 146 113 55 33 37 87 34 41 62 33 40
is_linear=0
shrinkage=0.05


Tree=10
num_leaves=18
num_cat=0
split_feature=5 12 5 5 7 5 11 9 12 12 0 12 6 7 6 9 7
split_gain=63.6027 24.5765 7.38539 4.98232 4.56268 1.96114 1.91585 1.7823 0.993153 0.917078 0.745995 0.525529 0.363977 0.294873 0.335132 0.265677 0.188352
threshold=6.9715000000000007 14.4 7.4370000000000003 6.6785000000000005 2.0055500000000004 6.1205000000000007 377.7000000000001 453.00000000000006 19.830000000000002 10.140000000000002 0.11603500000000001 5.535000000000001 91.65000000000002 2.4780500000000005 45.650000000000013 282.50000000000006 1.7269000000000003
decision_type=2 2 2 2 2 2 2 2 2 2 2 2 2 2 2 2 2
left_child=1 3 11 5 7 13 -6 -3 -9 10 15 -2 -8 -1 -15 -7 -10
right_child=2 4 -4 -5 6 9 12 8 16 -11 -12 -13 -14 14 -16 -17 -18
leaf_value=0.00063896367093548186 0.046928677558898915 -0.019556036284193397 0.082375397812575107 0.026675552647264508 -0.024495739148308836 0.011055033775822572 -0.0027214294571119052 -0.027113206772243277 -0.038720187225512098 -0.00080627031210396029 0.01845037465866067 0.033693257234990601 -0.012272463136009481 -0.0024760381577329502 -0.010283293348870107 0.0021535208767378016 -0.04605605562527975
leaf_weight=20 15.000000000000002 20 15.999999999999998 22 27 14.999999999999998 21 17 21 27 19 14.999999999999998 19 27 28 19 14.999999999999998
leaf_count=20 15 20 16 22 27 15 21 17 21 27 19 15 19 27 28 19 15
internal_value=0 -0.00797267 0.0549421 0.00440896 -0.0236266 0.00124854 -0.0142047 -0.0322741 -0.0370734 0.00669413 0.0105151 0.040311 -0.00725817 -0.00456008 -0.00645064 0.00608066 -0.0417768
internal_weight=0 317 46 177 140 155 67 73 53 80 53 30 40 75 55 34 36
internal_count=363 317 46 177 140 155 67 73 53 80 53 30 40 75 55 34 36
is_linear=0
shrinkage=0.05


Tree=11
num_leaves=19
num_cat=0
split_feature=5 12 5 12 4 0 5 12 7 11 12 12 7 6 12 0 7 7
split_gain=57.4014 22.1803 6.66531 4.60724 4.13967 2.37614 2.05547 1.10939 1.01501 0.912537 0.734398 0.47429 0.266123 0.302457 0.252755 0.244584 0.226906 0.155639
threshold=6.9715000000000007 14.4 7.4370000000000003 4.9750000000000005 0.6070000000000001 9.870020000000002 6.1205000000000007 10.140000000000002 4.3607000000000005 377.7000000000001 20.330000000000002 5.535000000000001 2.4780500000000005 45.650000000000013 6.7250000000000005 15.718000000000002 3.8181500000000006 1.9952500000000002
decision_type=2 2 2 2 2 2 2 2 2 2 2 2 2 2 2 2 2 2
left_child=1 3 11 -1 9 10 12 8 -8 -3 17 -2 -5 -14 -10 -7 -11 -6
right_child=2 4 -4 6 5 15 7 -9 14 16 -12 -13 13 -15 -16 -17 -18 -19
leaf_value=0.030698877001802127 0.044582244157791134 -0.019644619288473306 0.078256629128009084 0.00060701550217345367 -0.021281995388368762 -0.034798458870500329 0.01911500064439758 -0.0010217804333259321 0.010223841661354528 -0.0027133490051104068 -0.030107270573314866 0.032008593728144963 -0.0023522362751127396 -0.0097691287220056586 0.0016944606592388528 -0.043188834974640294 -0.011039964929223061 -0.014192688907496632
leaf_weight=14.999999999999998 15.000000000000002 22 15.999999999999998 20 15.000000000000002 15.999999999999998 23 29 15.999999999999998 18 19 14.999999999999998 27 28 19 19 14.999999999999998 15.999999999999998
leaf_count=15 15 22 16 20 15 16 23 29 16 18 19 15 27 28 19 19 15 16
internal_value=0 -0.00757403 0.052195 0.00418851 -0.0224453 -0.0293613 0.00173385 0.0069631 0.0109555 -0.0117568 -0.022367 0.0382954 -0.00433208 -0.00612811 0.00559361 -0.0393532 -0.00649817 -0.017623
internal_weight=0 317 46 177 140 85 162 87 58 55 50 30 75 55 35 35 33 31
internal_count=363 317 46 177 140 85 162 87 58 55 50 30 75 55 35 35 33 31
is_linear=0
shrinkage=0.05


Tree=12
num_leaves=18
num_cat=0
split_feature=12 12 12 2 9 4 0 12 9 12 2 7 12 7 7 12 12
split_gain=50.5042 13.8659 11.9922 3.78536 3.33035 2.80072 1.59103 1.05132 1.01525 0.95617 0.893106 0.556658 0.382808 0.342422 0.318455 0.310235 0.17629
threshold=8.1300000000000008 4.5200000000000005 16.320000000000004 3.9850000000000008 267.00000000000006 0.6070000000000001 9.870020000000002 9.9250000000000025 298.00000000000006 9.2700000000000014 9.1250000000000018 2.0875500000000007 20.330000000000002 5.6846500000000004 3.7925500000000008 11.995000000000003 24.245000000000005
decision_type=2 2 2 2 2 2 2 2 2 2 2 2 2 2 2 2 2
left_child=1 -1 7 4 -3 10 12 9 -9 -2 -4 -10 -7 -5 15 -13 -8
right_child=2 3 5 13 -6 6 16 8 11 -11 -12 14 -14 -15 -16 -17 -18
leaf_value=0.060761020296754745 -0.0024780965073862011 0.048622292478879295 -0.022540302152434986 0.011907286552845368 0.018068932007405569 -0.018913239020515574 -0.034816507663991712 0.0038165942479211554 -0.015274270045079497 0.014614683942248425 -0.0067181514520515606 0.0030428623408079152 -0.028601906928969058 0.0025454630019764108 -0.0097692988669643033 -0.0058681070484453814 -0.042155876457691199
leaf_weight=26 18 14.999999999999998 14.999999999999998 28 22 22 18 26 18 14.999999999999998 22 14.999999999999998 19 14.999999999999998 26 28 14.999999999999998
leaf_count=26 18 15 15 28 22 22 18 26 18 15 22 15 19 15 26 28 15
internal_value=0 0.0290398 -0.0119775 0.0187305 0.0304554 -0.0243646 -0.0299806 -0.00255998 -0.00485284 0.00529135 -0.0131325 -0.00744371 -0.0234031 0.00864153 -0.00540095 -0.00275963 -0.0381526
internal_weight=0 106 257 80 37 111 74 146 113 33 37 87 41 43 69 43 33
internal_count=363 106 257 80 37 111 74 146 113 33 37 87 41 43 69 43 33
is_linear=0
shrinkage=0.05


Tree=13
num_leaves=20
num_cat=0
split_feature=5 12 5 5 7 11 5 9 12 12 11 12 7 6 6 4 9 4 10
split_gain=47.7575 17.9207 5.61739 3.69985 3.38928 1.55238 1.50217 1.42174 0.761771 0.592793 0.734984 0.368794 0.30606 0.299606 0.289292 0.251378 0.193349 0.193279 0.17855
threshold=6.9715000000000007 14.4 7.4370000000000003 6.6785000000000005 2.0055500000000004 377.7000000000001 6.0765000000000011 453.00000000000006 19.830000000000002 10.140000000000002 389.66000000000003 5.535000000000001 2.4780500000000005 58.45000000000001 91.65000000000002 0.68600000000000005 282.50000000000006 0.44850000000000007 20.150000000000002
decision_type=2 2 2 2 2 2 2 2 2 2 2 2 2 2 2 2 2 2 2
left_child=1 3 11 6 7 -6 12 -3 -9 10 -8 -2 -1 17 -7 -10 -12 -14 -11
right_child=2 4 -4 -5 5 14 9 8 15 18 16 -13 13 -15 -16 -17 -18 -19 -20
leaf_value=0.00069301742801649701 0.040392388701438894 -0.016369804372079671 0.071534280013293025 0.022852415303615009 -0.021418849747903923 -0.0018577043842967777 0.015338211095976559 -0.023292167747721956 -0.031956379736463231 0.0033958121552132071 0.0072042138609839119 0.029304949740568798 -0.0078912852551130692 -0.012805097947518032 -0.010372651804630694 -0.040312650965319746 -0.0001356963287381565 -0.00010433811694383622 -0.0040739280870184308
leaf_weight=18 15.000000000000002 20 15.999999999999998 22 27 21 22 17 18 15.999999999999998 19 14.999999999999998 17 14.999999999999998 19 18 17 14.999999999999998 15.999999999999998
leaf_count=18 15 20 16 22 27 21 22 17 18 16 19 15 17 15 19 18 17 15 16
internal_value=0 -0.00690854 0.0476089 0.0036644 -0.0202758 -0.0121552 0.000940935 -0.0277288 -0.0320153 0.00512404 0.00813817 0.0348487 -0.00485106 -0.00697433 -0.0059023 -0.0361345 0.00373815 -0.00424115 -0.000339058
internal_weight=0 317 46 177 140 67 155 73 53 90 58 30 65 47 40 36 36 32 32
internal_count=363 317 46 177 140 67 155 73 53 90 58 30 65 47 40 36 36 32 32
is_linear=0
shrinkage=0.05


Tree=14
num_leaves=20
num_cat=0
split_feature=5 12 5 12 4 0 5 12 0 12 7 8 12 7 12 12 11 10 11
split_gain=43.1011 16.1735 5.0697 3.36181 3.08087 1.80672 1.55951 0.923176 0.763268 0.759103 0.795503 0.625283 0.332837 0.276219 0.179303 0.163235 0.142883 0.12765 0.0610491
threshold=6.9715000000000007 14.4 7.4370000000000003 4.9750000000000005 0.6070000000000001 11.123900000000001 6.0765000000000011 20.330000000000002 0.25371500000000008 10.140000000000002 4.3607000000000005 4.5000000000000009 5.535000000000001 2.4780500000000005 6.7250000000000005 10.435 377.7000000000001 20.150000000000002 384.50000000000006
decision_type=2 2 2 2 2 2 2 2 2 2 2 2 2 2 2 2 2 2 2
left_child=1 3 12 -1 8 7 13 16 -3 10 -8 -10 -2 -5 -12 -15 -6 -11 -7
right_child=2 4 -4 6 5 18 9 -9 11 17 14 -13 -14 15 -16 -17 -18 -19 -20
leaf_value=0.026126665361225605 0.038372769355773918 -0.0033468716389810048 0.067957566119730473 0.00065836646180186017 -0.018401654900517313 -0.032843090544144311 0.015576577218249441 -0.028087179745281382 -0.022557794656604527 0.0022677110068293079 0.0079097221769830767 -0.0083481355570256717 0.027839701920747757 -0.0037410107499454173 0.0010022147159491266 -0.0096356285978918491 -0.011873686529303852 -0.003870231454493478 -0.037354153146346408
leaf_weight=14.999999999999998 15.000000000000002 24 15.999999999999998 18 14.999999999999998 15 25 21 15.000000000000002 18 17 15.999999999999998 14.999999999999998 24 21 23 19 15.999999999999998 15
leaf_count=15 15 24 16 18 15 15 25 21 15 18 17 16 15 24 21 23 19 16 15
internal_value=0 -0.00656312 0.0452284 0.00348118 -0.019262 -0.0252284 0.00138437 -0.0198446 -0.0100411 0.00540022 0.00864962 -0.0152238 0.0331062 -0.00460851 0.00409242 -0.00662561 -0.0147537 -0.000620733 -0.0350986
internal_weight=0 317 46 177 140 85 162 55 55 97 63 31 30 65 38 47 34 34 30
internal_count=363 317 46 177 140 85 162 55 55 97 63 31 30 65 38 47 34 34 30
is_linear=0
shrinkage=0.05


Tree=15
num_leaves=20
num_cat=0
split_feature=5 12 5 12 0 5 4 4 6 5 12 8 5 9 10 7 7 9 8
split_gain=38.8987 14.6399 4.5754 3.34199 2.64053 1.7426 1.14782 0.964841 0.964751 0.690329 0.657603 0.777062 0.357987 0.336727 0.321388 0.213164 0.198034 0.196628 0.212171
threshold=6.9715000000000007 15.025 7.4370000000000003 7.3550000000000013 5.776155000000001 6.6785000000000005 0.67500000000000016 0.69650000000000001 93.850000000000009 6.0765000000000011 10.140000000000002 4.5000000000000009 5.7030000000000003 271.50000000000006 19.150000000000002 5.1663000000000006 2.8806500000000006 302.00000000000006 5.5000000000000009
decision_type=2 2 2 2 2 2 2 2 2 2 2 2 2 2 2 2 2 2 2
left_child=1 3 13 5 8 15 -6 -8 14 17 11 -11 -10 -2 -3 -1 -12 -5 -19
right_child=2 4 -4 9 6 -7 7 -9 12 10 16 -13 -14 -15 -16 -17 -18 18 -20
leaf_value=0.011547802280983888 0.036748147557179124 -0.0017912389053141371 0.064559688884764918 -0.0011344020593572746 -0.017319252304732798 0.027214318164624274 -0.040998575179015895 -0.025138898566365243 -0.023681541718542577 -0.00068886482467253986 -0.0061178034119721923 0.01515179026464466 -0.013563948186735312 0.026153699209292731 -0.011513673845569001 0.0037148798227702321 0.0010292342642233485 -0.0096042596917998574 -0.002646388046236502
leaf_weight=15.999999999999998 15.000000000000002 17 15.999999999999998 22 20 15.999999999999998 17 22 17 15.000000000000002 18 15.999999999999998 18 14.999999999999998 17 19 21 28 18
leaf_count=16 15 17 16 22 20 16 17 22 17 15 18 16 18 15 17 19 21 28 18
internal_value=0 -0.00623496 0.042967 0.0026077 -0.0192917 0.0135446 -0.0270579 -0.0320521 -0.012651 -0.00143422 0.00205127 0.00748696 -0.0184782 0.0314509 -0.00665246 0.00729564 -0.0022694 -0.00502222 -0.00688161
internal_weight=0 317 46 189 128 51 59 39 69 138 70 31 35 30 34 35 39 68 46
internal_count=363 317 46 189 128 51 59 39 69 138 70 31 35 30 34 35 39 68 46
is_linear=0
shrinkage=0.05


Tree=16
num_leaves=20
num_cat=0
split_feature=5 12 5 12 0 5 4 4 6 5 12 8 5 12 7 7 9 8 6
split_gain=35.1061 13.2125 4.1293 3.01614 2.38308 1.5727 1.03591 0.870769 0.870688 0.623022 0.593486 0.701299 0.323084 0.306779 0.19238 0.178726 0.177457 0.191484 0.17643
threshold=6.9715000000000007 15.025 7.4370000000000003 7.3550000000000013 5.776155000000001 6.6785000000000005 0.67500000000000016 0.69650000000000001 93.850000000000009 6.0765000000000011 10.140000000000002 4.5000000000000009 5.7030000000000003 5.535000000000001 5.1663000000000006 2.8806500000000006 302.00000000000006 5.5000000000000009 85.550000000000026
decision_type=2 2 2 2 2 2 2 2 2 2 2 2 2 2 2 2 2 2 2
left_child=1 3 13 5 8 14 -6 -8 18 16 11 -11 -10 -2 -1 -12 -5 -18 -3
right_child=2 4 -4 9 6 -7 7 -9 12 10 15 -13 -14 -15 -16 -17 17 -19 -20
leaf_value=0.010970412104506978 0.034934556384881327 -0.0024995703774038703 0.061331703909672797 -0.0010776819068599832 -0.01645328987389803 0.02585360223602038 -0.038948646450743959 -0.023881953751499003 -0.022497464102857256 -0.00065442157288392376 -0.0058119131329779829 0.014394201210234315 -0.01288575086121758 0.024822198053201041 0.0035291356426712718 0.00097777262507450021 -0.0091240467104528634 -0.0025140685883040231 -0.0097156232429875273
leaf_weight=15.999999999999998 15.000000000000002 15.999999999999998 15.999999999999998 22 20 15.999999999999998 17 22 17 15.000000000000002 18 15.999999999999998 18 14.999999999999998 19 21 28 18 18
leaf_count=16 15 16 16 22 20 16 17 22 17 15 18 16 18 15 19 21 28 18 18
internal_value=0 -0.00592321 0.0408187 0.00247731 -0.0183271 0.0128674 -0.025705 -0.0304495 -0.0120185 -0.00136251 0.00194871 0.00711261 -0.0175543 0.0298784 0.00693086 -0.00215593 -0.00477111 -0.00653753 -0.00631983
internal_weight=0 317 46 189 128 51 59 39 69 138 70 31 35 30 35 39 68 46 34
internal_count=363 317 46 189 128 51 59 39 69 138 70 31 35 30 35 39 68 46 34
is_linear=0
shrinkage=0.05


Tree=17
num_leaves=18
num_cat=0
split_feature=5 12 5 12 7 5 11 9 12 7 12 2 9 4 7 6 12
split_gain=31.6833 11.9279 3.72669 2.56464 2.35066 1.18051 1.15931 1.1186 0.569357 0.750596 0.525448 0.329299 0.310034 0.226504 0.186905 0.225705 0.174813
threshold=6.9715000000000007 14.4 7.4370000000000003 4.9750000000000005 2.0589000000000008 6.1205000000000007 367.19500000000005 453.00000000000006 10.140000000000002 4.3607000000000005 19.830000000000002 10.300000000000002 271.50000000000006 0.68600000000000005 2.4780500000000005 45.650000000000013 6.7250000000000005
decision_type=2 2 2 2 2 2 2 2 2 2 2 2 2 2 2 2 2
left_child=1 3 12 -1 7 14 -6 -3 9 -7 -9 -8 -2 -12 -5 -16 -11
right_child=2 4 -4 5 6 8 11 10 -10 16 13 -13 -14 -15 15 -17 -18
leaf_value=0.02277792620783051 0.033467383732398347 -0.012661103176928701 0.058265117800328885 0.00070952571928501135 -0.018457109780739184 0.01500706048682332 -0.0085963266817006192 -0.019219446989397208 -0.00059000679034868202 0.0072301827225601306 -0.02582718871141735 0.00038972522168861413 0.023301533212264379 -0.03365419035156568 -0.0016730454986423463 -0.0080801403283008513 0.0001367968213009207
leaf_weight=14.999999999999998 15.000000000000002 21 15.999999999999998 20 23 23 22 18 29 15.999999999999998 19 19 14.999999999999998 18 27 28 19
leaf_count=15 15 21 16 20 23 23 22 18 29 16 19 19 15 18 27 28 19
internal_value=0 -0.00562705 0.0387777 0.00299874 -0.0165325 0.00116734 -0.00947231 -0.022478 0.00513028 0.00799042 -0.0262262 -0.00443206 0.0283845 -0.0296349 -0.00342968 -0.00493484 0.00337949
internal_weight=0 317 46 177 140 162 64 76 87 58 55 41 30 37 75 55 35
internal_count=363 317 46 177 140 162 64 76 87 58 55 41 30 37 75 55 35
is_linear=0
shrinkage=0.05


Tree=18
num_leaves=19
num_cat=0
split_feature=5 12 12 12 7 5 11 9 4 4 5 12 11 2 7 6 7 12
split_gain=28.5942 10.8016 3.42647 2.46667 1.9535 1.34171 1.02623 0.79932 0.538652 0.565816 0.514932 0.482092 0.817274 0.271486 0.163546 0.181302 0.163063 0.0686333
threshold=6.9715000000000007 15.025 4.5200000000000005 7.3550000000000013 2.0055500000000004 6.6785000000000005 367.19500000000005 453.00000000000006 0.67500000000000016 0.69650000000000001 6.0765000000000011 11.705000000000002 386.90500000000003 10.300000000000002 4.1441500000000007 68.000000000000014 5.1663000000000006 9.4500000000000011
decision_type=2 2 2 2 2 2 2 2 2 2 2 2 2 2 2 2 2 2
left_child=1 3 -2 5 7 16 -6 -3 -9 -10 14 12 -12 -8 15 -5 -1 -14
right_child=2 4 -4 10 6 -7 13 8 9 -11 11 -13 17 -15 -16 -17 -18 -19
leaf_value=0.0098817161750048409 0.053858748409483174 -0.01308884288677398 0.025897478737210478 0.0021051785598198577 -0.018139768461696803 0.023640638124197724 -0.009032959755706161 -0.018074090435402469 -0.035649469757781313 -0.022749215616461108 0.013449075264746653 -0.004143932221821793 -0.0026644706291457012 -0.00046392499546830853 -0.0071651020115401981 -0.0049021562018121282 0.0030308659984975271 0.0021186012246956431
leaf_weight=15.999999999999998 18 17 28 14.999999999999998 24 15.999999999999998 19 15.999999999999998 17 17 17 23 15.000000000000002 18 29 24 19 14.999999999999998
leaf_count=16 18 17 28 15 24 16 19 16 17 17 17 23 15 18 29 24 19 15
internal_value=0 -0.0053457 0.0368388 0.00224983 -0.016561 0.011646 -0.0100874 -0.0224548 -0.0256393 -0.0291993 -0.00122265 0.00178765 0.00469035 -0.00486424 -0.0043215 -0.00220703 0.00616268 -0.000272935
internal_weight=0 317 46 189 128 51 61 67 50 34 138 70 47 37 68 39 35 30
internal_count=363 317 46 189 128 51 61 67 50 34 138 70 47 37 68 39 35 30
is_linear=0
shrinkage=0.05


Tree=19
num_leaves=21
num_cat=0
split_feature=5 12 5 12 7 12 11 7 11 9 9 12 9 2 7 6 6 12 6 7
split_gain=25.8062 9.74843 3.15278 2.25341 1.76303 1.09939 0.926177 0.856467 0.975696 0.721386 0.40517 0.397913 0.285232 0.245017 0.241293 0.23217 0.258943 0.169209 0.112021 0.0933075
threshold=6.9715000000000007 15.025 7.4370000000000003 4.9750000000000005 2.0055500000000004 9.9250000000000025 367.19500000000005 4.4582500000000005 392.99500000000006 453.00000000000006 298.00000000000006 21.385000000000002 271.50000000000006 10.300000000000002 4.1441500000000007 69.300000000000011 90.750000000000014 6.7250000000000005 36.350000000000009 1.5984500000000001
decision_type=2 2 2 2 2 2 2 2 2 2 2 2 2 2 2 2 2 2 2 2
left_child=1 3 12 -1 9 7 -6 8 -5 -3 -7 -11 -2 -8 15 -12 -17 -9 -19 -13
right_child=2 4 -4 5 6 10 13 17 -10 11 14 19 -14 -15 -16 16 -18 18 -20 -21
leaf_value=0.020731986140211423 0.030312732259432471 -0.012434400771470632 0.052921062108362095 0.0204597366352876 -0.017232780437916519 0.0028833580380749138 -0.0085813118684056559 0.0048331397243172808 0.0027095663826912642 -0.018894380452111365 0.0013624215410399142 -0.025210763462819155 0.020561969280242922 -0.00044072883449391363 -0.010654387871424358 -0.0088603054774769891 -0.0004859107313677669 0.0017677502903097775 -0.0039821753601750566 -0.030787724753220877
leaf_weight=14.999999999999998 15.000000000000002 17 15.999999999999998 15.000000000000002 24 21 19 17 15.999999999999998 20 17 15.000000000000002 14.999999999999998 18 14.999999999999998 24 14.999999999999998 15.999999999999998 18 14.999999999999998
leaf_count=15 15 17 16 15 24 21 19 17 16 20 17 15 15 18 15 24 15 16 18 15
internal_value=0 -0.00507841 0.0349969 0.00213734 -0.0157329 0.000534352 -0.00958303 0.00474411 0.0112984 -0.0213321 -0.00321783 -0.0243573 0.0254374 -0.00462103 -0.0050224 -0.00351384 -0.00563938 0.000760161 -0.00127633 -0.0279992
internal_weight=0 317 46 189 128 174 61 82 31 67 92 50 30 37 71 56 39 51 34 30
internal_count=363 317 46 189 128 174 61 82 31 67 92 50 30 37 71 56 39 51 34 30
is_linear=0
shrinkage=0.05


Tree=20
num_leaves=19
num_cat=0
split_feature=5 12 12 12 4 0 5 12 5 2 9 5 8 0 6 4 11 6
split_gain=23.2901 8.80191 2.90374 1.91917 1.87307 1.17252 0.927873 0.641164 0.608127 0.538222 0.489358 0.267881 0.171009 0.160947 0.156965 0.141343 0.0938519 0.0916047
threshold=6.9715000000000007 14.4 4.5200000000000005 4.9750000000000005 0.6070000000000001 13.441000000000001 6.1205000000000007 20.330000000000002 6.2175000000000011 8.3500000000000032 407.00000000000006 6.6155000000000008 4.5000000000000009 0.23175000000000004 42.150000000000013 0.58050000000000013 377.7000000000001 48.350000000000009
decision_type=2 2 2 2 2 2 2 2 2 2 2 2 2 2 2 2 2 2
left_child=1 3 -2 -1 9 7 12 16 -8 -3 11 14 17 -14 -10 -11 -6 -5
right_child=2 4 -4 6 5 -7 8 -9 10 15 -12 -13 13 -15 -16 -17 -18 -19
leaf_value=0.019695386278132599 0.048915018762151402 -0.014094316504067846 0.023174797198069946 -0.0032003884963705785 -0.013675464789072674 -0.027942336603999141 0.013320396037306637 -0.021169753447175029 0.0066596992511767901 -0.00054508155750993058 -0.0054905287735164164 0.010395674857621391 -0.0045342798897763719 0.0020564320920543238 0.0002368033577043277 -0.0067280279284912259 -0.0084434987092390657 -0.0081925685277811303
leaf_weight=14.999999999999998 18 18 28 20 14.999999999999998 25 15.999999999999998 25 14.999999999999998 19 14.999999999999998 14.999999999999998 15.999999999999998 22 26 18 20 17
leaf_count=15 18 18 28 20 15 25 16 25 15 19 15 15 16 22 26 18 20 17
internal_value=0 -0.00482449 0.0332471 0.0025853 -0.0141926 -0.0188448 0.00100103 -0.0150541 0.00451444 -0.00700289 0.00252999 0.00467835 -0.00307451 -0.000718605 0.00258664 -0.003553 -0.0106858 -0.00549409
internal_weight=0 317 46 177 140 85 162 60 87 55 71 56 75 38 41 37 35 37
internal_count=363 317 46 177 140 85 162 60 87 55 71 56 75 38 41 37 35 37
is_linear=0
shrinkage=0.05


Tree=21
num_leaves=18
num_cat=0
split_feature=5 12 5 5 10 12 12 8 4 5 11 12 9 6 7 6 2
split_gain=21.0193 7.98428 2.66711 1.89248 1.52176 1.06463 0.711804 0.731828 0.489202 0.470802 0.364166 0.277434 0.262213 0.257972 0.239571 0.352749 0.13265
threshold=6.9715000000000007 15.025 7.4370000000000003 6.6785000000000005 19.900000000000002 19.830000000000002 9.9250000000000025 5.5000000000000009 0.67500000000000016 5.6395000000000008 376.74000000000007 7.3550000000000013 271.50000000000006 95.90000000000002 3.9396000000000004 69.300000000000011 6.660000000000001
decision_type=2 2 2 2 2 2 2 2 2 2 2 2 2 2 2 2 2
left_child=1 3 12 6 9 13 7 11 -7 -3 -8 -1 -2 -6 15 -12 -13
right_child=2 4 -4 -5 5 8 10 -9 -10 -11 14 16 -14 -15 -16 -17 -18
leaf_value=0.0049535449880820058 0.027466754354536528 -0.011555307161282093 0.048070572619326415 0.015731849580664526 -0.014912198284374817 -0.017298227954994552 -0.0078783295582979928 0.01281775210175992 -0.027428861592824646 -0.00010178195018517344 0.0076030632294714455 -0.0050307324834113175 0.018117729624112448 -0.0069534742389805622 -0.0046819671252742411 -0.0021711948143395905 0.0012154414126759067
leaf_weight=26 15.000000000000002 17 15.999999999999998 22 28 22 26 17 26 19 14.999999999999998 17 14.999999999999998 15.999999999999998 25 24 17
leaf_count=26 15 17 16 22 28 22 26 17 26 19 15 17 15 16 25 24 17
internal_value=0 -0.00458327 0.0315847 0.00194702 -0.0142256 -0.017636 0.000131051 0.00366018 -0.0227857 -0.00551039 -0.00288832 0.00106554 0.0227922 -0.0120181 -0.000861124 0.00158814 -0.00190765
internal_weight=0 317 46 189 128 92 167 77 48 36 90 60 30 44 64 39 34
internal_count=363 317 46 189 128 92 167 77 48 36 90 60 30 44 64 39 34
is_linear=0
shrinkage=0.05


Tree=22
num_leaves=19
num_cat=0
split_feature=5 12 12 12 10 12 12 7 11 4 6 9 6 7 7 12 4 5
split_gain=18.9699 7.20581 2.46107 1.71072 1.37338 0.960829 0.831153 0.75372 0.852668 0.441505 0.42804 0.357983 0.23282 0.206351 0.184298 0.128432 0.110339 0.077614
threshold=6.9715000000000007 15.025 4.5200000000000005 4.9750000000000005 19.900000000000002 19.830000000000002 9.9250000000000025 4.4582500000000005 392.99500000000006 0.67500000000000016 93.850000000000009 298.00000000000006 95.90000000000002 4.1441500000000007 2.2601000000000004 6.7250000000000005 0.43600000000000005 6.0765000000000011
decision_type=2 2 2 2 2 2 2 2 2 2 2 2 2 2 2 2 2 2
left_child=1 3 -2 -1 10 12 7 8 -5 -7 -3 -8 -6 14 -13 -9 -17 -16
right_child=2 4 -4 6 5 9 11 15 -10 -11 -12 13 -14 -15 17 16 -18 -19
leaf_value=0.018051235284656287 0.044429812104337746 -0.00035839723423123363 0.020732677543336259 0.018826208487153051 -0.014166588309620108 -0.016433316471309148 0.0029254012031569368 0.0039244124583680843 0.0022328180551994593 -0.026057418435811996 -0.011330464063212276 -0.0074552294250358562 -0.0066058004158549011 -0.0097140061048169926 -0.0035053769371619354 0.0018074811995029451 -0.0039290664043571599 0.0009571468573994935
leaf_weight=14.999999999999998 18 20 28 15.000000000000002 28 22 21 17 15.999999999999998 26 15.999999999999998 17 15.999999999999998 14.999999999999998 19 14.999999999999998 19 20
leaf_count=15 18 20 28 15 28 22 21 17 16 26 16 17 16 15 19 15 19 20
internal_value=0 -0.00435411 0.0300055 0.00184967 -0.0135144 -0.0167542 0.000452979 0.00411333 0.0102619 -0.0216464 -0.00523487 -0.00280951 -0.0114172 -0.00450575 -0.00311068 0.00037598 -0.00139824 -0.0012169
internal_weight=0 317 46 189 128 92 174 82 31 48 36 92 44 71 56 51 34 39
internal_count=363 317 46 189 128 92 174 82 31 48 36 92 44 71 56 51 34 39
is_linear=0
shrinkage=0.05


Tree=23
num_leaves=19
num_cat=0
split_feature=5 12 5 5 4 0 12 8 2 9 11 7 9 12 7 7 0 0
split_gain=17.1204 6.50324 2.2561 1.59026 1.26277 0.834086 0.568214 0.65705 0.564593 0.317637 0.312948 0.283906 0.240875 0.236264 0.160044 0.222453 0.121824 0.0718944
threshold=6.9715000000000007 15.025 7.4370000000000003 6.6785000000000005 0.6070000000000001 9.870020000000002 9.9250000000000025 5.5000000000000009 8.3500000000000032 298.00000000000006 348.80500000000006 2.4579000000000004 271.50000000000006 7.3550000000000013 3.7925500000000008 2.2601000000000004 0.069620000000000015 15.718000000000002
decision_type=2 2 2 2 2 2 2 2 2 2 2 2 2 2 2 2 2 2
left_child=1 3 12 6 8 10 7 13 -3 -8 -6 -10 -2 -1 15 -11 -15 -7
right_child=2 4 -4 -5 5 17 9 -9 11 14 -12 -13 -14 16 -16 -17 -18 -19
leaf_value=0.0043750909515298331 0.024898802023380989 -0.014613216469685237 0.043667714949697262 0.014393491489780983 -0.017784792973714717 -0.020259071600933872 0.0027791311343510947 0.01192276606007534 -0.0078140341669950437 -0.0070824681137524109 -0.0092407903344980599 0.0013397513578335444 0.01593823716044426 -0.005325007140636444 -0.0076493639630548982 0.00012104902737613383 0.00070271670548735488 -0.024946046471207715
leaf_weight=26 15.000000000000002 14.999999999999998 15.999999999999998 22 17 14.999999999999998 21 17 15.999999999999998 17 29 18 14.999999999999998 14.999999999999998 23 29 19 18
leaf_count=26 15 15 16 22 17 15 21 17 16 17 29 18 15 15 23 29 19 18
internal_value=0 -0.0041364 0.0285052 0.00175718 -0.0128386 -0.0167499 9.25194e-05 0.00324566 -0.0065328 -0.00260517 -0.0123984 -0.00296791 0.0204185 0.000787148 -0.00424387 -0.00254112 -0.00195657 -0.0228156
internal_weight=0 317 46 189 128 79 167 77 49 90 46 34 30 60 69 46 34 33
internal_count=363 317 46 189 128 79 167 77 49 90 46 34 30 60 69 46 34 33
is_linear=0
shrinkage=0.05


Tree=24
num_leaves=19
num_cat=0
split_feature=5 12 12 12 10 12 12 7 5 4 0 9 6 7 6 6 6 2
split_gain=15.4511 5.86918 2.08618 1.4423 1.14513 0.813646 0.676859 0.682352 0.388956 0.377669 0.361247 0.294026 0.209686 0.177084 0.163823 0.242304 0.11014 0.0504054
threshold=6.9715000000000007 15.025 4.5200000000000005 4.9750000000000005 19.900000000000002 19.830000000000002 9.9250000000000025 4.4582500000000005 5.6395000000000008 0.67500000000000016 0.089880000000000015 298.00000000000006 95.90000000000002 4.1441500000000007 69.300000000000011 90.750000000000014 36.350000000000009 5.2550000000000017
decision_type=2 2 2 2 2 2 2 2 2 2 2 2 2 2 2 2 2 2
left_child=1 3 -2 -1 8 12 7 10 -3 -7 -5 -8 -6 14 -13 -16 17 -9
right_child=2 4 -4 6 5 9 11 16 -10 -11 -12 13 -14 -15 15 -17 -18 -19
leaf_value=0.016545654429743688 0.040360285176171198 -0.010130890250644264 0.018542568152770399 0.0043141768663190298 -0.012853069204304899 -0.01483552910980176 0.0026401744091085026 -8.1902711341778426e-05 0.00027958303935041558 -0.023736719099374918 0.0151147596227626 0.0012939417392344159 -0.0056777448538923641 -0.0089193137626474104 -0.0077033625673114635 0.00039750579589356984 -0.0027587911044247449 0.0039525414598756475
leaf_weight=14.999999999999998 18 17 28 16.000000000000004 28 22 21 15.000000000000002 19 26 14.999999999999998 17 15.999999999999998 14.999999999999998 24 14.999999999999998 20 15.999999999999998
leaf_count=15 18 17 28 16 28 22 21 15 19 26 15 17 16 15 24 15 20 16
internal_value=0 -0.00392958 0.0270799 0.00166932 -0.0121967 -0.0151551 0.000386881 0.00369006 -0.00463647 -0.019657 0.00954027 -0.00255725 -0.0102439 -0.00409452 -0.00280216 -0.00458764 0.000134045 0.00200039
internal_weight=0 317 46 189 128 92 174 82 36 48 31 92 44 71 56 39 51 31
internal_count=363 317 46 189 128 92 174 82 36 48 31 92 44 71 56 39 51 31
is_linear=0
shrinkage=0.05


Tree=25
num_leaves=19
num_cat=0
split_feature=12 7 5 4 0 12 5 10 10 7 2 0 11 7 4 8 5 4
split_gain=14.0105 6.96899 4.5697 2.37809 1.24474 0.837815 0.732641 0.652744 0.614307 0.335883 0.421575 0.267159 0.188801 0.164764 0.333555 0.139267 0.12086 0.112727
threshold=9.9250000000000025 2.4780500000000005 7.1195000000000013 0.6695000000000001 8.0241350000000011 21.650000000000002 6.4815000000000014 20.950000000000003 17.850000000000005 5.5588500000000005 8.3500000000000032 15.718000000000002 372.64500000000004 2.5017000000000005 0.59100000000000008 4.5000000000000009 6.1655000000000006 0.5485000000000001
decision_type=2 2 2 2 2 2 2 2 2 2 2 2 2 2 2 2 2 2
left_child=1 -1 6 5 12 7 15 9 -8 10 -2 -6 -5 14 -12 16 -3 -15
right_child=3 2 -4 4 11 -7 8 -9 -10 -11 13 -13 -14 17 -16 -17 -18 -19
leaf_value=0.044659189979235334 0.0077618900313973426 -0.0016251499772382276 0.026769040857821155 -0.01137310601770878 -0.017369304652898931 -0.01453040303552852 0.013177005900070073 -0.010011414282605983 0.0013491679130024031 -0.0079755983051533509 -0.0079364200733834881 -0.025430102580610445 -0.0036919352685799824 -0.0014397772223067782 0.0018258192390203478 -0.0036743539651589736 0.0046220744567108344 0.0038818558434928381
leaf_weight=14.999999999999998 14.999999999999998 15.000000000000002 27 15.999999999999998 26 17 26 25 19 14.999999999999998 21 17 15.999999999999998 24 14.999999999999998 21 15.999999999999998 17
leaf_count=15 15 15 27 16 26 17 26 25 19 15 21 17 16 24 15 21 16 17
internal_value=0 0.0124698 0.00857593 -0.00773796 -0.0149994 -0.00408288 0.00351186 -0.00273736 0.00818303 -0.00103782 9.33447e-05 -0.0205561 -0.00753252 -0.00140053 -0.00386882 -0.00053049 0.00159922 0.000766754
internal_weight=0 139 124 224 75 149 97 132 45 107 92 43 32 77 36 52 31 41
internal_count=363 139 124 224 75 149 97 132 45 107 92 43 32 77 36 52 31 41
is_linear=0
shrinkage=0.05


Tree=26
num_leaves=21
num_cat=0
split_feature=12 12 5 4 4 0 5 9 2 6 4 5 6 11 8 11 6 12 4 6
split_gain=12.7329 5.88624 2.97891 1.40934 1.09042 0.561435 0.514336 0.487062 0.473195 0.472827 0.394024 0.228725 0.224356 0.195165 0.177831 0.189253 0.0941553 0.0959506 0.090994 0.0514079
threshold=4.830000000000001 15.025 7.0700000000000012 0.45550000000000007 0.6070000000000001 8.0241350000000011 6.1525000000000007 267.00000000000006 8.3500000000000032 84.90000000000002 0.51650000000000007 6.4815000000000014 99.200000000000003 354.99500000000006 7.5000000000000009 384.99500000000006 45.650000000000013 11.705000000000002 0.58050000000000013 94.65000000000002
decision_type=2 2 2 2 2 2 2 2 2 2 2 2 2 2 2 2 2 2 2 2
left_child=3 2 6 -1 8 13 14 -8 -3 10 11 -9 19 -6 15 -2 -17 -18 -10 -7
right_child=1 4 -4 -5 5 12 7 9 18 -11 -12 -13 -14 -15 -16 16 17 -19 -20 -21
leaf_value=0.019977965084835889 -0.0078266919435312342 -0.012901944691936177 0.021732720784429047 0.040252482766906426 -0.014537712285916011 -0.018243333268910641 0.011289231149324527 -0.00088800068811646529 0.00019789238512102101 0.009067418723134324 -0.007325543207116425 0.0066060034179827205 -0.02366281052430471 -0.0069929703057277949 0.0021697162288344569 0.00051722937597609739 -0.0065779722699274611 -0.0010116400226252154 -0.0049843718996271493 -0.014103773161768913
leaf_weight=20 18 14.999999999999998 18 14.999999999999998 14.999999999999998 15.000000000000002 14.999999999999998 28 18 15.999999999999998 15.999999999999998 15.999999999999998 14.999999999999998 20 18 23 15.000000000000002 15.999999999999998 15.999999999999998 14.999999999999998
leaf_count=20 18 15 18 15 15 15 15 28 18 16 16 16 15 20 18 23 15 16 16 15
internal_value=0 -0.00305898 0.00233389 0.028667 -0.0113782 -0.0149759 0.000404726 0.00305539 -0.00550443 0.00143029 -0.000606278 0.00183709 -0.01867 -0.0102264 -0.00227539 -0.00338667 -0.00190666 -0.00370503 -0.00224082 -0.0161736
internal_weight=0 328 199 35 129 80 181 91 49 76 60 44 45 35 90 72 54 31 34 30
internal_count=363 328 199 35 129 80 181 91 49 76 60 44 45 35 90 72 54 31 34 30
is_linear=0
shrinkage=0.05


Tree=27
num_leaves=20
num_cat=0
split_feature=5 12 5 7 4 12 7 2 4 4 4 9 7 9 11 12 0 11 5
split_gain=11.5706 4.28574 1.72855 1.2739 0.883371 0.642444 0.53638 0.433154 0.364325 0.433322 0.334958 0.202774 0.201552 0.201231 0.21897 0.14703 0.192401 0.116804 0.0368398
threshold=6.9715000000000007 15.620000000000003 7.4370000000000003 1.8422500000000002 0.6070000000000001 7.5500000000000007 1.9733000000000003 8.3500000000000032 0.69650000000000001 0.67500000000000016 0.43600000000000005 271.50000000000006 2.5017000000000005 298.00000000000006 393.92000000000007 11.490000000000002 0.15660500000000002 379.86000000000007 6.0765000000000011
decision_type=2 2 2 2 2 2 2 2 2 2 2 2 2 2 2 2 2 2 2
left_child=1 3 11 -1 7 10 8 -3 9 -6 -5 -2 -9 14 -7 16 -15 -17 -19
right_child=2 4 -4 5 6 13 -8 12 -10 -11 -12 -13 -14 15 -16 17 -18 18 -20
leaf_value=0.015197414533079913 0.020466309251884616 -0.012256847197810811 0.036705828411504625 0.00031120182298447776 -0.014245133998338134 0.0051509128702390524 -0.007031852402724326 -0.0058103943621972565 -0.011914053365277748 -0.02588185500353575 0.0084546348146562061 0.012244915142655374 0.0022570965190728503 -0.0052732617674337238 -0.0020816229786723853 -0.0086211033165454875 0.0018051946540557158 -0.0050832097480694449 -0.0015789383448039493
leaf_weight=14.999999999999998 15.000000000000002 14.999999999999998 15.999999999999998 23 15.999999999999998 18 20 16.000000000000004 24 15.999999999999998 28 14.999999999999998 14.999999999999998 15.999999999999998 25 15.999999999999998 24 15.000000000000002 14.999999999999998
leaf_count=15 15 15 16 23 16 18 20 16 24 16 28 15 15 16 25 16 24 15 15
internal_value=0 -0.00340051 0.0234339 0.00119799 -0.0107506 3.1366e-05 -0.0140606 -0.00528179 -0.0165709 -0.0200635 0.00478211 0.0163556 -0.00190677 -0.00184683 0.00094595 -0.00324323 -0.00102619 -0.00517108 -0.00333107
internal_weight=0 317 46 195 122 180 76 46 56 32 51 30 31 129 43 86 40 46 30
internal_count=363 317 46 195 122 180 76 46 56 32 51 30 31 129 43 86 40 46 30
is_linear=0
shrinkage=0.05


Tree=28
num_leaves=20
num_cat=0
split_feature=12 12 5 7 4 5 0 9 6 6 0 11 9 6 7 7 12 6 6
split_gain=10.6674 4.80056 2.42728 1.76249 0.941315 0.509298 0.430153 0.361609 0.375202 0.388153 0.31497 0.232628 0.141543 0.137279 0.132812 0.0961559 0.0823254 0.0745013 0.0498727
threshold=4.830000000000001 14.795000000000002 7.1195000000000013 5.4009000000000009 0.6070000000000001 6.0765000000000011 8.0241350000000011 267.00000000000006 84.90000000000002 44.350000000000009 0.25371500000000008 348.80500000000006 355.00000000000006 99.200000000000003 4.1441500000000007 6.8733500000000012 10.200000000000001 68.000000000000014 94.65000000000002
decision_type=2 2 2 2 2 2 2 2 2 2 2 2 2 2 2 2 2 2 2
left_child=3 2 5 -1 10 14 11 -7 9 15 -3 -6 -11 18 17 -9 -16 -2 -8
right_child=1 4 -4 -5 6 7 13 8 -10 12 -12 -13 -14 -15 16 -17 -18 -19 -20
leaf_value=0.035956056602299218 0.0019232228025794031 -0.00045506904994987931 0.021519988030195239 0.013283199441308777 -0.014103745371103288 0.0091881171231054607 -0.016689153518527743 0.0071548587642610061 0.0081457251689725507 -0.00051006446313112976 -0.0083517877750896984 -0.0059511258976445314 -0.006153402975178324 -0.020385478352545762 -0.0026442592466870939 0.0014934133583058915 -0.0078827504068613059 -0.0025340212155133489 -0.012611870523542165
leaf_weight=20 14.999999999999998 23 14.999999999999998 14.999999999999998 14.999999999999998 18 15.000000000000002 15.000000000000002 17 25 28 21 20 15.999999999999998 15.000000000000002 14.999999999999998 14.999999999999998 25 14.999999999999998
leaf_count=20 15 23 15 15 15 18 15 15 17 25 28 21 20 16 15 15 15 25 15
internal_value=0 -0.00279991 0.00219569 0.0262391 -0.0101243 0.000585336 -0.0134416 0.00270698 0.00143893 -8.12745e-05 -0.00479052 -0.00934805 -0.00301821 -0.0166453 -0.00274868 0.00432414 -0.0052635 -0.000862555 -0.0146505
internal_weight=0 328 195 35 133 180 82 110 92 75 51 36 45 46 70 30 30 40 30
internal_count=363 328 195 35 133 180 82 110 92 75 51 36 45 46 70 30 30 40 30
is_linear=0
shrinkage=0.05


Tree=29
num_leaves=21
num_cat=0
split_feature=12 12 5 7 4 0 5 7 2 6 2 7 6 7 8 11 6 6 12 6
split_gain=9.62734 4.33758 2.21565 1.59064 0.816921 0.434449 0.396285 0.382526 0.635605 0.492693 0.37831 0.197011 0.181756 0.160527 0.146667 0.177161 0.11495 0.0849302 0.0892728 0.0450101
threshold=4.830000000000001 15.025 7.0700000000000012 5.4009000000000009 0.6070000000000001 8.0241350000000011 6.1525000000000007 6.0721500000000006 6.660000000000001 84.90000000000002 8.3500000000000032 2.4579000000000004 99.200000000000003 1.9071500000000003 7.5000000000000009 384.99500000000006 58.45000000000001 45.650000000000013 11.705000000000002 94.65000000000002
decision_type=2 2 2 2 2 2 2 2 2 2 2 2 2 2 2 2 2 2 2 2
left_child=3 2 6 -1 10 13 14 8 -8 16 -3 -12 19 -6 15 -2 -10 -17 -19 -7
right_child=1 4 -4 -5 5 12 7 -9 9 -11 11 -13 -14 -15 -16 17 -18 18 -20 -21
leaf_value=0.034158254533831499 -0.0073518466424300436 -0.011331705078482628 0.018699542867640653 0.0126190395342807 -0.011669930784264579 -0.015854696171979106 0.011249521467834712 -0.0031086706058968874 0.00038558668456971639 0.0081552334285333924 -0.0058361483010230591 0.0017891868431535033 -0.020658830424460276 -0.0048273886926472193 0.0019900755698068276 0.00067802166728221864 -0.0058044607223321993 -0.0061032288645704574 -0.0007340884360019118 -0.011981276813894512
leaf_weight=20 18 14.999999999999998 18 14.999999999999998 20 15.000000000000002 23 22 15.000000000000002 15.999999999999998 15.999999999999998 18 14.999999999999998 14.999999999999998 18 23 14.999999999999998 15.000000000000002 15.999999999999998 14.999999999999998
leaf_count=20 18 15 18 15 20 15 23 22 15 16 16 18 15 15 18 23 15 15 16 15
internal_value=0 -0.00265991 0.00196949 0.0249272 -0.0098014 -0.0129154 0.000305733 0.00263241 0.00446289 0.00106958 -0.00471732 -0.00179921 -0.0161649 -0.00873741 -0.00204679 -0.00305601 -0.00270944 -0.00162406 -0.00333206 -0.013918
internal_weight=0 328 199 35 129 80 181 91 69 46 49 34 45 35 90 72 30 54 31 30
internal_count=363 328 199 35 129 80 181 91 69 46 49 34 45 35 90 72 30 54 31 30
is_linear=0
shrinkage=0.05


Tree=30
num_leaves=19
num_cat=0
split_feature=12 7 5 11 12 9 9 11 6 7 10 0 5 1 4 9 6 2
split_gain=8.72289 5.80638 2.79297 1.70302 1.43425 0.865796 0.373199 0.531389 0.620025 0.334336 0.331099 0.291839 0.229426 0.249037 0.205724 0.153218 0.134504 0.0551963
threshold=9.9250000000000025 2.4780500000000005 6.9270000000000005 118.605 19.830000000000002 267.00000000000006 298.00000000000006 333.24500000000006 87.950000000000017 3.6687000000000007 19.900000000000002 0.99544000000000021 6.3740000000000014 31.500000000000004 0.68600000000000005 284.50000000000006 62.250000000000007 6.0100000000000007
decision_type=2 2 2 2 2 2 2 2 2 2 2 2 2 2 2 2 2 2
left_child=1 -1 12 -2 6 -4 16 -8 9 -9 -6 -10 17 15 -12 -14 -5 -3
right_child=3 2 5 4 10 -7 7 8 11 -11 14 -13 13 -15 -16 -17 -18 -19
leaf_value=0.039221221146484214 -0.018690985622621763 -0.0034977233433164654 0.02512106460911271 -0.00036850452888756983 -0.0053569059943159424 0.010026655998080969 0.0045409754720619989 0.0027559341517863455 -0.0044115314921854363 -0.0051879138390247062 -0.010992532440418886 -0.012563910520223615 0.0046877034225811564 0.0084046786870150009 -0.018443844700232147 -0.0021545705514856512 0.0062219190970063216 0.00044232151121832431
leaf_weight=14.999999999999998 24 20 19 16.000000000000004 14.999999999999998 19 18 27 19 26 22 26 14.999999999999998 17 15.999999999999998 18 14.999999999999998 15.999999999999998
leaf_count=15 24 20 19 16 15 19 18 27 19 26 22 26 15 17 16 18 15 16
internal_value=0 0.00983928 0.00628502 -0.00610563 -0.00459538 0.0175739 -0.00205297 -0.00335533 -0.00480568 -0.00114105 -0.011647 -0.00912179 0.00129692 0.00348826 -0.0141299 0.000955554 0.00282041 -0.00174659
internal_weight=0 139 124 224 200 38 147 116 98 53 53 45 86 50 38 33 31 36
internal_count=363 139 124 224 200 38 147 116 98 53 53 45 86 50 38 33 31 36
is_linear=0
shrinkage=0.05


Tree=31
num_leaves=18
num_cat=0
split_feature=12 12 5 7 10 12 5 5 4 5 7 2 6 6 0 11 7
split_gain=8.08538 3.49422 1.79159 1.39987 0.700198 0.412794 0.397212 0.252418 0.327609 0.236108 0.198632 0.505069 0.383883 0.191291 0.111904 0.188002 0.0765319
threshold=4.830000000000001 14.795000000000002 7.1195000000000013 5.4009000000000009 19.900000000000002 23.645000000000007 6.0765000000000011 5.8390000000000013 0.6695000000000001 5.6395000000000008 6.0721500000000006 6.660000000000001 84.90000000000002 67.100000000000009 1.6426200000000002 388.63500000000005 4.7434500000000002
decision_type=2 2 2 2 2 2 2 2 2 2 2 2 2 2 2 2 2
left_child=3 2 6 -1 9 7 14 -6 -9 -3 11 -8 13 -13 15 -2 -17
right_child=1 4 -4 -5 5 -7 10 8 -10 -11 -12 12 -14 -15 -16 16 -18
leaf_value=0.03150371795520187 -0.0083211675689866156 -0.0073306957835002854 0.018426527405778569 0.011297411732375622 -0.013597632853530481 -0.016496039633639156 0.0093283793799435865 -0.0021226165117695928 -0.010440872156799869 0.00059582499698514028 -0.0012363217714852813 0.0011026867940513924 0.0071166407590841545 -0.0060824938234873118 0.0013246178502837819 2.8393161483109e-05 -0.0044359287945553664
leaf_weight=20 14.999999999999998 17 14.999999999999998 14.999999999999998 21 25 26 20 29 21 29 22 17 15.999999999999998 14.999999999999998 24 15.999999999999998
leaf_count=20 15 17 15 15 21 25 26 20 29 21 29 22 17 16 15 24 16
internal_value=0 -0.00243761 0.00182442 0.0228439 -0.00868645 -0.0109809 0.000440916 -0.00901126 -0.00704567 -0.00295025 0.00231461 0.00358593 0.000871311 -0.00192265 -0.00250345 -0.00354747 -0.00175734
internal_weight=0 328 195 35 133 95 180 70 49 38 110 81 55 38 70 55 40
internal_count=363 328 195 35 133 95 180 70 49 38 110 81 55 38 70 55 40
is_linear=0
shrinkage=0.05


Tree=32
num_leaves=20
num_cat=0
split_feature=5 11 5 5 6 4 8 9 9 8 11 10 7 2 6 6 10 0 6
split_gain=7.21965 2.13688 1.51535 1.23872 0.758539 0.688987 1.16681 0.325767 0.308932 0.210826 0.439924 0.207645 0.271887 0.261686 0.158867 0.131135 0.100998 0.0859003 0.0403169
threshold=6.8505000000000011 118.605 7.4370000000000003 6.1525000000000007 94.950000000000017 0.65100000000000013 7.5000000000000009 284.50000000000006 267.00000000000006 4.5000000000000009 384.50000000000006 20.950000000000003 1.9733000000000003 10.300000000000002 42.150000000000013 45.650000000000013 18.750000000000004 0.056230000000000009 70.250000000000014
decision_type=2 2 2 2 2 2 2 2 2 2 2 2 2 2 2 2 2 2 2
left_child=1 -1 8 4 11 6 7 17 -2 -6 -11 12 -3 15 -9 -14 -17 -5 -15
right_child=2 3 -4 5 9 -7 -8 14 -10 10 -12 -13 13 18 -16 16 -18 -19 -20
leaf_value=-0.017306204202274481 0.016706258780322971 -0.0075820827546219036 0.029644028539769354 0.0030697276443243022 -0.013806522544473411 -0.0058404304655379664 0.016951116283113757 0.0027128730564274723 0.007659147483418169 -0.0013795089483370675 -0.012595358634522805 -0.0073338136953466082 0.00067440559240904726 0.0015301341190934179 -0.0033078711330225431 -0.0018584406248440867 -0.0073468238984545076 0.0084207506508876886 0.0051383187470491979
leaf_weight=24 15.999999999999998 14.999999999999998 15.999999999999998 15.000000000000002 18 21 14.999999999999998 18 23 17 18 17 22 15.000000000000002 28 19 14.999999999999998 14.999999999999998 15.999999999999998
leaf_count=24 16 15 16 15 18 21 15 18 23 17 18 17 22 15 28 19 15 15 16
internal_value=0 -0.00297976 0.0166866 -0.00176907 -0.00443373 0.00232309 0.00420698 0.00169169 0.0113708 -0.00940916 -0.00714766 -0.00221779 -0.00136512 -0.000293226 -0.000951928 -0.0023335 -0.00427979 0.00574524 0.00339242
internal_weight=0 308 55 284 172 112 91 76 39 53 35 119 102 87 46 56 34 30 31
internal_count=363 308 55 284 172 112 91 76 39 53 35 119 102 87 46 56 34 30 31
is_linear=0
shrinkage=0.05


Tree=33
num_leaves=20
num_cat=0
split_feature=12 12 5 11 9 12 4 10 7 2 10 4 2 12 4 12 4 2 7
split_gain=6.84023 3.4237 1.9459 0.75875 0.754702 0.592496 0.580798 0.460191 0.310397 0.337964 0.248979 0.234457 0.358447 0.196555 0.124076 0.119705 0.11135 0.062292 0.0498508
threshold=4.0150000000000015 14.115000000000002 6.9270000000000005 92.680000000000021 267.00000000000006 19.830000000000002 0.62750000000000006 19.650000000000002 6.0721500000000006 6.660000000000001 19.900000000000002 0.60100000000000009 10.300000000000002 16.695000000000004 0.68600000000000005 7.3550000000000013 0.54550000000000021 10.300000000000002 3.7925500000000008
decision_type=2 2 2 2 2 2 2 2 2 2 2 2 2 2 2 2 2 2 2
left_child=-1 2 6 -3 -4 11 7 8 9 -2 -7 12 -5 -13 -12 -10 17 -11 -9
right_child=1 3 4 5 -6 10 -8 18 15 16 14 13 -14 -15 -16 -17 -18 -19 -20
leaf_value=0.028423933805897833 0.0073919815149296221 -0.016448239535093306 0.021645991620607676 -0.004375754329173461 0.0062887624109862379 -0.0044017779974577327 0.0095281590038212016 -0.0077580243969957042 0.00092560062495370711 -0.0034995283491298327 -0.0095613146787914254 -0.0020260247707483358 0.0053694430680479854 -0.0096425279043614864 -0.015194517669870573 -0.0047682732712322233 0.0039273709586511059 0.00091252875809004767 -0.0039021463280445655
leaf_weight=20 27 20 15.999999999999998 23 15.999999999999998 14.999999999999998 15.999999999999998 14.999999999999998 14.999999999999998 15.999999999999998 23 15.999999999999998 15.999999999999998 18 17 24 14.999999999999998 15.999999999999998 19
leaf_count=20 27 20 16 23 16 15 16 15 15 16 23 16 16 18 17 24 15 16 19
internal_value=0 -0.00165737 0.00269458 -0.00739136 0.0139674 -0.00597623 0.000481515 -0.000503154 0.00103139 0.00293381 -0.00989534 -0.00302347 -0.000377725 -0.00605829 -0.0119554 -0.00257832 0.000372736 -0.0012935 -0.00560327
internal_weight=0 343 195 148 32 128 163 147 113 74 55 73 39 34 40 39 47 32 34
internal_count=363 343 195 148 32 128 163 147 113 74 55 73 39 34 40 39 47 32 34
is_linear=0
shrinkage=0.05


Tree=34
num_leaves=19
num_cat=0
split_feature=12 12 7 0 12 9 4 5 2 8 4 4 7 5 7 12 6 12
split_gain=6.17331 3.13217 1.55118 1.11071 0.769668 0.475461 0.446371 0.494396 0.293543 0.249964 0.491261 0.368515 0.341635 0.184014 0.199633 0.180209 0.105687 0.073875
threshold=4.0150000000000015 9.9250000000000025 3.2986000000000004 21.383650000000006 23.645000000000007 298.00000000000006 0.49100000000000005 6.3740000000000014 4.2200000000000006 4.5000000000000009 0.6695000000000001 0.59100000000000008 2.5017000000000005 6.4595000000000011 1.8422500000000002 16.490000000000006 62.250000000000007 12.965000000000002
decision_type=2 2 2 2 2 2 2 2 2 2 2 2 2 2 2 2 2 2
left_child=-1 2 -2 4 5 16 7 -4 -9 15 11 12 -11 14 -12 -7 -3 -14
right_child=1 3 6 -5 -6 9 -8 8 -10 10 13 -13 17 -15 -16 -17 -18 -19
leaf_value=0.027002737834118308 0.01696761880620298 -0.00024290210567414763 -0.0013832204867087836 -0.018199421148747206 -0.011673176266124538 -0.0047270549761985123 -0.0046101105050183836 0.01045103531947394 0.0027642404539105687 -0.0081093280750792474 -0.0086994852738765359 0.0066005296597722923 -0.0015434024257895843 -0.011301498959461849 -0.00067047821939922878 -0.011577554873656483 0.0055040229170117529 0.0034189561630288759
leaf_weight=20 22 15.999999999999998 28 14.999999999999998 29 24 19 27 23 15.999999999999998 15.000000000000002 15.999999999999998 15.000000000000002 14.999999999999998 15.999999999999998 15.999999999999998 15.999999999999998 14.999999999999998
leaf_count=20 22 16 28 15 29 24 19 27 23 16 15 16 15 15 16 16 16 15
internal_value=0 -0.0015745 0.00498085 -0.00505703 -0.0041138 -0.0028959 0.0022622 0.00393622 0.00691511 -0.00409081 -0.00284028 6.43957e-05 -0.00220904 -0.00675527 -0.00455548 -0.00746725 0.00263056 0.000937777
internal_weight=0 343 119 224 209 180 97 78 50 148 108 62 46 46 31 40 32 30
internal_count=363 343 119 224 209 180 97 78 50 148 108 62 46 46 31 40 32 30
is_linear=0
shrinkage=0.05


Tree=35
num_leaves=18
num_cat=0
split_feature=5 11 7 10 6 10 4 7 7 10 2 5 6 5 5 5 0
split_gain=5.40682 1.72608 1.46476 1.33419 1.16856 0.448329 0.425569 0.428254 0.382726 0.629059 0.275404 0.191086 0.135979 0.125879 0.0742474 0.0726078 0.0635143
threshold=6.9715000000000007 118.605 1.4663500000000003 15.250000000000002 76.250000000000014 17.700000000000006 0.71550000000000014 1.9071500000000003 6.0721500000000006 17.850000000000005 9.9550000000000018 7.238500000000001 44.350000000000009 6.0890000000000013 6.4375000000000009 5.9090000000000016 0.13937000000000002
decision_type=2 2 2 2 2 2 2 2 2 2 2 2 2 2 2 2 2
left_child=1 -1 -3 -2 8 -6 7 -7 9 -4 -9 -5 14 -12 -10 -11 -17
right_child=3 2 4 11 5 6 -8 10 12 15 13 -13 -14 -15 -16 16 -18
leaf_value=-0.015215923109402261 0.028260648160551988 0.012156534131224219 0.01045754789707384 0.014150101629396276 0.00062499707758737106 -0.013224379043897679 0.00089720599508533888 -0.0097786210460105438 -0.0031808720610570166 -0.0016230917923773331 -0.00071999435101381768 0.0062948677361418966 -0.0064177888270933181 -0.0065486227395012975 0.0016360073510440999 7.2084045789849312e-05 0.0037223829932620657
leaf_weight=24 14.999999999999998 19 21 15.000000000000002 24 29 14.999999999999998 27 15.999999999999998 24 22 15.999999999999998 15.999999999999998 15.999999999999998 15.999999999999998 26 22
leaf_count=24 15 19 21 15 24 29 15 27 16 24 22 16 16 16 16 26 22
internal_value=0 -0.00232454 -0.00126859 0.0160191 -0.00219953 -0.00556158 -0.00692376 -0.00817178 0.000971762 0.00284324 -0.00591755 0.0100958 -0.00265422 -0.00317415 -0.000772432 0.000622395 0.00174514
internal_weight=0 317 293 46 274 133 109 94 141 93 65 31 48 38 32 72 48
internal_count=363 317 293 46 274 133 109 94 141 93 65 31 48 38 32 72 48
is_linear=0
shrinkage=0.05


Tree=36
num_leaves=19
num_cat=0
split_feature=5 11 7 10 6 10 4 7 7 10 2 5 6 5 5 5 2 11
split_gain=4.87966 1.55779 1.32195 1.20411 1.05462 0.404617 0.384076 0.386499 0.34541 0.567725 0.248552 0.172455 0.122721 0.113605 0.0670083 0.0655285 0.0598931 0.0624198
threshold=6.9715000000000007 118.605 1.4663500000000003 15.250000000000002 76.250000000000014 17.700000000000006 0.71550000000000014 1.9071500000000003 6.0721500000000006 17.850000000000005 9.9550000000000018 7.238500000000001 44.350000000000009 6.0890000000000013 6.4375000000000009 5.9090000000000016 10.700000000000001 396.13500000000005
decision_type=2 2 2 2 2 2 2 2 2 2 2 2 2 2 2 2 2 2
left_child=1 -1 -3 -2 8 -6 7 -7 9 -4 -9 -5 14 -12 -10 -11 17 -17
right_child=3 2 4 11 5 6 -8 10 12 15 13 -13 -14 -15 -16 16 -18 -19
leaf_value=-0.014455127118465803 0.026847615453104181 0.011548707673424169 0.0099346704914101552 0.013442596668998398 0.0005937473373099541 -0.012563159978338357 0.00085234563021610197 -0.0092896900053515471 -0.0030218283529393378 -0.0015419371930571893 -0.00068399456901137128 0.0059801241673994813 -0.0060968993057031184 -0.0062211916731030222 0.0015542070046649316 0.0051150573268387237 -0.00083989083796041095 0.00069847611157456422
leaf_weight=24 14.999999999999998 19 21 15.000000000000002 24 29 14.999999999999998 27 15.999999999999998 24 22 15.999999999999998 15.999999999999998 15.999999999999998 15.999999999999998 15.999999999999998 15.999999999999998 15.999999999999998
leaf_count=24 15 19 21 15 24 29 15 27 16 24 22 16 16 16 16 16 16 16
internal_value=0 -0.00220831 -0.00120516 0.0152182 -0.00208955 -0.0052835 -0.00657757 -0.00776319 0.000923174 0.00270107 -0.00562167 0.009591 -0.00252151 -0.00301545 -0.000733811 0.000591275 0.00165788 0.00290677
internal_weight=0 317 293 46 274 133 109 94 141 93 65 31 48 38 32 72 48 32
internal_count=363 317 293 46 274 133 109 94 141 93 65 31 48 38 32 72 48 32
is_linear=0
shrinkage=0.05


Tree=37
num_leaves=20
num_cat=0
split_feature=5 4 7 10 10 4 11 7 10 6 11 5 7 7 4 11 0 6 0
split_gain=4.40389 1.46712 1.91117 1.08671 0.764692 0.746307 0.422176 0.254097 0.448594 0.332107 0.185188 0.15564 0.142643 0.119583 0.110574 0.091731 0.0592582 0.0239429 0.0153557
threshold=6.9715000000000007 0.6695000000000001 1.7760500000000004 15.250000000000002 19.650000000000002 0.69650000000000001 378.17000000000002 5.6846500000000004 17.700000000000006 73.200000000000003 348.80500000000006 7.238500000000001 3.3460000000000005 1.8846000000000003 0.46800000000000003 392.89500000000004 0.16599500000000003 89.15000000000002 0.081065000000000012
decision_type=2 2 2 2 2 2 2 2 2 2 2 2 2 2 2 2 2 2 2
left_child=1 2 -1 -2 7 -3 -6 8 12 14 -7 -5 -4 -12 -10 18 -8 -18 -9
right_child=3 5 4 11 6 10 16 15 9 -11 13 -13 -14 -15 -16 -17 17 -19 -20
leaf_value=0.017095304727554324 0.025505234946807228 -0.015448345833768449 0.0036809275421546776 0.012770466618239877 -0.010657737081727157 -0.008721428843656261 -0.0051885829991078943 -0.0051128602400422087 -0.0002973564541088822 -0.0052140556572174493 -0.0052725874404940341 0.0056811178394127644 0.010357451846357436 0.0007721954553077618 0.0045064232312142854 0.00032701733566465837 -9.6419207693543272e-05 -0.0028769863195096455 -0.0028504389571025971
leaf_weight=14.999999999999998 14.999999999999998 24 15.999999999999998 15.000000000000002 26 19 15.999999999999998 15.000000000000002 23 22 18 15.999999999999998 15.999999999999998 14.999999999999998 25 21 16.000000000000004 14.999999999999998 14.999999999999998
leaf_count=15 15 24 16 15 26 19 16 15 23 22 18 16 16 15 25 21 16 15 15
internal_value=0 -0.0020979 -0.000187727 0.0144572 -0.00133483 -0.00815515 -0.00554542 0.000674144 0.00211496 -0.000126969 -0.00478905 0.00911145 0.00701919 -0.00252496 0.00220461 -0.00220749 -0.00271734 -0.00144185 -0.00398165
internal_weight=0 317 241 46 226 76 73 153 102 70 52 31 32 33 48 51 47 31 30
internal_count=363 317 241 46 226 76 73 153 102 70 52 31 32 33 48 51 47 31 30
is_linear=0
shrinkage=0.05


Tree=38
num_leaves=18
num_cat=0
split_feature=12 12 7 0 12 11 6 5 11 6 11 2 7 6 2 11 2
split_gain=4.69036 2.21732 1.27072 0.894141 0.680101 0.495503 0.415797 0.431418 0.306538 0.561049 0.310358 0.28534 0.146298 0.281987 0.0567319 0.0509761 0.0314919
threshold=4.0150000000000015 9.9250000000000025 3.2986000000000004 21.383650000000006 23.645000000000007 118.605 59.650000000000013 6.3740000000000014 333.24500000000006 97.950000000000017 372.64500000000004 4.2200000000000006 3.9396000000000004 69.300000000000011 5.7500000000000009 393.78000000000003 7.1700000000000008
decision_type=2 2 2 2 2 2 2 2 2 2 2 2 2 2 2 2 2
left_child=-1 2 -2 4 5 -3 7 14 -7 10 -10 -9 13 -12 -4 -15 -14
right_child=1 3 6 -5 -6 8 -8 11 9 -11 12 -13 16 15 -16 -17 -18
leaf_value=0.023537045107223094 0.014992279624989766 -0.010710248071700335 -0.0035466710627467066 -0.016094254478812218 -0.010562189567256077 0.0043083610944449902 -0.0054189360700547702 0.010044569498859346 -0.0074633491167332977 -0.009647124599326741 0.0067334596067667009 0.0023344601514205961 -0.0043325045146048067 0.0010993800088763238 0.00067212497062214165 -0.0020339287903711751 -0.0013328881535146918
leaf_weight=20 22 15.999999999999998 14.999999999999998 14.999999999999998 29 20 17 24 15.999999999999998 22 18 24 14.999999999999998 25 17 27 21
leaf_count=20 22 16 15 15 29 20 17 24 16 22 18 24 15 25 17 27 21
internal_value=0 -0.00137242 0.00414312 -0.00430255 -0.00345626 -0.00231141 0.00168248 0.00319153 -0.00149202 -0.00229762 -0.000972304 0.00618951 7.4762e-06 0.00133958 -0.00130544 -0.00052753 -0.00258273
internal_weight=0 343 119 224 209 180 97 80 164 144 122 48 106 70 32 52 36
internal_count=363 343 119 224 209 180 97 80 164 144 122 48 106 70 32 52 36
is_linear=0
shrinkage=0.05


Tree=39
num_leaves=18
num_cat=0
split_feature=12 12 7 0 12 11 4 5 11 11 7 0 7 4 7 11 5
split_gain=4.23305 2.00113 1.14683 0.806962 0.613792 0.447192 0.366377 0.317479 0.27665 0.507451 0.380991 0.209214 0.188642 0.169682 0.1598 0.0459128 0.0223021
threshold=4.0150000000000015 9.9250000000000025 3.2986000000000004 21.383650000000006 23.645000000000007 118.605 0.49100000000000005 6.3740000000000014 333.24500000000006 376.74000000000007 1.9478000000000002 0.085470000000000004 3.9396000000000004 0.52800000000000014 6.7277000000000013 393.78000000000003 5.9620000000000006
decision_type=2 2 2 2 2 2 2 2 2 2 2 2 2 2 2 2 2
left_child=-1 2 -2 4 5 -3 7 -4 -7 -10 -11 14 13 -12 -9 -15 -14
right_child=1 3 6 -5 -6 8 -8 11 9 10 12 -13 16 15 -16 -17 -18
leaf_value=0.022360193271888422 0.014242665662260895 -0.010174735769396648 -0.0011477316126859347 -0.015289541439463695 -0.010034080113059488 0.004092943107243628 -0.0046277781868794641 0.011461152513220441 -0.0086584798935800799 -0.0077522302525775402 0.0065717911720275888 0.0011897040440493989 -0.0038689255041794643 0.0020793838808313013 0.0043944982753600925 -0.00089424323049132478 -0.001343604676795247
leaf_weight=20 22 15.999999999999998 28 14.999999999999998 29 20 19 15.999999999999998 25 17 14.999999999999998 18 18 25 15.999999999999998 27 17
leaf_count=20 22 16 28 15 29 20 19 16 25 17 15 18 18 25 16 27 17
internal_value=0 -0.0013038 0.00393596 -0.00408743 -0.00328345 -0.00219584 0.00159836 0.00311498 -0.00141742 -0.00218274 -0.000822294 0.0055021 0.000332696 0.00188682 0.00792783 0.000535385 -0.00264234
internal_weight=0 343 119 224 209 180 97 78 164 144 119 50 102 67 32 52 35
internal_count=363 343 119 224 209 180 97 78 164 144 119 50 102 67 32 52 35
is_linear=0
shrinkage=0.05


Tree=40
num_leaves=20
num_cat=0
split_feature=12 12 7 11 12 6 5 2 5 6 11 6 4 10 7 11 7 2 4
split_gain=3.82033 1.80602 1.03501 0.749181 0.579334 0.356343 0.353564 0.247276 0.205744 0.198543 0.16205 0.333976 0.298151 0.127116 0.117006 0.147087 0.0795795 0.0513925 0.0510067
threshold=4.0150000000000015 9.9250000000000025 3.2986000000000004 92.680000000000021 19.830000000000002 59.650000000000013 6.3740000000000014 4.2200000000000006 5.6065000000000014 96.750000000000014 333.24500000000006 76.800000000000026 0.44850000000000007 19.400000000000002 2.3497000000000008 392.36500000000007 2.0055500000000004 5.7500000000000009 0.6695000000000001
decision_type=2 2 2 2 2 2 2 2 2 2 2 2 2 2 2 2 2 2 2
left_child=-1 2 -2 -3 8 6 17 -8 -5 -6 -10 12 -12 -14 16 -16 -13 -4 -11
right_child=1 3 5 4 9 -7 7 -9 10 18 11 14 13 -15 15 -17 -18 -19 -20
leaf_value=0.021242183032445613 0.013530532312473621 -0.012873429731358297 -0.0032887506050368154 -0.0066793366102501752 -0.003655376876916059 -0.0050556971034144658 0.0092181919336629409 0.0020407449910029149 0.0042171046036916472 -0.0077612577937543397 -0.0041865464175740883 -0.0039202223780254513 0.0067147749032647839 0.00068826469340516885 -0.0093545747734606263 -0.0028719097043254545 0.0012301642851283154 0.00072661155889577726 -0.011694549622616787
leaf_weight=20 22 21 14.999999999999998 15.999999999999998 22 17 24 24 14.999999999999998 15.999999999999998 14.999999999999998 15.000000000000002 21 14.999999999999998 14.999999999999998 21 14.999999999999998 17 17
leaf_count=20 22 21 15 16 22 17 24 24 15 16 15 15 21 15 15 21 15 17 17
internal_value=0 -0.00123861 0.00373916 -0.00388305 -0.00295302 0.00151844 0.00291545 0.00562947 -0.00132471 -0.00733465 -0.000675659 -0.00130294 0.001736 0.00420373 -0.00365121 -0.00557302 -0.00134503 -0.00115559 -0.0097875
internal_weight=0 343 119 224 203 97 80 48 148 55 132 117 51 36 66 36 30 32 33
internal_count=363 343 119 224 203 97 80 48 148 55 132 117 51 36 66 36 30 32 33
is_linear=0
shrinkage=0.05


Tree=41
num_leaves=18
num_cat=0
split_feature=12 12 5 0 9 12 12 11 10 11 6 6 4 6 5 5 5
split_gain=3.44785 1.62994 0.700644 0.699471 0.624933 0.512583 0.475318 0.362817 0.253713 0.483902 0.356443 0.210324 0.162634 0.220974 0.138602 0.121399 0.10441
threshold=4.0150000000000015 9.9250000000000025 6.9270000000000005 21.383650000000006 267.00000000000006 23.645000000000007 9.2700000000000014 118.605 20.950000000000003 333.24500000000006 95.350000000000009 59.650000000000013 0.44850000000000007 73.200000000000003 6.3810000000000011 6.0340000000000007 5.9090000000000016
decision_type=2 2 2 2 2 2 2 2 2 2 2 2 2 2 2 2 2
left_child=-1 2 6 5 -4 7 11 -3 9 -9 12 14 -11 16 -2 -15 -14
right_child=1 3 4 -5 -6 -7 -8 8 -10 10 -12 -13 13 15 -16 -17 -18
leaf_value=0.020180073957890274 -0.0012092892506063498 -0.0091333483083872128 0.01737684062371651 -0.014118277408803503 0.0029438583595522991 -0.0091094048436859559 0.0094406499341130254 0.0080867433282158646 -0.0057760977351930566 -0.004219544833329948 -0.0067547763660550115 -0.0050220870891482467 0.0015326388040557504 -0.0038232902879826725 0.0037688581462673567 0.0014512432995252313 0.0070510673138778658
leaf_weight=20 29 15.999999999999998 15.000000000000002 14.999999999999998 14.999999999999998 29 14.999999999999998 14.999999999999998 26 19 25 18 20 24 27 20 14.999999999999998
leaf_count=20 29 16 15 15 15 29 15 15 26 19 25 18 20 24 27 20 15
internal_value=0 -0.00117668 0.00355221 -0.0036889 0.0101603 -0.00294038 0.00132474 -0.00194648 -0.00124533 -0.000391702 -0.00142566 -0.000320375 -6.61905e-05 0.000932718 0.00119089 -0.00142578 0.00389768
internal_weight=0 343 119 224 30 209 89 180 164 138 123 74 98 79 56 44 35
internal_count=363 343 119 224 30 209 89 180 164 138 123 74 98 79 56 44 35
is_linear=0
shrinkage=0.05


Tree=42
num_leaves=19
num_cat=0
split_feature=12 12 7 0 11 7 4 12 7 7 5 0 7 7 10 12 0 5
split_gain=3.11168 1.47526 1.20272 0.641357 0.495206 0.715632 0.350421 0.341047 0.300731 0.244294 0.223397 0.277538 0.19805 0.164196 0.14981 0.0922321 0.0924238 0.0600384
threshold=4.0150000000000015 9.5850000000000026 3.2986000000000004 21.383650000000006 376.74000000000007 1.7269000000000003 0.49600000000000005 15.620000000000003 1.9478000000000002 2.0055500000000004 6.3740000000000014 0.10910000000000002 6.0721500000000006 3.9396000000000004 18.100000000000005 15.890000000000002 0.25371500000000008 5.884500000000001
decision_type=2 2 2 2 2 2 2 2 2 2 2 2 2 2 2 2 2 2
left_child=-1 2 -2 4 5 -3 10 -7 -6 -9 -4 12 -12 14 -10 16 -16 -15
right_child=1 3 6 -5 8 7 -8 9 13 -11 11 -13 -14 17 15 -17 -18 -19
leaf_value=0.019171070321463049 0.014683833946473896 0.0040081237753232324 -0.0011634300844485148 -0.013412363301419343 -0.0058218039758503445 -0.0032136330735343306 -0.0058305819643040503 -0.015649009996559472 0.0061228307647009693 -0.0077965799145973654 0.01098834463628009 -0.0012530099228024484 0.0035249893949367106 -0.0048345664236694582 -0.0040136248897761108 0.0032188402453903111 0.0011251309387651938 -0.00080214844007665907
leaf_weight=20 20 14.999999999999998 27 14.999999999999998 25 23 14.999999999999998 15.999999999999998 14.999999999999998 26 15.999999999999998 14.999999999999998 20 14.999999999999998 14.999999999999998 20 21 24
leaf_count=20 20 15 27 15 25 23 15 16 15 26 16 15 20 15 15 20 21 24
internal_value=0 -0.00111785 0.00356038 -0.00341628 -0.00271888 -0.00583609 0.00116825 -0.00810783 -0.000871648 -0.010788 0.00251417 0.00446114 0.00684204 0.000253387 0.00168511 0.000496432 -0.00101602 -0.00235308
internal_weight=0 343 113 230 215 80 93 65 135 42 78 51 36 110 71 56 36 39
internal_count=363 343 113 230 215 80 93 65 135 42 78 51 36 110 71 56 36 39
is_linear=0
shrinkage=0.05


Tree=43
num_leaves=19
num_cat=0
split_feature=12 7 4 6 10 5 4 12 7 2 5 6 4 2 5 2 6 6
split_gain=2.81271 1.12302 1.11378 0.929961 0.743995 0.559533 0.406027 0.281278 0.19741 0.258662 0.182006 0.109676 0.131758 0.110184 0.0879325 0.0832261 0.0627882 0.115363
threshold=4.830000000000001 5.4009000000000009 0.6695000000000001 99.65000000000002 19.650000000000002 6.9715000000000007 0.69650000000000001 17.275000000000002 6.0721500000000006 6.660000000000001 6.2645000000000008 73.200000000000003 0.48850000000000005 13.360000000000001 5.5825000000000005 5.2550000000000017 81.65000000000002 58.45000000000001
decision_type=2 2 2 2 2 2 2 2 2 2 2 2 2 2 2 2 2 2
left_child=1 -1 3 4 5 8 -4 16 9 -2 14 12 -11 -13 -8 -10 17 -6
right_child=2 -3 6 -5 7 -7 10 -9 15 11 -12 13 -14 -15 -16 -17 -18 -19
leaf_value=0.021229957761242986 0.0053575213837983278 0.0031316935884145402 -0.012093734960459795 0.011839823954505847 -0.0010975217795930802 0.0091464175935834641 -0.0048538896583897231 -0.0091647321358323108 -0.0051851858924094 -0.0014482326551316013 -0.0085187891032546762 -0.005539511685880523 0.0043660874152556062 0.00033989750561030474 9.5990736429628576e-05 -0.0005641405459027737 -0.00050987178845042806 -0.0072010126337409032
leaf_weight=20 29 14.999999999999998 24 15.999999999999998 16.000000000000004 20 17 24 19 19 17 14.999999999999998 20 17 19 20 21 14.999999999999998
leaf_count=20 29 15 24 16 16 20 17 24 19 19 17 15 20 17 19 20 21 15
internal_value=0 0.0134736 -0.00143773 0.000176043 -0.000618087 0.00132696 -0.0066982 -0.00468732 0.000201854 0.00137859 -0.00425494 -0.000246607 0.00153347 -0.00241608 -0.00224145 -0.00281542 -0.00262082 -0.00405082
internal_weight=0 35 328 251 235 159 77 76 139 100 53 71 39 32 36 39 52 31
internal_count=363 35 328 251 235 159 77 76 139 100 53 71 39 32 36 39 52 31
is_linear=0
shrinkage=0.05


Tree=44
num_leaves=18
num_cat=0
split_feature=12 12 7 0 12 6 11 10 11 6 2 4 6 7 6 8 11
split_gain=2.59671 1.21233 1.03825 0.552852 0.421617 0.369742 0.274864 0.253808 0.369327 0.317473 0.153024 0.231708 0.148812 0.140623 0.122614 0.0822122 0.0705651
threshold=4.0150000000000015 9.5850000000000026 3.2986000000000004 21.383650000000006 23.645000000000007 59.650000000000013 118.605 20.950000000000003 333.24500000000006 95.350000000000009 4.2200000000000006 0.41200000000000003 36.350000000000009 5.5588500000000005 73.200000000000003 7.5000000000000009 396.13500000000005
decision_type=2 2 2 2 2 2 2 2 2 2 2 2 2 2 2 2 2
left_child=-1 2 -2 4 6 10 -3 8 -8 13 11 -4 -12 14 16 -16 -10
right_child=1 3 5 -5 -6 -7 7 -9 9 -11 12 -13 -14 -15 15 -17 -18
leaf_value=0.017512984036875425 0.013554698559455576 -0.0078481934266164902 0.00078682108471790939 -0.012385513645907245 -0.0080647209177500227 -0.0061920148273929962 0.0070051433882326822 -0.0054394452975194095 0.0045034703082190109 -0.0061052568405866627 0.0030841294353767474 0.0095752178722371666 -0.0025278723421728331 -0.0042891662816206613 -0.0024480659213591497 0.0020165643189102413 0.00028317509277258067
leaf_weight=20 20 15.999999999999998 15.000000000000002 14.999999999999998 29 14.999999999999998 15.999999999999998 27 26 25 27 14.999999999999998 21 14.999999999999998 29 15.999999999999998 15.999999999999998
leaf_count=20 20 16 15 15 29 15 16 27 26 25 27 15 21 15 29 16 16
internal_value=0 -0.00102117 0.00321974 -0.00310474 -0.00245724 0.000997167 -0.00158296 -0.000993291 -0.000153808 -0.00105572 0.0023797 0.00518102 0.000628879 0.000181908 0.000952783 -0.000860642 0.00289574
internal_weight=0 343 113 230 215 93 186 170 143 127 78 30 48 102 87 45 42
internal_count=363 343 113 230 215 93 186 170 143 127 78 30 48 102 87 45 42
is_linear=0
shrinkage=0.05


Tree=45
num_leaves=19
num_cat=0
split_feature=12 12 7 11 12 6 5 10 2 11 6 5 9 0 6 5 2 0
split_gain=2.34353 1.09413 0.937023 0.510712 0.374252 0.333692 0.239388 0.227971 0.19525 0.191661 0.539719 0.154254 0.103647 0.100894 0.104749 0.0627995 0.0416713 0.0412401
threshold=4.0150000000000015 9.5850000000000026 3.2986000000000004 92.680000000000021 26.545000000000005 59.650000000000013 6.3740000000000014 18.650000000000002 4.2200000000000006 333.24500000000006 98.250000000000014 5.7580000000000009 298.00000000000006 0.12786500000000003 84.450000000000017 5.9670000000000014 5.7500000000000009 3.6875850000000008
decision_type=2 2 2 2 2 2 2 2 2 2 2 2 2 2 2 2 2 2
left_child=-1 2 -2 -3 7 6 16 12 -8 -9 11 -11 -5 -13 -15 -14 -4 -16
right_child=1 3 5 4 -6 -7 8 9 -10 10 -12 13 15 14 17 -17 -18 -19
leaf_value=0.016637334954575637 0.012876964076422154 -0.010382391554525212 -0.0030432787009825307 0.003440264844819187 -0.0087068719789385792 -0.0058824139755840107 0.0076651415904052562 0.0017072688444473205 0.0012183274668843851 -0.0056066232068198068 -0.010935049992986024 -0.0041923149168724199 -0.0030248397670220584 0.0028766609763767083 0.00024553888943046326 0.001405153337691445 0.0006250109217944555 -0.0034621160291135309
leaf_weight=20 20 21 15.000000000000002 26 20 14.999999999999998 24 21 23 21 20 15.999999999999998 15.999999999999998 23 15.000000000000002 15.999999999999998 15.999999999999998 14.999999999999998
leaf_count=20 20 21 15 26 20 15 24 21 23 21 20 16 16 23 15 16 16 15
internal_value=0 -0.000970107 0.00305875 -0.0029495 -0.00220266 0.000947309 0.00226072 -0.00151438 0.00451032 -0.00266985 -0.00350548 -0.00185446 0.00109538 -0.0007125 0.00033801 -0.000809843 -0.00114997 -0.00160829
internal_weight=0 343 113 230 209 93 78 189 47 131 110 90 58 69 53 32 31 30
internal_count=363 343 113 230 209 93 78 189 47 131 110 90 58 69 53 32 31 30
is_linear=0
shrinkage=0.05


Tree=46
num_leaves=18
num_cat=0
split_feature=12 2 5 7 12 5 7 4 6 11 2 7 6 12 6 11 11
split_gain=2.11503 0.989861 0.752958 0.637585 0.44968 0.399398 0.286258 0.224229 0.196971 0.13483 0.114627 0.163478 0.0949191 0.0932232 0.0485649 0.0389403 0.0551841
threshold=4.0150000000000015 6.660000000000001 6.9270000000000005 1.4663500000000003 23.645000000000007 6.4535000000000009 6.0721500000000006 0.48850000000000005 44.350000000000009 393.56000000000006 8.3500000000000032 2.0589000000000008 36.350000000000009 17.115000000000006 97.250000000000014 396.37500000000006 385.52500000000003
decision_type=2 2 2 2 2 2 2 2 2 2 2 2 2 2 2 2 2
left_child=-1 2 6 -3 5 8 7 -2 -5 -4 -10 14 -8 15 -12 16 -13
right_child=1 3 9 4 -6 -7 12 -9 10 -11 11 13 -14 -15 -16 -17 -18
leaf_value=0.015805468455655499 0.008222434151684865 0.0060247532827289486 0.013109582865921158 0.0024760940990139111 -0.0095646120909670448 -0.0081731500869084688 -0.00020007435590601886 8.7412167340517049e-05 -0.0060391351041433061 0.0064055993594229216 -0.005703726551011922 -0.0030867857827494541 -0.0048493952061490798 0.0026641299068513847 -0.002131071765907109 -0.0035538760945200924 0.00069567175642414785
leaf_weight=20 15.999999999999998 19 15 24 27 28 26 18 19 15 26 14.999999999999998 19 18 14.999999999999998 15.999999999999998 27
leaf_count=20 16 19 15 24 27 28 26 18 19 15 26 15 19 18 15 16 27
internal_value=0 -0.000921602 0.00301394 -0.00275482 -0.00353069 -0.00266412 0.000453062 0.00391566 -0.00170004 0.00975759 -0.00243701 -0.00185205 -0.00216312 -0.000479294 -0.00439666 -0.00145484 -0.000655206
internal_weight=0 343 109 234 215 188 79 34 160 30 136 117 45 76 41 58 42
internal_count=363 343 109 234 215 188 79 34 160 30 136 117 45 76 41 58 42
is_linear=0
shrinkage=0.05


Tree=47
num_leaves=19
num_cat=0
split_feature=7 5 10 12 9 5 4 12 0 0 0 11 0 6 8 12 6 7
split_gain=1.91224 2.06915 0.707081 0.3913 0.334019 0.217587 0.203841 0.16348 0.156027 0.231359 0.160744 0.151965 0.173035 0.136415 0.117605 0.0915852 0.0741556 0.0264557
threshold=1.4178000000000004 7.4140000000000006 19.050000000000004 21.650000000000002 291.00000000000006 6.7165000000000008 0.46800000000000003 8.1300000000000008 5.6681750000000006 3.5518450000000006 8.6807550000000013 377.7000000000001 0.10593000000000001 65.15000000000002 5.5000000000000009 9.1300000000000008 97.250000000000014 3.9396000000000004
decision_type=2 2 2 2 2 2 2 2 2 2 2 2 2 2 2 2 2 2
left_child=-1 2 4 8 6 14 7 -2 9 11 -10 -4 -13 -14 15 -6 -5 -17
right_child=1 -3 3 16 5 -7 -8 -9 10 -11 -12 12 13 -15 -16 17 -18 -19
leaf_value=0.017479637991636994 0.0038279699163327819 0.015754685675104459 -0.0067528228676804391 -0.0065828672687833507 -0.0060865259330187532 0.00424147142097354 0.0070126781621947885 -0.0024776203283930526 -0.0088453620672225963 0.0031643945816904311 -0.0024741917393508962 -0.0061205415055155758 0.0034723577801795569 -0.0021686452794177778 0.0012720858486478821 -0.00071933691913727681 -0.011342976829037071 -0.0034971494351824124
leaf_weight=14.999999999999998 26 18 19 18 21 14.999999999999998 25 17 18 20 22 15.999999999999998 17 29 17 20 14.999999999999998 14.999999999999998
leaf_count=15 26 18 19 18 21 15 25 17 18 20 22 16 17 29 17 20 15 15
internal_value=0 -0.000753433 -0.00165388 -0.00384535 0.000790456 -0.00124334 0.00342242 0.00133506 -0.00269825 -0.00165154 -0.00534122 -0.00284065 -0.00164176 -8.39268e-05 -0.00237035 -0.00347609 -0.00874655 -0.00190983
internal_weight=0 348 330 174 156 88 68 43 141 101 40 81 62 46 73 56 33 35
internal_count=363 348 330 174 156 88 68 43 141 101 40 81 62 46 73 56 33 35
is_linear=0
shrinkage=0.05


Tree=48
num_leaves=19
num_cat=0
split_feature=12 12 7 0 11 7 6 6 11 7 5 7 7 9 6 12 5 5
split_gain=1.7899 0.853044 0.59039 0.460201 0.322212 0.551215 0.401623 0.266086 0.208957 0.197068 0.174414 0.173295 0.15819 0.151486 0.121362 0.0829479 0.046937 0.0406398
threshold=4.0150000000000015 9.9250000000000025 3.2986000000000004 21.383650000000006 376.74000000000007 1.7269000000000003 96.750000000000014 41.300000000000004 385.78500000000003 1.9478000000000002 6.299500000000001 2.0055500000000004 3.9396000000000004 294.50000000000006 69.300000000000011 14.615000000000002 5.9505000000000008 5.884500000000001
decision_type=2 2 2 2 2 2 2 2 2 2 2 2 2 2 2 2 2 2
left_child=-1 2 -2 4 5 -3 11 8 -4 -6 -10 -7 14 -9 -11 -16 -13 -14
right_child=1 3 7 -5 9 6 -8 13 10 12 -12 16 17 -15 15 -17 -18 -19
leaf_value=0.014539954429492356 0.0099682777717878882 0.0040505281214912731 -0.0013557048137847554 -0.011124796612809101 -0.0045172947458922861 -0.0088836947269737721 -0.013757294259072904 0.00013349930647694105 0.0011837034703542789 0.0055124091861002596 0.008175746781158854 -0.0044024154820363039 -0.0042155864353602126 -0.0060933225353558863 -0.0016808775994418699 0.0023905574307969677 -0.00068046284917121138 -0.00084046124142001975
leaf_weight=20 22 14.999999999999998 17 14.999999999999998 25 14.999999999999998 14.999999999999998 28 14.999999999999998 17 22 15.999999999999998 14.999999999999998 14.999999999999998 22 29 18 22
leaf_count=20 22 15 17 15 25 15 15 28 15 17 22 16 15 15 22 29 18 22
internal_value=0 -0.000847811 0.00257324 -0.00266524 -0.0020581 -0.0045765 -0.00659847 0.000896012 0.00323287 -0.000527681 0.00534113 -0.00440699 0.000422227 -0.00203865 0.00185379 0.000634252 -0.00243197 -0.00220876
internal_weight=0 343 119 224 209 79 64 97 54 130 37 49 105 43 68 51 34 37
internal_count=363 343 119 224 209 79 64 97 54 130 37 49 105 43 68 51 34 37
is_linear=0
shrinkage=0.05


Tree=49
num_leaves=19
num_cat=0
split_feature=7 5 10 12 9 5 10 7 0 0 7 10 11 0 6 6 10 0
split_gain=1.73224 1.74054 0.579732 0.313818 0.291349 0.182777 0.188349 0.334765 0.128083 0.211596 0.154428 0.12742 0.123727 0.163383 0.117602 0.0642973 0.0591815 0.0535188
threshold=1.4178000000000004 7.4140000000000006 19.050000000000004 21.650000000000002 400.00000000000006 7.0700000000000012 17.850000000000005 6.0721500000000006 5.6681750000000006 3.5518450000000006 1.9952500000000002 18.450000000000003 377.7000000000001 0.10593000000000001 65.15000000000002 97.250000000000014 18.650000000000002 1.4065050000000003
decision_type=2 2 2 2 2 2 2 2 2 2 2 2 2 2 2 2 2 2
left_child=-1 2 4 8 5 6 7 -2 9 12 -10 -8 -4 -14 -15 -5 -13 -6
right_child=1 -3 3 15 17 -7 11 -9 10 -11 -12 16 13 14 -16 -17 -18 -19
leaf_value=0.016636584152777991 0.0067301231392273876 0.014423502857486406 -0.0062188828192455206 -0.005901756014726642 -0.0056801750615704796 0.0065654826980522454 -0.0040692565528760577 -0.0010065356121264847 -0.00146001436902831 0.0030539971496909859 -0.0077047744765877729 0.0031612805882468816 -0.0059591408935375512 0.003208673786481514 -0.0020289298837426408 -0.010334182108441989 -0.0012802465539425612 -0.0015229981268445653
leaf_weight=14.999999999999998 29 18 19 18 16.000000000000004 17 22 27 18 20 22 15.000000000000002 15.999999999999998 17 29 14.999999999999998 14.999999999999998 14.999999999999998
leaf_count=15 29 18 19 18 16 17 22 27 18 20 22 15 16 17 29 15 15 15
internal_value=0 -0.000717094 -0.00154294 -0.00352728 0.000670349 0.00174642 0.000987861 0.00299995 -0.00250001 -0.00155165 -0.00489463 -0.001179 -0.00268885 -0.00160706 -9.32937e-05 -0.0079165 0.000940517 -0.00366864
internal_weight=0 348 330 174 156 125 108 56 141 101 40 52 81 62 46 33 30 31
internal_count=363 348 330 174 156 125 108 56 141 101 40 52 81 62 46 33 30 31
is_linear=0
shrinkage=0.05


Tree=50
num_leaves=19
num_cat=0
split_feature=7 5 10 12 9 5 4 2 5 6 4 0 2 9 12 4 6 4
split_gain=1.56334 1.57084 0.523208 0.283221 0.265457 0.173314 0.161814 0.129464 0.126125 0.170868 0.153853 0.113781 0.145464 0.0893582 0.0954029 0.0794046 0.0580283 0.0451686
threshold=1.4178000000000004 7.4140000000000006 19.050000000000004 21.650000000000002 291.00000000000006 6.7165000000000008 0.46800000000000003 6.660000000000001 6.4375000000000009 46.250000000000007 0.69650000000000001 6.4185850000000011 16.570000000000004 346.50000000000006 10.990000000000002 0.53500000000000014 97.250000000000014 0.50850000000000006
decision_type=2 2 2 2 2 2 2 2 2 2 2 2 2 2 2 2 2 2
left_child=-1 2 4 8 6 13 7 -2 9 -4 11 12 15 17 -15 -11 -5 -6
right_child=1 -3 3 16 5 -7 -8 -9 -10 10 -12 -13 -14 14 -16 -17 -18 -19
leaf_value=0.015804754669467607 0.0032353808775682142 0.013702327758073807 0.003143480972357793 -0.0056066682620439685 0.0011962344590574503 0.0037188438170899945 0.0061819849070161581 -0.0024405557065620091 -0.0054477980912283619 -0.0018315239994348411 0.001747153601091769 -0.0068687364717738494 0.00059321605600416672 -0.0067986891968757849 -0.0017244455044750464 -0.0064793971553444869 -0.0098174729011952875 -0.002433389850581686
leaf_weight=14.999999999999998 27 18 15.999999999999998 18 20 14.999999999999998 25 15.999999999999998 27 17 18 18 25 15.999999999999998 22 20 14.999999999999998 14.999999999999998
leaf_count=15 27 18 16 18 20 15 25 16 27 17 18 18 25 16 22 20 15 15
internal_value=0 -0.000681239 -0.0014658 -0.00335091 0.000636831 -0.00117625 0.00298318 0.0011234 -0.00237501 -0.00164725 -0.00242941 -0.00336913 -0.00235312 -0.0021821 -0.00386097 -0.00434389 -0.00752067 -0.000359319
internal_weight=0 348 330 174 156 88 68 43 141 114 98 80 62 73 38 37 33 35
internal_count=363 348 330 174 156 88 68 43 141 114 98 80 62 73 38 37 33 35
is_linear=0
shrinkage=0.05


Tree=51
num_leaves=20
num_cat=0
split_feature=12 4 6 10 6 7 4 4 4 5 5 5 11 11 2 0 0 11 6
split_gain=1.42659 0.763852 0.688257 0.530611 0.380984 0.320856 0.368431 0.315251 0.180503 0.154922 0.172256 0.150105 0.134946 0.113581 0.104511 0.104188 0.0620568 0.045503 0.0289093
threshold=4.0150000000000015 0.6695000000000001 99.65000000000002 17.850000000000005 73.200000000000003 6.0721500000000006 0.48850000000000005 0.69650000000000001 0.61150000000000004 5.8280000000000003 6.0220000000000011 6.2645000000000008 390.01500000000004 392.89500000000004 5.160000000000001 4.2855900000000009 0.17388500000000004 394.5800000000001 41.300000000000004
decision_type=2 2 2 2 2 2 2 2 2 2 2 2 2 2 2 2 2 2 2
left_child=-1 2 3 5 13 6 -2 -3 9 -6 -11 15 -8 18 -15 -9 -16 -7 -5
right_child=1 7 -4 4 8 17 12 11 -10 10 -12 -13 -14 14 16 -17 -18 -19 -20
leaf_value=0.012980700373300354 0.011844547290820628 -0.0098967129131779085 0.010566042317077518 -2.3600074782734737e-05 -0.010233926984171074 -0.002602932169376051 0.0061483167519327253 -0.0041683636954985559 0.00028725772475202881 -0.00025690264301374554 -0.0069545473748197154 -0.0068617369376999492 -1.2333502927504017e-05 0.0050011756473823509 -0.0017428695058793221 0.0012448600458446891 0.0022474257432622837 0.001175354386990269 -0.0028001368800178172
leaf_weight=20 15.999999999999998 24 15.999999999999998 14.999999999999998 14.999999999999998 17 15.999999999999998 15.999999999999998 14.999999999999998 15.999999999999998 24 17 20 17 19 20 20 14.999999999999998 25
