tree
version=v3
num_class=1
num_tree_per_iteration=1
label_index=0
max_feature_idx=19
objective=regression
feature_names=Column_0 Column_1 Column_2 Column_3 Column_4 Column_5 Column_6 Column_7 Column_8 Column_9 Column_10 Column_11 Column_12 Column_13 Column_14 Column_15 Column_16 Column_17 Column_18 Column_19
feature_infos=[0.0063200000000000001:73.534099999999995] [0:100] [0.46000000000000002:27.739999999999998] [0:1] [0.38500000000000001:0.871] [3.5609999999999999:8.7799999999999994] [2.8999999999999999:100] [1.137:12.1265] [1:24] [187:711] [12.6:22] [0.32000000000000001:396.89999999999998] [1.9199999999999999:37.969999999999999] [6.3211665436347104:49.007429531078536] [6.5498482382040564:49.598159780142993] [6.3007502202444456:50.215349092633389] [7.2472414970397949:48.837837219238281] [3.6958059819484745:52.385781350062473] [10.812596338285728:41.404978105265407] [9.4682129186602868:41.074780701754385]
tree_sizes=5075 4270 4621 4427 4725 4895 4664 4913 4551 4849 4718 4728 4785 5058 4679 4975 4627 4790 4780 4708 4657 4775 5016 4575 4905 4665 4594 4874 4587 4752 4997 4861 4997 4726 4941 4916 4780 4799 4733 4953 4832 4865 4799 4564 4924 4980 4885 4804 4435 5081 4832 5425 4963 4707 5017 4957 4787 4746 5131 4705 4791 4704 4736 4707 5276 4927 5042 4906 4754 4890 4913 4639 5023 4847 4829 4861 5036 4785 4998 4730 4690 5200 4723 4469 4934 4765 4722 4917 4921 5165 4827 4935 4648 5067 4658 4702 4822 4979 4898 4742 4557 5321 4739 4637 5119 4753 4927 4806 4669 4748 5248 5149 4972 4433 4813 4871 5116 4837 4855 4827 5022 4322 4847 4740 5042 4927 5186 4781 4521 4911 5072 4831 4875 4639 4521 4892 4564 4753 4798 4799 4976 4869 4840 5005 5056 4765 4886 4717 4710 4946 4966 4958 4857 4872 4650 4622 4644 5083 4628 4991 4664 4932 4835 4622 4761 4960 4857 5069 4891 4827 5037 4946 4788 5122 5024 5139 4258 4825 4668 5073 4904 4818 4935 4810 4617 4690 4859 5147 4523 4724 4674 4986 4637 4867 4809 4956 5158 5287 5222 4590 5090 4950 4698 4951 4947 4917 4820 4830 5158 4883 5009 4986 5209 4906 4917 5007 4969 4794 4899 4894 5162 4938 4918 4993 4749 4750 5098 5051 5158 4804 4877 5141 5019 5436 4864 4883 4639 5138 5217 4778 5031 4542 4638 5073 5078 4888 4922 4945 4854 4868 4880 5062 4937 4995 4994 4983 5160 5100 4848 4800 5038 5323 4917 5009 4941 4901 4682 5025 4817 4705 4646 4982 4830 4968 4896 4632 5265 5055 5237 5089 4532 4984 4727 5005 4905 4748 4982 4670 4861 4920 4985 4983 5074 4873 4973 4869 5198 4837 5193 4592 4927 5289 4929 5227 4979 4982 5196 4975 4864 5012 5134 5306 4925 4874 5333 4779 4854 5013 4644 4883 5044 5021 4870 5396 4889 4797 4840 5023 4923 4701 4823 5157 5135 4743 4523 4870 4856 4866 4881 4464 5069 5251 4724 4784 4882 4633 5024 4761 4698 4955 4723 5087 4600 4911 4967 5047 5208 4548 4587 4966 4638 5105 4876 5012 4822 4884 4911 4710 5009 5051 5106 5275 4824 4941 4788 4724 4631 5162 4953 4939 5298 4862 4874 4888 5091 5296 4998 5418 4877 4848 4987 4959 5102 5099 4587 5291 5044 4884 5136 5137 5101 4801 4825 4901 4788 4998 4968 4808 5154 4804 4965 5054 4800 4671 4743 4864 5284 4689 4454 5167 5043 5131 4910 5017 4956 4990 4738 5090 4838 5016 5111 4970 5033 5074 4481 4674 4797 4340 4920 5172 4958 4970 5167 5084 5206 4914 4960 5073 5126 5077 5312 5351 4721 5187 4793 4837 5146 5016 5115 4697 5024 4758 4849 4862 5022 5134 4867 4863 4945 5126 4999 4949 4862 4979 4711 4988 4520 4927 5016 4969 4989 4825 5179 4865 4956 5081 5051 4901 4995 5047 4865 5007 4828 5155 4693 4899 4744 4609 5065 5125 4767 4874 4932 4974 5065 4840 4716 4893 5077 4740 5032 5078 4960 4442 4590 4954 4955 4984 5190 5089 5111 4915 5136 4804 4876 4805 5019 5276 5039 4920 4984 4979 5018 4967 4891 4811 4996 5025 5132 4747 4689 4662 4963 4840 4729 4983 4901 4860 5081 5000 4920 4900 4795 4912 4826 4752 4846 4988 4684 5420 4967 4700 4985 4803 4509 5123 4753 4931 4578 4924 4455 4991 5354 4961 4776 4897 4980 4834 4719 4643 4891 4639 5045 4824 4968 4476 4896 4641 4860 4756 5071 5041 4890 5107 5276 4788

Tree=0
num_leaves=52
num_cat=0
split_feature=15 15 15 15 19 14 18 19 15 0 14 7 7 10 15 5 9 10 14 8 0 19 8 18 10 4 18 0 11 7 8 19 18 11 4 4 5 0 14 0 0 18 5 19 19 7 10 14 19 11 4
split_gain=175.613 42.949 40.2327 6.93395 5.78396 4.51312 1.59233 1.20214 1.17583 0.799088 0.705264 0.626535 0.5783 0.569054 0.511082 0.480958 0.444295 0.414801 0.366943 0.344949 0.340975 0.309026 0.295803 0.355108 0.27629 0.270277 0.236501 0.236458 0.201088 0.199107 0.192032 0.19659 0.168693 0.167359 0.333786 0.166689 0.144186 0.121923 0.118017 0.210638 0.0988715 0.077337 0.153356 0.0769038 0.0988094 0.0766447 0.0558249 0.0541537 0.0631035 0.039934 0.0367045
threshold=24.476758772815831 38.441292076325567 17.395072021990988 12.57592059873752 31.352299790321247 22.272618397446738 24.417945326507155 29.226613034465803 20.659534160095752 6.1085650000000014 8.6031130645476157 6.0721500000000006 2.8589000000000007 18.350000000000005 22.26063851119175 6.8560000000000008 267.00000000000006 17.700000000000006 15.380494267403007 4.5000000000000009 6.6863200000000012 22.695621637865262 16.000000000000004 17.020558289736559 17.150000000000002 0.47800000000000004 21.236901696942287 11.695100000000002 392.86000000000007 2.8263500000000006 3.5000000000000004 20.806209572344354 21.136706940811735 396.66000000000003 0.69650000000000001 0.45550000000000007 6.0200000000000005 0.63386000000000009 21.338273428164939 0.17388500000000004 0.054700000000000006 15.781432987044441 5.7965000000000009 20.075918506227485 18.800537593400794 3.6687000000000007 19.150000000000002 13.96732838322472 14.490995550361612 392.91000000000003 0.43600000000000005
decision_type=2 2 2 2 2 2 2 2 2 2 2 2 2 2 2 2 2 2 2 2 2 2 2 2 2 2 2 2 2 2 2 2 2 2 2 2 2 2 2 2 2 2 2 2 2 2 2 2 2 2 2
left_child=2 4 3 10 6 8 -2 11 17 22 -1 19 -3 28 38 -9 40 32 27 35 26 46 23 41 -18 50 30 47 -10 -27 -19 36 -4 34 -12 -8 43 -38 45 -40 -6 -5 -43 44 -32 -15 -7 -11 -49 -47 -23
right_child=1 12 5 9 16 21 7 15 13 18 33 -13 -14 14 -16 -17 24 20 -20 -21 -22 25 -24 -25 -26 29 -28 -29 -30 -31 31 -33 -34 -35 -36 -37 37 -39 39 -41 -42 42 -44 -45 -46 49 -48 48 -50 -51 -52
leaf_value=-0.021006949217115115 0.015643242560274592 0.039640119795744749 0.00026496268867806785 -0.011378004879652371 0.017107840709800828 0.0017577261170325905 0.0079259373875537869 0.014403967386365553 -0.0047309831034781742 -0.012275466644262156 -0.019810470326543702 0.0033319704342682399 0.034141289299809356 -0.0028830965154980426 0.0031219837079092361 0.0090837380530264696 0.016899739574565177 -0.0066623708376085215 -0.0083190085529455428 0.0099509974781408651 -0.00099601814056026199 0.0028029100842518347 -0.0064351189364197335 -0.0067830825456313892 0.012798542619200624 0.0032223242386216736 -0.0018409786658824393 -0.014311939427166369 -0.0014184984288304161 0.0067993233289578596 -0.0050236629586335579 -0.0026150648216509507 -0.0029675925196058486 -0.014989972105126495 -0.015106857289360228 0.0046305915697445162 -0.0047590489258752897 -0.0074740481021224655 -0.0016719864993562463 0.0019548835623870581 0.019648173715176756 -0.0082316233345883678 -0.01104940428582437 -0.0055024738906998549 -0.0027382924029832768 -0.0016842856854711137 -9.4727113455858941e-05 -0.0095864492291801596 -0.011755181062892599 -0.00015105778868130284 0.0013915766169005784
leaf_weight=7.0000000000000027 4.9999999999999991 4.9999999999999991 4.9999999999999982 6.0000000000000062 5.0000000000000018 4.9999999999999982 5.0000000000000053 4.9999999999999982 6.9999999999999982 7.0000000000000098 5 6.9999999999999991 8.9999999999999982 5.0000000000000062 5.9999999999999991 6 5.9999999999999982 6.9999999999999991 4.9999999999999991 6.9999999999999991 4.9999999999999991 8.0000000000000018 7.9999999999999991 6.9999999999999991 5 4.9999999999999982 4.9999999999999991 5.9999999999999991 5 5 5.0000000000000062 7.9999999999999991 5 9 5 5 5.9999999999999982 5 4.9999999999999982 5 7 6.9999999999999982 6 4.9999999999999991 7.9999999999999991 5.9999999999999982 5 4.9999999999999982 5 5 4.9999999999999991
leaf_count=7 5 5 5 6 5 5 5 5 7 7 5 7 9 5 6 6 6 7 5 7 5 8 8 7 5 5 5 6 5 5 5 8 5 9 5 5 6 5 5 5 7 7 6 5 8 6 5 5 5 5 5
internal_value=2.76582e-09 0.016306 -0.00551547 -0.0121477 0.011903 -0.00137559 0.00902616 0.0080782 -0.00261218 -0.00987212 -0.0175703 0.00650133 0.0361126 -0.00103641 -0.000163037 0.0115104 0.0169022 -0.00369415 -0.0114453 0.00780114 -0.00412799 0.00266879 -0.00857384 -0.00922845 0.015044 0.00346756 -0.0044458 -0.012121 -0.0033581 0.00501971 -0.00473981 -0.00437367 -0.00134272 -0.0162992 -0.0174681 0.0062872 -0.00485576 -0.00600126 -0.000924489 0.000132798 0.0185976 -0.0101246 -0.00953913 -0.00415079 -0.00362408 -0.00159069 0.00082288 -0.0113423 -0.01068 -0.000995268 0.00226682
internal_weight=0 77 229 88 63 141 40 35 108 62 26 24 14 44 32 11 23 64 28 17 54 33 34 26 11 23 49 23 12 10 44 37 10 19 10 10 29 11 26 10 12 19 13 18 13 16 10 17 10 11 13
internal_count=306 77 229 88 63 141 40 35 108 62 26 24 14 44 32 11 23 64 28 17 54 33 34 26 11 23 49 23 12 10 44 37 10 19 10 10 29 11 26 10 12 19 13 18 13 16 10 17 10 11 13
is_linear=0
shrinkage=1


Tree=1
num_leaves=43
num_cat=0
split_feature=14 15 15 16 15 16 14 14 14 9 17 14 18 17 16 4 18 5 2 14 0 18 16 11 5 5 5 18 9 14 4 15 11 8 5 9 18 9 4 18 18 4
split_gain=160.64 42.9222 29.8868 8.65587 6.58223 1.73732 1.30208 1.03783 0.729639 0.708464 0.661388 0.642761 0.491686 0.422307 0.429953 0.406598 0.347005 0.320887 0.258205 0.251481 0.248131 0.220759 0.207087 0.253591 0.190768 0.243084 0.185594 0.178243 0.172314 0.144898 0.144628 0.108707 0.0971662 0.0903787 0.0899708 0.07678 0.0675614 0.060757 0.0606259 0.0376945 0.03591 0.0177936
threshold=27.745288176160333 17.395072021990988 38.441292076325567 21.399129867553714 12.471442109859058 24.112131118774418 31.770329772789051 13.350932373048851 20.642256042748304 274.50000000000006 34.71960136438905 21.707655019631122 17.020558289736559 20.521495094196755 20.379306793212894 0.57400000000000007 23.770339998919024 5.9135000000000009 14.480000000000002 20.050390972739095 2.3498050000000004 11.038065785689758 20.114000320434574 371.25000000000006 6.0935000000000006 6.2115000000000009 6.8725000000000014 12.477565568541701 282.50000000000006 23.466828783379977 0.61900000000000011 13.990127535573439 396.29000000000002 6.5000000000000009 6.4660000000000011 400.00000000000006 22.685942182815644 291.00000000000006 0.58450000000000013 14.976444413981765 18.329154828743047 0.44850000000000007
decision_type=2 2 2 2 2 2 2 2 2 2 2 2 2 2 2 2 2 2 2 2 2 2 2 2 2 2 2 2 2 2 2 2 2 2 2 2 2 2 2 2 2 2
left_child=1 4 6 8 21 11 26 31 13 10 -8 18 17 14 22 -4 -7 20 -5 -15 -9 -1 23 -3 -19 -26 -2 -23 34 36 35 -6 38 -30 -18 37 -13 -10 40 -22 -25 -38
right_child=2 3 15 5 7 16 9 12 30 -11 -12 29 -14 19 -16 -17 28 24 -20 -21 39 27 -24 32 25 -27 -28 -29 33 -31 -32 -33 -34 -35 -36 -37 41 -39 -40 -41 -42 -43
leaf_value=-0.019206370360653702 0.010425425370410772 -0.0015070256188731638 0.034465647731488122 0.0005120370546126329 -0.013478374415728101 0.0083844846295020401 0.015350733496028016 -0.0083796298720657421 -0.001745559627937137 0.013660776163414918 0.021097085015008173 0.0009329266756863936 -0.0050732847012387589 -0.0037327858774596741 -0.0071555682807519132 0.039144659273910407 0.00482140595270923 -0.0061443998615738002 -0.0033238564082400525 -0.0003341183338679268 -0.010618791092723939 -0.01488861100441748 -0.001368803689994591 -0.0037140690246200148 -0.010913073564469196 -0.0071052383762343187 0.013311584201797684 -0.018094161301693616 0.0028910570382095838 0.0037619919471148493 0.00076700837679648227 -0.011211946553594199 -0.0033928871915923664 0.0050822924188814299 0.0071738688124539573 -0.0026598877076968019 0.0028150924041568594 4.2050377600536145e-05 -0.0063075971490212657 -0.01240118951545454 -0.0051023006803257165 0.0017684518455712173
leaf_weight=9.0000000000000018 7.9999999999999982 4.9999999999999991 8.9999999999999982 5.9999999999999982 6.9999999999999991 5.0000000000000027 6.0000000000000018 7.0000000000000027 7.0000000000000053 7.9999999999999991 7 9.0000000000000053 5.9999999999999991 5.9999999999999991 6.9999999999999991 4.9999999999999991 6.0000000000000018 7.0000000000000027 5 7.9999999999999991 4.9999999999999982 5.9999999999999982 4.9999999999999991 5.0000000000000062 4.9999999999999982 6 7 6 7.9999999999999982 7.9999999999999991 4.9999999999999991 7.9999999999999991 7.9999999999999991 5 5 6.9999999999999991 6.9999999999999982 5 4.9999999999999991 5 9.9999999999999982 5
leaf_count=9 8 5 9 6 7 5 6 7 7 8 7 9 6 6 7 5 6 7 5 8 5 6 5 5 5 6 7 6 8 8 5 8 8 5 5 7 7 5 5 5 10 5
internal_value=0 -0.00408763 0.0206429 -0.000235301 -0.0116911 0.00303565 0.0146119 -0.00944956 -0.00295557 0.0166314 0.0184522 0.00134388 -0.00841335 -0.00370369 -0.00429495 0.0361441 0.00536609 -0.00898339 -0.00122375 -0.00179695 -0.0102318 -0.0176639 -0.00376564 -0.00412615 -0.00779934 -0.00884432 0.0117784 -0.0164992 0.00473351 0.00232079 -0.00111281 -0.0122758 -0.00459073 0.00374065 0.00589883 -0.00161206 0.00176757 -0.000993535 -0.00506545 -0.0115192 -0.00464545 0.00238629
internal_weight=0 229 50 152 77 69 36 56 83 21 13 40 41 59 45 14 29 35 11 14 17 21 38 33 18 11 15 12 24 29 24 15 28 13 11 19 21 12 20 10 15 12
internal_count=279 229 50 152 77 69 36 56 83 21 13 40 41 59 45 14 29 35 11 14 17 21 38 33 18 11 15 12 24 29 24 15 28 13 11 19 21 12 20 10 15 12
is_linear=0
shrinkage=0.0125


Tree=2
num_leaves=47
num_cat=0
split_feature=13 13 15 13 15 19 13 5 10 16 5 4 10 15 16 7 5 19 5 6 6 0 4 0 10 10 7 18 7 9 16 9 16 6 9 9 4 7 6 16 6 15 18 7 5 13
split_gain=154.823 48.9153 27.9311 10.5423 5.49933 2.68982 1.38465 1.22314 1.11665 1.01191 0.67286 0.492602 0.447686 0.443442 0.302773 0.275407 0.431157 0.265597 0.261213 0.252345 0.250377 0.218309 0.215252 0.590917 0.200292 0.180523 0.179631 0.17478 0.162559 0.153498 0.14629 0.14252 0.130101 0.125342 0.216189 0.106917 0.105283 0.109745 0.285658 0.175677 0.0910138 0.0795389 0.0774858 0.03848 0.0340268 0.0188541
threshold=27.927522322585784 16.457561529508936 38.441292076325567 22.085516179796979 12.57592059873752 31.352299790321247 20.569959804913267 7.783500000000001 17.850000000000005 23.868299484252933 7.1410000000000009 0.69650000000000001 18.350000000000005 13.990127535573439 21.798913002014164 6.0721500000000006 6.7080000000000011 29.957242944330535 5.5955000000000013 70.250000000000014 99.65000000000002 13.217450000000001 0.61900000000000011 1.6426200000000002 15.400000000000002 17.700000000000006 2.4579000000000004 20.609228483326032 1.8217500000000002 279.50000000000006 18.960802078247074 400.00000000000006 22.127719879150394 75.750000000000014 306.00000000000006 306.00000000000006 0.72900000000000009 2.8589000000000007 94.050000000000011 15.731156349182131 67.300000000000011 21.221506753282572 14.976444413981765 4.6947500000000009 6.0820000000000016 23.228478132585469
decision_type=2 2 2 2 2 2 2 2 2 2 2 2 2 2 2 2 2 2 2 2 2 2 2 2 2 2 2 2 2 2 2 2 2 2 2 2 2 2 2 2 2 2 2 2 2 2
left_child=1 4 5 6 11 8 22 -4 17 32 -7 20 31 28 40 16 29 -2 42 -9 21 -1 23 25 -12 -3 -27 33 -6 -11 -24 -8 -5 -28 -35 -31 37 38 -20 -40 41 -14 -15 -34 -36 -45
right_child=2 3 7 9 13 10 12 19 -10 15 24 -13 14 18 -16 -17 -18 -19 36 -21 -22 -23 30 -25 -26 26 27 -29 -30 35 -32 -33 43 34 44 -37 -38 -39 39 -41 -42 -43 -44 45 -46 -47
leaf_value=-0.019353479221800876 0.010606572045580883 -0.0023952933659076199 0.028916435235308714 0.0035739875923571315 -0.010852006594385909 0.01369589132478214 -0.0016808970474095767 0.038757166209934517 0.0058844465372788583 0.0064274554744458761 0.020902454977739921 -0.014614529997536409 0.00063383254552615395 -0.0099673551665701472 0.0021947610827882146 0.0032772624709416554 0.0089161242335935829 0.014424707460934275 -0.011973532834520382 0.034450590763451021 -0.020744734124644712 -0.015780588848487431 -0.0067890047564714562 0.00016221238864280437 0.017451998069906039 -0.0025748430576049428 -0.0038074790663075904 -0.0030863589050525294 -0.013926246292279759 0.0029385875120712572 -0.0039723053949024126 -0.0042570261694937998 0.00068668040720892994 -0.0081591951039808389 -0.0056528078022595523 0.0053490059407095324 -0.007379416428181804 -0.007666409217778395 -0.0072487697968117064 -0.010399999900217824 -0.0018542290520066715 -0.0012676382618175442 -0.012341721055696621 0.0024861853405030118 -0.004146488286740877 0.0013903690940735777
leaf_weight=5.0000000000000053 6.0000000000000018 8.9999999999999982 4.9999999999999991 6.0000000000000027 6.9999999999999982 6.0000000000000027 7.9999999999999982 4.9999999999999982 5.9999999999999991 8.0000000000000053 4.9999999999999982 8.9999999999999982 8.0000000000000053 4.9999999999999982 6.9999999999999991 7.9999999999999991 5.9999999999999991 6 6.0000000000000098 5 4.9999999999999991 7 5.9999999999999982 5.9999999999999991 7 6.9999999999999991 6.0000000000000062 6.9999999999999991 5 5.9999999999999982 6 6 7.0000000000000027 4.9999999999999991 5.9999999999999982 6 6.9999999999999991 5.9999999999999991 6.9999999999999982 5 7.9999999999999991 5.9999999999999991 5 4.9999999999999982 5 6
leaf_count=5 6 9 5 6 7 6 8 5 6 8 5 9 8 5 7 8 6 6 6 5 5 7 6 6 7 7 6 7 5 6 6 6 7 5 6 6 7 6 7 5 8 6 5 5 5 6
internal_value=0 -0.00423559 0.0197203 -0.000342604 -0.0123161 0.0137447 -0.0026874 0.034055 0.0103154 0.00394121 0.0171689 -0.0170296 -0.000955441 -0.010002 -6.61795e-05 0.00532988 0.00595806 0.0125233 -0.00937385 0.0366142 -0.0183027 -0.0172772 -0.00386815 -0.00350878 0.0188976 -0.00400016 -0.00439894 -0.0048362 -0.0121406 0.00506613 -0.00538807 -0.00279124 0.00197026 -0.00538896 -0.00597649 0.00415117 -0.00879353 -0.00920222 -0.00970915 -0.00856934 -0.000789535 -0.000174915 -0.0111637 0.0014308 -0.00497618 0.00189642
internal_weight=0 243 51 164 79 36 106 15 18 58 18 26 43 53 29 34 26 12 41 10 17 12 63 51 12 45 36 29 12 20 12 14 24 22 16 12 31 24 18 12 22 14 10 18 11 11
internal_count=294 243 51 164 79 36 106 15 18 58 18 26 43 53 29 34 26 12 41 10 17 12 63 51 12 45 36 29 12 20 12 14 24 22 16 12 31 24 18 12 22 14 10 18 11 11
is_linear=0
shrinkage=0.0125


Tree=3
num_leaves=44
num_cat=0
split_feature=16 13 19 13 13 7 13 13 13 16 17 16 9 7 10 17 18 4 19 17 7 19 13 13 10 16 17 2 7 9 4 12 9 18 14 17 17 16 14 14 19 17 17
split_gain=162.373 48.1626 24.6476 10.0055 4.37955 2.87283 1.99035 1.97075 1.76555 1.09215 0.916352 0.865713 0.575357 0.378697 0.344855 0.328002 0.311302 0.293169 0.384734 0.33244 0.288169 0.283497 0.259508 0.247198 0.229958 0.212324 0.203609 0.16358 0.150125 0.146859 0.133273 0.127112 0.122977 0.118478 0.0709948 0.0621219 0.101069 0.0562709 0.0536391 0.0498604 0.0481081 0.0405844 0.0142587
threshold=27.573440551757816 16.457561529508936 37.269609743024695 22.085516179796979 11.378174434423114 2.0037000000000007 20.569959804913267 42.672325209916742 30.244926810127236 24.112131118774418 15.99587988670657 13.349835872650148 243.50000000000003 6.0721500000000006 19.650000000000002 15.223253155737341 11.038065785689758 0.61900000000000011 17.536756973502488 20.192972248074621 2.5255500000000004 26.12258111536714 19.687451277257328 47.345645815226511 18.350000000000005 21.798913002014164 15.99587988670657 7.6250000000000009 1.9904000000000002 274.50000000000006 0.69650000000000001 6.9250000000000007 302.00000000000006 23.770339998919024 23.124396895561851 21.232660883906636 20.888614636609976 15.505276203155519 20.752018300125091 14.118143999224644 20.22043198540398 26.004478601544829 18.82129056522443
decision_type=2 2 2 2 2 2 2 2 2 2 2 2 2 2 2 2 2 2 2 2 2 2 2 2 2 2 2 2 2 2 2 2 2 2 2 2 2 2 2 2 2 2 2
left_child=1 4 5 6 16 -2 10 -4 -7 14 -3 -6 -10 21 33 28 -1 18 -12 20 -20 31 27 -9 32 35 -17 -22 37 -14 -18 -11 -8 34 -5 36 -26 -13 -37 -30 -21 -33 -29
right_child=2 3 7 9 11 8 24 23 12 13 17 15 29 -15 -16 26 30 -19 19 40 22 -23 -24 -25 25 -27 -28 42 39 -31 -32 41 -34 -35 -36 38 -38 -39 -40 -41 -42 -43 -44
leaf_value=-0.019602651706761065 0.023257741875452938 -0.0091955694454648029 0.026519371854315677 0.0026241460073973899 -0.014315039001735081 0.0069004889310880467 -0.00096933603141778851 0.033842720421125287 0.017043658822718553 0.0039264513728345073 2.7973572979208701e-05 -0.0092490268366747178 0.011605343520356026 0.0028086790989370531 -0.0010521818295889673 -0.0069336971242123183 -0.017716072944880278 -0.0057116150176891754 -0.0064770480954715985 -0.0026019686386073342 -0.0061731149949847781 0.008278221989268076 -0.0018490501579094131 0.03792511153060138 -0.00046914571770062768 0.0016231300341217531 -0.0098430969888963424 -0.0040002926282892365 -0.010829644074283797 0.01413909248802735 -0.014901451737784083 0.0053023282492301819 -0.0034311999531029536 0.0037951904865179257 0.00064663145951625344 -0.00093838996620047562 -0.002701031004787018 -0.011060683399682221 0.00067105210998079075 -0.012528603067470388 -0.00090984928199522709 0.0070257884409239248 -0.0030556119307657715
leaf_weight=8.0000000000000018 4.9999999999999991 4.9999999999999991 4.9999999999999991 7.0000000000000053 8.9999999999999982 6.0000000000000027 6.9999999999999982 4.9999999999999982 9.0000000000000018 7.0000000000000098 4.9999999999999991 9.0000000000000018 6.9999999999999991 6.9999999999999991 4.9999999999999991 6.9999999999999991 5.9999999999999982 8.9999999999999982 6.9999999999999991 4.9999999999999982 6.0000000000000062 6.9999999999999991 8.9999999999999982 6 9.0000000000000018 7.9999999999999991 8.9999999999999982 8.9999999999999982 5.9999999999999991 8.9999999999999982 6 4.9999999999999982 6 7.9999999999999991 5 5.9999999999999982 4.9999999999999991 4.9999999999999991 7 7.9999999999999991 6 5 4.9999999999999991
leaf_count=8 5 5 5 7 9 6 7 5 9 7 5 9 7 7 5 7 6 9 7 5 6 7 9 6 9 8 9 9 6 9 6 5 6 8 5 6 5 5 7 8 6 5 5
internal_value=0 -0.00415245 0.0201848 -0.000505223 -0.0126448 0.014443 -0.0026311 0.0330977 0.0130181 0.00382088 -0.00403991 -0.0107596 0.0144827 0.00539001 0.00187165 -0.0100302 -0.0176358 -0.00361583 -0.00325138 -0.00360209 -0.00418484 0.00613922 -0.00362847 0.0360788 -0.000692158 -0.000162176 -0.00857588 -0.00442482 -0.0108581 0.0130363 -0.0163166 0.00525317 -0.00211232 0.00260694 0.00180745 -0.00069438 -0.00127249 -0.00990257 -6.5115e-05 -0.011807 -0.00168694 0.00617299 -0.0036692
internal_weight=0 243 52 170 73 36 114 16 31 56 66 53 25 31 25 44 20 61 52 47 36 24 29 11 48 35 16 20 28 16 12 17 13 20 12 27 14 14 13 14 11 10 14
internal_count=295 243 52 170 73 36 114 16 31 56 66 53 25 31 25 44 20 61 52 47 36 24 29 11 48 35 16 20 28 16 12 17 13 20 12 27 14 14 13 14 11 10 14
is_linear=0
shrinkage=0.0125


Tree=4
num_leaves=48
num_cat=0
split_feature=16 18 13 13 16 6 14 13 13 13 16 19 10 4 10 18 19 16 10 17 10 17 17 9 9 19 4 16 14 10 18 5 4 9 17 14 17 18 11 11 16 10 14 18 14 2 5
split_gain=173.268 40.6638 23.3457 8.05384 5.52759 3.11757 3.08755 2.2231 1.3705 0.829318 0.743158 0.55056 0.469503 0.455329 0.388705 0.380668 0.338793 0.335784 0.324616 0.291476 0.275691 0.253955 0.221307 0.209394 0.205572 0.204926 0.170647 0.163844 0.150275 0.125991 0.122572 0.179316 0.107923 0.114333 0.0890251 0.0820229 0.0864496 0.0705271 0.0679791 0.0541054 0.0538069 0.0497858 0.0445079 0.0393089 0.026423 0.0223252 0.00602623
threshold=27.573440551757816 17.020558289736559 39.659086311236585 22.085516179796979 13.349835872650148 89.15000000000002 43.049774023628032 32.193415381267997 20.569959804913267 13.655945444692023 24.112131118774418 28.528525535444768 19.400000000000002 0.6070000000000001 17.150000000000002 11.038065785689758 26.12258111536714 20.379306793212894 18.350000000000005 13.996697138998334 17.700000000000006 19.98449946071214 15.223253155737341 249.50000000000003 400.00000000000006 38.220107500115965 0.48850000000000005 14.213222980499269 20.642256042748304 17.700000000000006 13.303840409091885 6.0985000000000005 0.47800000000000004 306.00000000000006 23.852931205054201 20.183422398132411 17.559973283893811 18.597612942868711 385.70000000000005 379.54000000000002 21.073884010314945 19.050000000000004 21.091991841624637 20.255726737748333 25.390997720644972 10.300000000000002 5.9605000000000006
decision_type=2 2 2 2 2 2 2 2 2 2 2 2 2 2 2 2 2 2 2 2 2 2 2 2 2 2 2 2 2 2 2 2 2 2 2 2 2 2 2 2 2 2 2 2 2 2 2
left_child=1 4 5 8 15 7 -4 11 17 27 12 -2 32 -11 44 -1 26 21 24 -15 -13 29 -21 -9 -10 -8 -16 -6 -20 -3 31 -17 34 -34 -5 36 37 -31 -30 -24 42 -38 -40 -23 -12 -42 -43
right_child=2 3 6 10 9 -7 25 23 18 13 14 20 -14 19 16 30 -18 -19 28 22 -22 43 39 -25 -26 -27 -28 -29 38 35 -32 -33 33 -35 -36 -37 41 -39 40 -41 45 46 -44 -45 -46 -47 -48
leaf_value=-0.019051984196682158 0.006587041858472531 -0.0021444811641523256 0.024722611237283969 0.0012128090679797924 -0.013712585457745521 0.023271721933126821 0.037891338263142747 0.017896180748090511 -0.0012745976024763632 -0.0059176923870801965 0.0034865596866590341 0.013482213897706189 -0.00097809860810719562 -0.007325194733821744 0.003552519263775933 -0.01647051602135902 0.0085741050288241794 -0.006142986529302414 0.0018656742609107707 -0.011906088902563276 0.0094134869870226012 -0.001138913097205064 -0.0081093858363425059 0.015079816019129617 -0.0044562866860894512 0.034244713334905752 0.0065413334570247885 -0.010669730474358707 -0.0018126188559791645 -0.0058890830322082637 -0.017295386448823325 -0.012968382306071459 0.005046401508860994 0.0023255245201033374 0.0033184736247516855 -0.0056590382291198645 -0.0040741743084808405 -0.0038737982853001215 0 -0.010028571673215681 0.0010586976116901956 -0.003069869158821281 -0.0016617809113128623 -0.0026257691641517799 0.0021859778242485327 -0.00010862448296439581 -0.0023183458519926213
leaf_weight=8.0000000000000018 4.9999999999999991 5.9999999999999991 6.0000000000000027 9.0000000000000053 5.9999999999999982 5.9999999999999991 4.9999999999999982 9.0000000000000018 8.9999999999999982 8.9999999999999982 5.0000000000000018 5.9999999999999982 6.9999999999999991 9.0000000000000018 8.0000000000000018 4.9999999999999982 4.9999999999999991 7.9999999999999991 5.0000000000000027 7.0000000000000027 5 6.9999999999999982 5.9999999999999982 8.9999999999999982 4.9999999999999991 7 4.9999999999999991 6 5.0000000000000027 5.0000000000000018 4.9999999999999991 5 4.9999999999999982 5 4.9999999999999991 4.9999999999999991 8.0000000000000018 7 5.0000000000000018 5 4.9999999999999982 4.9999999999999982 5 5 6 5 5
leaf_count=8 5 6 6 9 6 6 5 9 9 9 5 6 7 9 8 5 5 8 5 7 5 7 6 9 5 7 5 6 5 5 5 5 5 5 5 5 8 7 5 5 5 5 5 5 6 5 5
internal_value=0 -0.00384543 0.0202686 -0.000441228 -0.0117553 0.0149444 0.0320949 0.013472 -0.0025293 -0.00933682 0.00321145 0.0100674 0.00186122 -0.00838027 0.00465176 -0.0167987 0.00578757 -0.00374259 -0.000845259 -0.00919781 0.0116411 -0.00337858 -0.0101291 0.0164932 -0.00241721 0.0357727 0.00470891 -0.0121988 -0.000108774 -0.0038485 -0.0155906 -0.0147288 0.00269296 0.00369479 0.0019711 -0.00413811 -0.00388166 -0.0047209 -0.000507152 -0.00898999 -0.000176424 -0.00331724 -0.000827898 -0.00176573 0.00278514 0.000466401 -0.00270289
internal_weight=0 236 58 165 71 40 18 34 105 48 60 16 31 36 29 23 18 61 44 27 11 53 18 18 14 12 13 12 30 41 15 10 24 10 14 35 30 12 25 11 20 18 10 12 11 10 10
internal_count=294 236 58 165 71 40 18 34 105 48 60 16 31 36 29 23 18 61 44 27 11 53 18 18 14 12 13 12 30 41 15 10 24 10 14 35 30 12 25 11 20 18 10 12 11 10 10
is_linear=0
shrinkage=0.0125


Tree=5
num_leaves=50
num_cat=0
split_feature=16 15 15 13 15 13 6 7 13 13 13 18 16 15 10 15 11 17 11 10 5 18 5 11 11 9 9 13 18 15 15 16 7 9 15 6 16 2 15 10 2 17 13 7 10 15 13 13 7
split_gain=159.938 43.4231 29.1061 7.99871 6.34298 1.55002 1.12815 1.12323 1.06936 0.811888 0.71218 0.588841 0.579601 0.51471 0.389001 0.344918 0.341123 0.323064 0.313294 0.311088 0.294918 0.268938 0.26408 0.335415 0.25654 0.187149 0.183713 0.176821 0.172837 0.171702 0.164826 0.154249 0.143915 0.142902 0.139806 0.137387 0.126868 0.156552 0.113221 0.108701 0.102359 0.0924873 0.0829211 0.0511837 0.0428766 0.0394001 0.0327308 0.0470625 0.00603346
threshold=27.573440551757816 17.395072021990988 38.441292076325567 22.085516179796979 13.990127535573439 20.569959804913267 88.300000000000026 3.3389000000000002 11.378174434423114 32.45014407096388 47.345645815226511 17.020558289736559 24.112131118774418 12.57592059873752 18.350000000000005 23.849259274128215 342.44000000000005 17.141251204562415 386.02500000000003 17.500000000000004 6.8725000000000014 11.038065785689758 5.9135000000000009 330.66500000000008 379.54000000000002 279.50000000000006 400.00000000000006 20.111977334581869 12.136604907348909 21.818997069139716 14.415790163165275 14.79185199737549 5.4009000000000009 274.50000000000006 24.696750781629298 83.350000000000009 18.960802078247074 10.300000000000002 21.221506753282572 16.850000000000005 5.2550000000000017 19.98449946071214 21.296238430185241 1.7142500000000003 17.700000000000006 20.749051465141928 19.733919411536672 19.048452524991838 5.2509500000000005
decision_type=2 2 2 2 2 2 2 2 2 2 2 2 2 2 2 2 2 2 2 2 2 2 2 2 2 2 2 2 2 2 2 2 2 2 2 2 2 2 2 2 2 2 2 2 2 2 2 2 2
left_child=1 4 6 5 8 16 7 -2 21 20 18 22 15 -10 26 25 -3 35 -4 40 32 -1 31 30 -25 -5 39 36 -23 38 -24 -6 -9 -11 -21 -18 -19 41 42 -7 -14 46 45 -15 -27 -16 47 -38 -46
right_child=2 3 10 12 11 14 -8 9 13 33 -12 -13 19 43 29 -17 17 27 -20 34 -22 28 23 24 -26 44 -28 -29 -30 -31 -32 -33 -34 -35 -36 -37 37 -39 -40 -41 -42 -43 -44 -45 48 -47 -48 -49 -50
leaf_value=-0.018908065888669931 0.007068111212137288 -0.0015476058753594057 0.033739853851516614 0.0045840764603527952 -0.0087540928408115504 0 0.018977307041094797 0.011945723025441122 -0.015459650716399976 0.017583224653233347 0.037007863856166653 -0.0051836083293313488 0.002132247476886152 -0.010219457439755095 0.00045502373150897528 -0.0009361429436965566 -0.0047226145252123129 -0.0048597437568177731 0.029056767104422811 0.0041695508428232957 0.013815803991796972 -0.014479765028880279 -0.0080157437340431202 -0.0048180170619702223 -0.0083920924552417335 0.0027096770628881211 -0.0041052311066324077 -0.0059635030609481547 -0.01752029332595267 0.002158557704740566 -0.011190186015642561 -0.011504490554145742 0.008825970171373116 0.014540461871969643 0.0068374295927132733 -0.0077266588037735312 -0.0036129262725905402 -0.0014021760221306996 -0.0015014232877650158 -0.0026220160298560014 0.0043954076854392588 -0.0021736131036209604 0.0015856301154024391 -0.012072148793676588 0.0010960189905744875 -0.0010398022759474704 -0.0030823393397102048 -0.0051977122643136857 0.0017870782596070185
leaf_weight=8.0000000000000018 4.9999999999999991 8.9999999999999982 4.9999999999999982 6.0000000000000062 5.9999999999999991 4.9999999999999982 4.9999999999999991 5.0000000000000053 8.0000000000000018 5.9999999999999982 5.9999999999999991 7.9999999999999991 7.0000000000000018 4.9999999999999982 5.0000000000000089 4.9999999999999991 4.9999999999999982 7.9999999999999991 5 4.9999999999999991 6.9999999999999991 6.9999999999999982 5.0000000000000018 5.9999999999999982 7 8.0000000000000018 5.9999999999999991 4.9999999999999991 6 4.9999999999999991 6 7.9999999999999991 5 5 8.9999999999999982 5 7.0000000000000089 6.9999999999999991 8.9999999999999982 5 6 5.9999999999999991 4.9999999999999991 7 4.9999999999999982 6 4.9999999999999991 6 5
leaf_count=8 5 9 5 6 6 5 5 5 8 6 6 8 7 5 5 5 5 8 5 5 7 7 5 6 7 8 6 5 6 5 6 8 5 5 9 5 7 7 9 5 6 6 5 7 5 6 5 6 5
internal_value=0 -0.0043372 0.0193682 -0.000568839 -0.0114831 -0.00254197 0.0134093 0.0125628 -0.0150607 0.0135407 0.0335146 -0.00829225 0.00327017 -0.0129732 -0.000795139 0.00203769 -0.00381605 -0.00419251 0.0314084 0.00459068 0.011809 -0.0170444 -0.00894436 -0.00813097 -0.0067494 0.00266085 -0.00236921 -0.0037266 -0.0158903 4.15054e-05 -0.00975551 -0.0103323 0.010395 0.0162087 0.00589096 -0.00623357 -0.00343753 -0.00306765 -0.000378474 -0.00131881 0.00318356 -0.00354977 0.0002478 -0.0113078 0.00201487 -0.000352475 -0.00400362 -0.00435118 0.00145027
internal_weight=0 252 54 165 87 109 38 33 41 28 16 46 56 20 46 29 63 54 10 27 17 21 38 24 13 24 16 44 13 30 11 14 10 11 14 10 39 31 25 10 13 24 16 12 18 11 18 13 10
internal_count=306 252 54 165 87 109 38 33 41 28 16 46 56 20 46 29 63 54 10 27 17 21 38 24 13 24 16 44 13 30 11 14 10 11 14 10 39 31 25 10 13 24 16 12 18 11 18 13 10
is_linear=0
shrinkage=0.0125


Tree=6
num_leaves=47
num_cat=0
split_feature=13 15 15 13 13 19 14 13 16 13 2 14 12 0 17 7 7 11 8 14 2 13 12 13 7 14 16 11 14 14 17 7 19 16 11 15 14 2 12 11 2 11 19 11 12 11
split_gain=146.361 46.146 24.9874 9.05671 7.06758 1.58269 1.46387 1.3368 0.935503 0.753898 0.66578 0.656925 0.458699 0.389261 0.365331 0.35847 0.346401 0.43026 0.289852 0.28575 0.284786 0.253829 0.23029 0.214977 0.269585 0.212951 0.194617 0.189792 0.472043 0.183527 0.18207 0.17964 0.168243 0.167333 0.16666 0.152749 0.14708 0.120274 0.0967902 0.097461 0.0905975 0.0951037 0.0749661 0.0495744 0.0211688 0.00548868
threshold=27.927522322585784 18.031908611462093 38.441292076325567 22.085516179796979 13.445895763168787 31.352299790321247 43.049774023628032 20.569959804913267 24.112131118774418 11.378174434423114 4.9400000000000004 20.234932507810019 15.135000000000002 0.089880000000000015 11.955843708227508 6.0721500000000006 1.3989500000000004 251.77000000000001 5.5000000000000009 8.6031130645476157 6.9350000000000014 32.193415381267997 8.4500000000000011 19.460555199921114 3.9396000000000004 19.78678881901288 21.073884010314945 386.72000000000008 14.970424028319572 23.032230502679621 26.560858733845773 2.1538000000000008 11.955185496926527 14.79185199737549 394.86500000000007 32.609406883696629 14.865697445189822 12.380000000000001 14.615000000000002 395.13500000000005 6.9350000000000014 392.86000000000007 21.057190492522086 396.66000000000003 11.705000000000002 391.44000000000005
decision_type=2 2 2 2 2 2 2 2 2 2 2 2 2 2 2 2 2 2 2 2 2 2 2 2 2 2 2 2 2 2 2 2 2 2 2 2 2 2 2 2 2 2 2 2 2 2
left_child=1 4 5 7 9 10 -4 11 13 19 -2 23 -6 22 -11 20 -14 33 40 -1 30 -7 -5 24 38 -25 -20 28 -19 -15 -10 -30 45 -18 -22 -23 -29 -31 -3 -40 41 -9 -42 -43 -44 -21
right_child=2 3 6 8 12 21 -8 18 15 14 -12 -13 16 29 -16 -17 17 27 26 32 34 35 -24 25 -26 -27 -28 36 31 37 -32 -33 -34 -35 -36 -37 -38 -39 39 -41 42 43 44 -45 -46 -47
leaf_value=-0.019143359540151218 0.012333226213572293 -0.0016460711492732737 0.027647336890484677 0.0021824201264926636 -0.0046890703182241042 0.013259708194825299 0.035723654431333657 -0.0037080473368481422 0.0055354816203992347 -0.010636673237732895 0.0069113536703455233 -0.0072633145022041809 -0.01186355185887965 0.0022759050512857599 -0.014699387867118037 0.0027620933316452006 -0.0088004793000801499 -0.003825132855201023 -0.00088340231449012322 -0.015347059458127799 0.0060050159106891064 0.014762869909378116 0.0058484327099205709 -0.0035258979451882016 -0.0059443896004133176 -0.00052401883088410166 0.0022938826494834715 -0.0097066164622417062 -0.0063671433000433196 0.0011030109453152718 0.0088377673878910126 -0.0092998850550062833 -0.017424374157463503 -0.011626880912649214 0.0032353331588703214 0.01749267383829152 -0.0069444226096358423 -0.0016352944446810563 -0.0047181133243292287 -0.0023845662559994728 -0.0020289837074273626 -0.00066453319519512615 0.0003129428214098874 -0.0024553126526240033 -0.00082957907221153579 -0.014162027600584388
leaf_weight=6.0000000000000027 8.9999999999999982 5.0000000000000062 5.9999999999999991 6.0000000000000018 4.9999999999999991 6.0000000000000027 8.9999999999999982 5.0000000000000027 5.0000000000000018 5.9999999999999991 5.9999999999999991 7.9999999999999991 4.9999999999999991 8.0000000000000018 8.9999999999999982 7.9999999999999991 6.9999999999999982 6.0000000000000027 5.9999999999999982 5.0000000000000018 6.9999999999999982 5.9999999999999991 5 7.9999999999999982 7.9999999999999991 7 6 8.9999999999999982 5.9999999999999991 4.9999999999999982 6 7.9999999999999991 6.9999999999999991 7 7 8.9999999999999982 4.9999999999999991 5 6.9999999999999982 5 5.9999999999999991 4.9999999999999982 4.9999999999999982 5 5 5
leaf_count=6 9 5 6 6 5 6 9 5 5 6 6 8 5 8 9 8 7 6 6 5 7 6 5 8 8 7 6 9 6 5 6 8 7 7 7 9 5 5 7 5 6 5 5 5 5 5
internal_value=0 -0.00430204 0.0189412 -3.89348e-05 -0.0110954 0.0132891 0.0324998 -0.00254979 0.00364494 -0.0152884 0.0101705 -0.0039843 -0.00834674 0.00200204 -0.0130804 0.00508603 -0.00869012 -0.00835765 -0.000946431 -0.0167243 0.00582617 0.0155122 0.00385683 -0.00332626 -0.00403998 -0.00213085 0.000698053 -0.00758805 -0.00678658 0.000863679 0.00734489 -0.00804942 -0.0158649 -0.0102202 0.00462651 0.016407 -0.00872656 -0.000257497 -0.00313857 -0.00375314 -0.0015858 -0.00228764 -0.000922363 -0.00156865 -0.000249673 -0.0147639
internal_weight=0 249 51 153 96 36 15 91 62 38 15 48 58 29 15 33 53 48 43 23 25 21 11 40 25 15 12 34 20 18 11 14 17 14 14 15 14 10 17 12 31 15 16 10 10 10
internal_count=300 249 51 153 96 36 15 91 62 38 15 48 58 29 15 33 53 48 43 23 25 21 11 40 25 15 12 34 20 18 11 14 17 14 14 15 14 10 17 12 31 15 16 10 10 10
is_linear=0
shrinkage=0.0125


Tree=7
num_leaves=50
num_cat=0
split_feature=16 18 15 19 15 13 16 12 13 7 7 4 7 4 14 14 13 9 5 9 19 12 5 9 12 15 14 7 18 12 11 16 13 11 12 15 16 16 9 11 19 15 13 13 11 11 14 12 12
split_gain=132.634 33.6052 32.8319 6.66494 5.51284 4.28444 1.88608 1.32326 1.17713 0.704611 0.584373 0.560113 0.547313 0.508616 0.479319 0.399006 0.425301 0.365069 0.343517 0.327254 0.293201 0.287978 0.265694 0.248554 0.202382 0.19478 0.193455 0.177373 0.200175 0.158146 0.157721 0.151946 0.146001 0.145879 0.138028 0.1375 0.123952 0.204471 0.119178 0.102789 0.0725817 0.070795 0.0644203 0.0999568 0.0340869 0.0317868 0.0319882 0.0261555 0.0143706
threshold=24.314283370971683 17.020558289736559 38.441292076325567 31.352299790321247 12.57592059873752 22.085516179796979 27.573440551757816 7.8100000000000014 20.569959804913267 3.7735000000000003 3.3765000000000005 0.69650000000000001 6.0721500000000006 0.43600000000000005 15.380494267403007 20.404795825896006 17.186750697523284 407.00000000000006 7.8420000000000014 254.50000000000003 14.890486110107556 22.425000000000001 6.5940000000000003 394.50000000000006 25.545000000000005 25.14506835208169 14.118143999224644 3.9396000000000004 19.739565663583551 10.200000000000001 346.52000000000004 21.073884010314945 13.796388819693776 362.63500000000005 17.685000000000006 19.752366381659602 23.868299484252933 22.127719879150394 434.50000000000006 387.50000000000006 21.128848010478254 19.394241290967923 21.754495653759012 21.107977774388562 396.66000000000003 396.66000000000003 23.124396895561851 13.245000000000003 16.695000000000004
decision_type=2 2 2 2 2 2 2 2 2 2 2 2 2 2 2 2 2 2 2 2 2 2 2 2 2 2 2 2 2 2 2 2 2 2 2 2 2 2 2 2 2 2 2 2 2 2 2 2 2
left_child=1 4 3 6 11 8 12 9 15 -8 -5 21 22 -11 20 16 -3 36 -4 -12 33 -1 25 31 -13 -2 32 28 35 -29 -28 40 -22 -6 -16 41 37 -7 -25 -31 -10 48 43 -33 -35 46 -39 -41 -18
right_child=2 5 18 10 14 17 7 -9 23 13 19 24 -14 -15 34 -17 27 -19 -20 -21 26 -23 -24 38 -26 -27 30 29 -30 39 -32 42 -34 44 -36 -37 -38 45 -40 47 -42 -43 -44 -45 -46 -47 -48 -49 -50
leaf_value=-0.016010148085153782 0.0069639156409680106 -0.0070791930464192444 0.03107651697849434 0.020005492366983197 -0.012851555647324943 0.0041212975752611203 0.0048437688359471605 0.016167457853603965 -0.00072122346483969289 0.0075555166770264097 0.017106134978822927 -0.012471428459129814 0.0027463966808367129 0.013016682648631893 -0.0059384535882396295 -0.0067620785792557175 -0.0026364220698642019 -0.0009369615398098002 0.035767058259310223 0.013408546030935654 -0.0092835324999860115 -0.019672863978190198 0.0088707820973091892 -0.0037289307669532835 -0.016169630843359248 0.0036819862106065495 -0.012137902990349614 -0.0022116842931772232 -0.0006979731315288803 -0.005954183874635686 -0.0090208260946355746 -0.00032763403931754817 -0.0064006698434173953 -0.0095588852419464312 -0.0086987084476737864 -0.004984839289140874 0.0039383327765174633 0.0016624654492053772 -0.0013948741085366865 -0.0045752803593294275 -0.0027164038568683567 -0.0013162739568254086 -0.00082567062591656904 0.0021590844320039126 -0.011128873655946385 0.0022022384921147188 0.00022548348459891314 -0.003359834800097241 -0.0036944383999627708
leaf_weight=6.0000000000000027 7.0000000000000053 4.9999999999999991 4.9999999999999982 5.0000000000000027 7.0000000000000027 6.0000000000000062 5.0000000000000062 4.9999999999999991 7.0000000000000018 4.9999999999999982 6.9999999999999991 4.9999999999999982 7.9999999999999991 6 5.9999999999999982 6.9999999999999991 5.0000000000000053 4.9999999999999991 6 8.9999999999999982 7.0000000000000018 8.9999999999999982 5.9999999999999991 6.9999999999999982 5 5 4.9999999999999982 6.0000000000000027 6.9999999999999991 6.0000000000000027 6 4.9999999999999982 5 4.9999999999999982 6 4.9999999999999991 8.9999999999999982 4.9999999999999982 7 5.9999999999999982 5 4.9999999999999991 4.9999999999999991 5 7 4.9999999999999991 5 7 5
leaf_count=6 7 5 5 5 7 6 5 5 7 5 7 5 8 6 6 7 5 5 6 9 7 9 6 7 5 5 5 6 7 6 6 5 5 5 6 5 9 5 7 6 5 5 5 5 7 5 5 7 5
internal_value=0 -0.00528784 0.0136055 0.0103625 -0.0118064 -0.00160886 0.00774294 0.0105337 -0.00287172 0.00876732 0.0162208 -0.0166641 0.0054854 0.0105426 -0.00955573 -0.00393165 -0.00358248 0.00217722 0.0336442 0.0150321 -0.0101906 -0.0182141 0.00669783 -0.00121506 -0.0143298 0.00560385 -0.00922064 -0.00324453 -0.00253322 -0.00400924 -0.010446 -0.000510211 -0.00808984 -0.01136 -0.00732607 -0.00317119 0.00269914 0.00216386 -0.00256817 -0.00457226 -0.00155983 -0.00256074 0.000323738 0.00090711 -0.0104823 0.00137502 0.000952674 -0.00392761 -0.00317423
internal_weight=0 219 79 68 79 140 47 21 105 16 21 25 26 11 54 64 57 35 11 16 42 15 18 41 10 12 23 52 27 25 11 27 12 19 12 20 30 21 14 19 12 15 15 10 12 15 10 13 10
internal_count=298 219 79 68 79 140 47 21 105 16 21 25 26 11 54 64 57 35 11 16 42 15 18 41 10 12 23 52 27 25 11 27 12 19 12 20 30 21 14 19 12 15 15 10 12 15 10 13 10
is_linear=0
shrinkage=0.0125


Tree=8
num_leaves=46
num_cat=0
split_feature=13 15 13 13 14 13 14 17 16 14 10 12 15 6 14 18 14 13 12 17 12 4 13 12 10 11 12 10 6 16 15 11 13 9 9 12 11 17 4 15 12 15 13 12 17
split_gain=135.483 41.6659 20.1281 6.94602 5.83326 1.79147 1.06752 0.922973 0.852877 0.52425 0.444235 0.441009 0.440332 0.406134 0.365063 0.329953 0.285687 0.505611 0.266964 0.295799 0.26351 0.264228 0.278886 0.252249 0.252007 0.232293 0.234515 0.211714 0.203645 0.181827 0.158704 0.143832 0.139984 0.137752 0.133617 0.0977002 0.0836566 0.0803043 0.0706657 0.0680014 0.0597689 0.128111 0.0473115 0.0320119 0.0279729
threshold=27.927522322585784 17.395072021990988 39.659086311236585 22.085516179796979 13.350932373048851 31.923879878172034 10.367331341516364 20.192972248074621 24.112131118774418 43.049774023628032 18.650000000000002 6.5650000000000004 12.57592059873752 89.750000000000014 8.6031130645476157 13.303840409091885 21.919446877036954 21.527548542697033 5.285000000000001 28.007226770365367 17.685000000000006 0.56150000000000011 19.88491200901942 7.6150000000000011 17.700000000000006 251.77000000000001 17.685000000000006 17.150000000000002 94.050000000000011 15.826167583465578 16.005579906124016 394.86500000000007 19.460555199921114 329.50000000000006 291.00000000000006 21.180000000000003 372.86000000000007 21.37185495629193 0.44850000000000007 31.028477642707809 13.445000000000002 20.659534160095752 23.560470483329262 15.135000000000002 13.624523819410056
decision_type=2 2 2 2 2 2 2 2 2 2 2 2 2 2 2 2 2 2 2 2 2 2 2 2 2 2 2 2 2 2 2 2 2 2 2 2 2 2 2 2 2 2 2 2 2
left_child=1 4 5 7 6 39 14 20 10 -4 34 24 15 -6 -1 -8 17 28 -10 27 21 32 -23 -12 -7 -15 29 -20 33 -27 35 -29 43 38 -5 -28 -16 -35 -9 -2 41 -34 -36 -3 -14
right_child=2 3 9 8 13 11 12 16 18 -11 23 -13 44 25 36 -17 -18 -19 19 -21 -22 22 -24 -25 -26 26 30 31 -30 -31 -32 -33 40 37 42 -37 -38 -39 -40 -41 -42 -43 -44 -45 -46
leaf_value=-0.019476983931997052 0.009430121746797861 -0.0046103320126479868 0.028326341868278034 0.0044558901750411774 -0.0045317712976591295 0.013474882719483119 -0.012520566700992306 -0.0026540142501411683 0.0020909004994463395 0.033554148220885455 0.0014567327899547222 0.019444434875266009 -0.01025943070672522 -0.0106631276442254 -0.016743626817434618 -0.01697708963911598 -0.0032002968077494455 0.0025860407532181996 0.0026043630946955133 0.0080256712606414597 -0.0011495759238432806 -0.0033848610511507168 -0.0068354007696971343 -0.0023424330686994984 0.016718748027747289 -0.0080282008030904059 -0.009205488977319114 0.0067132620811866661 -0.0030081963902517227 -0.0045919806882183077 -0.010456107308274683 0.0040200910781860296 -0.0038041362911891033 0.0015851537565151324 0.0028162266688221155 -0.0070005263534511754 -0.014442891722419936 -0.00048352833479776514 -0.00073784395806411997 0.011440712994799639 -0.0011049758273633168 -0.001461448099218988 0.0011846397996064903 -0.0032819124996676208 -0.011781845417705347
leaf_weight=6.0000000000000027 7.9999999999999982 6.9999999999999982 4.9999999999999991 6.0000000000000062 4.9999999999999991 8.0000000000000053 6.0000000000000018 5.0000000000000009 5.0000000000000027 8.9999999999999982 5.9999999999999982 4.9999999999999991 5.9999999999999982 5.9999999999999991 5.9999999999999982 5 6.9999999999999991 6.9999999999999991 6.0000000000000062 4.9999999999999991 7.9999999999999991 7.9999999999999982 7 5 7.9999999999999991 5.0000000000000018 6.0000000000000027 6.9999999999999982 6.9999999999999991 5 5.9999999999999991 6 8.0000000000000018 5 6.9999999999999982 7.9999999999999991 6 7 7.9999999999999991 5 4.9999999999999991 6.9999999999999991 5 6 5
leaf_count=6 8 7 5 6 5 8 6 5 5 9 6 5 6 6 6 5 7 7 6 5 8 8 7 5 8 5 6 7 7 5 6 6 8 5 7 8 6 7 8 5 5 7 5 6 5
internal_value=0 -0.00392184 0.0190751 -0.000223216 -0.0112267 0.0138761 -0.0146254 -0.00218768 0.00323002 0.0316942 0.00170952 0.0161409 -0.0127614 -0.0079086 -0.0168983 -0.0145547 -0.000873138 -0.00045319 0.00474749 0.00529729 -0.00326592 -0.00361682 -0.00500104 -0.000262316 0.0151027 -0.00837514 -0.0079145 0.00457456 -0.00112075 -0.00631903 -0.00870775 0.0054771 -0.00298495 -0.000588764 0.00291932 -0.00795196 -0.0156011 0.000371236 -0.00148156 0.0102105 -0.00231815 -0.00271673 0.00214368 -0.00400401 -0.0109598
internal_weight=0 241 48 160 81 34 40 102 58 14 29 21 22 41 18 11 46 39 29 24 56 48 15 11 16 36 30 19 32 10 20 13 33 25 18 14 12 12 13 13 20 15 12 13 11
internal_count=289 241 48 160 81 34 40 102 58 14 29 21 22 41 18 11 46 39 29 24 56 48 15 11 16 36 30 19 32 10 20 13 33 25 18 14 12 12 13 13 20 15 12 13 11
is_linear=0
shrinkage=0.0125


Tree=9
num_leaves=48
num_cat=0
split_feature=16 13 19 16 13 13 6 0 5 13 17 14 13 11 10 10 7 10 11 1 19 13 6 0 8 16 5 0 17 10 16 16 7 10 19 19 18 7 11 11 6 7 14 14 5 5 13
split_gain=127.916 33.3799 25.2182 5.54826 4.84793 3.56609 3.44694 1.66696 1.29975 1.1108 0.982224 0.865092 0.707927 0.524578 0.502131 0.393762 0.365642 0.31182 0.309797 0.294275 0.279821 0.263379 0.249184 0.242341 0.743447 0.227014 0.202083 0.187592 0.16682 0.153363 0.152856 0.238543 0.152603 0.127373 0.102559 0.0972062 0.0879244 0.0863535 0.0644689 0.0581462 0.0607187 0.0518885 0.0478335 0.0269542 0.0226807 0.0168537 0.0128681
threshold=24.314283370971683 16.457561529508936 37.269609743024695 27.573440551757816 13.445895763168787 20.569959804913267 91.350000000000009 0.48422500000000007 7.783500000000001 22.085516179796979 15.876898962066795 8.6031130645476157 32.193415381267997 338.39500000000004 19.400000000000002 17.700000000000006 1.9733000000000003 17.700000000000006 396.66000000000003 15.000000000000002 25.180549242576557 11.712733082254317 75.750000000000014 6.1085650000000014 16.000000000000004 20.379306793212894 5.8785000000000007 0.23175000000000004 15.716397784682281 18.350000000000005 23.868299484252933 22.127719879150394 1.9904000000000002 16.700000000000006 34.48919600978617 21.714565326929272 15.781432987044441 1.8543500000000004 386.72000000000008 395.35500000000008 42.150000000000013 4.6947500000000009 21.308618320340148 20.937412170018057 5.8715000000000011 6.0285000000000011 18.745201745031427
decision_type=2 2 2 2 2 2 2 2 2 2 2 2 2 2 2 2 2 2 2 2 2 2 2 2 2 2 2 2 2 2 2 2 2 2 2 2 2 2 2 2 2 2 2 2 2 2 2
left_child=1 4 3 19 11 10 7 12 -4 29 -3 -1 17 -12 30 -15 18 -5 -13 20 -2 -20 27 24 36 26 -24 44 32 33 31 -11 -25 -7 -14 39 -6 -38 -28 42 -41 -33 43 -31 -17 -35 -40
right_child=2 5 8 6 23 9 -8 -9 -10 14 13 16 34 15 -16 22 -18 -19 21 -21 -22 -23 25 28 -26 -27 38 -29 -30 35 -32 41 -34 45 -36 -37 37 -39 46 40 -42 -43 -44 -45 -46 -47 -48
leaf_value=-0.018862948546393976 0.0052493263899440062 -0.0089151550557250419 0.024843187990757732 0.012789035661419465 -0.010410814189606092 -0.00033492524530344105 0.021540604463619422 0.0051681880562098863 0.033077991022844741 0.004522002305146061 0.00072341593604280526 -0.016501824314131493 0.016377999830834291 -0.0010725140371123461 -0.00099148553603203198 -0.0046373186428901939 -0.011108266569526565 0.0089434380000979856 -0.01475775693591201 0.0037691617999007793 0.0088688628475325822 -0.01107648659581599 -0.0063390934316186753 -0.0087175053668782348 -0.0034481078700684537 -0.0068562880139727556 -0.0024961314171010052 -0.0014866843678776247 -0.007901889971710159 -0.0010870635922585175 0.0042149064501709873 0.00043454618857672662 -0.011608130122913061 -0.0033492197014098656 0.013840348978721549 0.0011443581414988338 -0.006986977017176571 -0.0091925816830802833 -0.0036138214308741889 -0.0011357521078774067 0.00066639341240502348 0.0019567635640788377 -0.00033614638243992262 -0.0024313749928608227 -0.0033347730221424902 -0.0022319806468354638 -0.0046130200908607623
leaf_weight=6.9999999999999991 8.0000000000000018 4.9999999999999991 4.9999999999999991 8.0000000000000053 5.0000000000000062 4.9999999999999991 6.9999999999999991 4.9999999999999991 7.9999999999999991 5.0000000000000062 4.9999999999999991 9.0000000000000036 6.9999999999999982 8.9999999999999982 6.9999999999999991 5.0000000000000018 5.9999999999999991 5.9999999999999991 8.9999999999999982 7.9999999999999991 5.9999999999999991 5.0000000000000009 5.0000000000000062 5.0000000000000027 4.9999999999999991 5.9999999999999991 7.0000000000000027 8.9999999999999982 5.9999999999999991 5.0000000000000053 7.9999999999999991 5.9999999999999991 7.9999999999999991 4.9999999999999982 5 4.9999999999999991 4.9999999999999991 7.9999999999999991 5.9999999999999982 4.9999999999999982 7 8.9999999999999982 5.9999999999999991 5 5 5 5
leaf_count=7 8 5 5 8 5 5 7 5 8 5 5 9 7 9 7 5 6 6 9 8 6 5 5 5 5 6 7 9 6 5 8 6 8 5 5 5 5 8 6 5 7 9 6 5 5 5 5
internal_value=0 -0.00488072 0.0141312 0.010709 -0.0115134 -0.0014311 0.0136028 0.0118074 0.0299184 0.000299587 -0.00357636 -0.0148828 0.0130807 -0.00314436 0.00199382 -0.00348516 -0.0139188 0.0111474 -0.014648 0.00570635 0.00680697 -0.0134496 -0.00393571 -0.00862323 -0.00774087 -0.00466928 -0.00409487 -0.00281141 -0.0096866 -0.000933997 0.00274325 0.00215017 -0.0105034 -0.0019837 0.0153284 -0.000454215 -0.00892837 -0.0083512 -0.00346652 -0.00074278 -7.73011e-05 0.00135368 -0.00123646 -0.00176796 -0.00399488 -0.00279938 -0.00407604
internal_weight=0 228 73 60 78 150 38 31 13 83 67 36 26 62 35 57 29 14 23 22 14 14 48 42 23 29 23 19 19 48 28 20 13 15 12 33 18 13 18 28 12 15 16 10 10 10 11
internal_count=301 228 73 60 78 150 38 31 13 83 67 36 26 62 35 57 29 14 23 22 14 14 48 42 23 29 23 19 19 48 28 20 13 15 12 33 18 13 18 28 12 15 16 10 10 10 11
is_linear=0
shrinkage=0.0125


Tree=10
num_leaves=47
num_cat=0
split_feature=15 13 15 13 15 19 17 14 17 14 13 7 18 18 17 14 6 0 7 18 18 4 14 6 15 7 7 15 0 14 13 18 18 10 13 7 0 6 14 0 7 4 14 7 17 6
split_gain=122.826 36.7189 24.4047 6.19275 5.24029 2.52261 1.01322 0.910591 0.771064 0.672953 0.619555 0.599513 1.09227 0.566361 0.341024 0.304856 0.274479 0.234164 0.230727 0.227162 0.205628 0.20006 0.20183 0.175814 0.142386 0.146111 0.34168 0.139797 0.119279 0.118134 0.174183 0.115906 0.112344 0.162715 0.103638 0.117152 0.0885366 0.0768778 0.0888795 0.0724316 0.0647804 0.0636326 0.0322427 0.0288691 0.0225431 0.00710898
threshold=26.1634174392536 16.457561529508936 38.441292076325567 21.527548542697033 12.57592059873752 31.352299790321247 19.01294255234323 43.049774023628032 27.493460432178516 23.466828783379977 12.194339804145175 3.1675000000000004 31.120212599060157 11.038065785689758 21.854487462591639 23.124396895561851 84.90000000000002 0.049565000000000005 2.1103000000000005 12.477565568541701 17.232612500542363 0.42950000000000005 25.009831836524416 62.900000000000006 13.854341132814547 1.4222500000000002 1.7142500000000003 22.60381109824527 0.021160000000000002 19.78678881901288 19.607761864759176 14.580413155753233 19.739565663583551 18.350000000000005 19.048452524991838 4.2547000000000006 0.079640000000000016 46.250000000000007 21.198231430072035 0.98230000000000006 2.8806500000000006 0.47800000000000004 20.825064145014611 5.6317000000000013 16.246559205134812 89.15000000000002
decision_type=2 2 2 2 2 2 2 2 2 2 2 2 2 2 2 2 2 2 2 2 2 2 2 2 2 2 2 2 2 2 2 2 2 2 2 2 2 2 2 2 2 2 2 2 2 2
left_child=1 4 5 6 13 8 18 -4 -2 14 -6 -10 -13 -1 36 27 -12 -8 -3 -15 -20 -11 41 28 -18 -26 -27 -16 -7 30 40 -28 -31 -34 35 45 -5 -35 42 -33 -19 -23 -39 -29 -41 -22
right_child=2 3 7 9 10 23 17 -9 11 21 16 12 -14 19 15 -17 24 29 20 -21 34 22 -24 -25 25 26 31 43 -30 32 -32 39 33 37 -36 -37 -38 38 -40 44 -42 -43 -44 -45 -46 -47
leaf_value=-0.018394541388819026 0.0051274277600321851 -0.0022103028612486942 0.025785895433022191 -0.0019142028118288527 -0.01329283557242298 0.013968059955266971 -0.0040192758073231867 0.03256916002373119 0.013756835692244774 0.0016039456190839456 -0.005810794013759368 0.0051535077187400882 0.012167568098553478 -0.013032931375558963 0.0013827543456107732 -0.00045802855632992389 -0.010515432633713698 -0.0023647392711275785 -0.0070210907527720598 -0.015942513190303063 -0.0026825822120007123 0.0024265199037427046 0.0059686618539862317 0.012711343424509379 -0.01066187645535195 -0.0055606636358401813 -0.0074778237027364712 0.0042839830023507245 0.016608095808238906 0.00039221495919212714 -0.0041540606912355621 -0.0083522646377938489 -0.0031412995861952835 0.00012806746292915586 -0.0055265965098206266 -0.0052538065203597013 0.00032821687415792041 -0.0013841300686059732 -6.8793650488135392e-05 -0.010724041505609051 -0.00041396847663732555 0.0043907251684216437 -0.0028548011333478841 0.0029097262468539653 -0.0093936543635737609 -0.0034582763267569077
leaf_weight=9.0000000000000018 7.0000000000000027 5.9999999999999991 4.9999999999999991 4.9999999999999982 4.9999999999999991 5.0000000000000027 6.9999999999999991 8.9999999999999982 5.0000000000000027 5.0000000000000027 4.9999999999999991 6.9999999999999982 7 9.0000000000000018 7.0000000000000062 5.9999999999999991 7.9999999999999991 6.0000000000000018 5.9999999999999991 8.9999999999999982 6.0000000000000053 6.0000000000000018 7.9999999999999991 4.9999999999999991 4.9999999999999991 5.9999999999999991 7.0000000000000027 5.9999999999999982 7.9999999999999991 5.9999999999999991 5.9999999999999991 7.0000000000000027 7.0000000000000027 7.0000000000000027 8.9999999999999982 5.9999999999999991 6 4.9999999999999982 4.9999999999999991 5.9999999999999982 5 5 5 5 6 5
leaf_count=9 7 6 5 5 5 5 7 9 5 5 5 7 7 9 7 6 8 6 6 9 6 6 8 5 5 6 7 6 8 6 6 7 7 7 9 6 6 5 5 6 5 5 5 5 6 5
internal_value=0 -0.00451037 0.0157756 -0.000950078 -0.0112825 0.0111985 -0.00289282 0.0301537 0.00869984 0.00224246 -0.00906467 0.0100113 0.008667 -0.0157969 0.00113346 0.00196971 -0.00864001 -0.00186501 -0.00448632 -0.0144929 -0.00491033 0.00385609 0.00444415 0.0148027 -0.00895238 -0.00861196 -0.00828881 0.00278375 0.0155999 -0.00157332 -0.00243281 -0.00891495 -0.00115335 -0.0014761 -0.00441979 -0.0038286 -0.000683232 -0.000942281 -0.00144754 -0.00943967 -0.00148595 0.00332735 -0.00212822 0.00366734 -0.0100664 -0.00304317
internal_weight=0 238 58 156 82 44 97 14 26 59 55 19 14 27 35 24 50 59 38 18 32 24 19 18 45 37 32 18 13 52 17 26 35 29 26 17 11 22 15 19 11 11 10 11 12 11
internal_count=296 238 58 156 82 44 97 14 26 59 55 19 14 27 35 24 50 59 38 18 32 24 19 18 45 37 32 18 13 52 17 26 35 29 26 17 11 22 15 19 11 11 10 11 12 11
is_linear=0
shrinkage=0.0125


Tree=11
num_leaves=47
num_cat=0
split_feature=13 13 15 13 13 19 13 14 10 16 17 7 9 10 14 7 10 6 17 17 11 19 15 14 12 9 6 14 6 6 15 6 6 7 13 11 19 10 10 13 7 13 9 13 13 13
split_gain=128.378 38.4285 23.3867 8.25021 5.18159 2.33873 1.45767 0.69985 0.687191 0.618437 0.611152 0.561434 0.419037 0.401216 0.518994 0.393538 0.386045 0.299178 0.283036 0.272245 0.251924 0.244229 0.24281 0.236745 0.225641 0.20737 0.202207 0.200749 0.200202 0.149876 0.140418 0.136149 0.197167 0.132429 0.130655 0.11189 0.103035 0.0898208 0.087887 0.0877332 0.0725343 0.0623549 0.0369396 0.02301 0.00986583 0.00837466
threshold=27.927522322585784 16.457561529508936 38.441292076325567 22.085516179796979 13.445895763168787 31.352299790321247 20.569959804913267 8.6031130645476157 17.850000000000005 24.112131118774418 46.388626010138957 3.3765000000000005 426.00000000000006 17.700000000000006 20.404795825896006 2.3852000000000007 16.700000000000006 86.300000000000011 30.172585921906215 19.01294255234323 394.86500000000007 17.005872846095226 13.854341132814547 21.919446877036954 3.5600000000000001 254.50000000000003 89.750000000000014 13.897965043199537 99.65000000000002 68.500000000000014 19.839100425922272 93.850000000000009 98.250000000000014 4.4546500000000009 21.527548542697033 396.66000000000003 19.260815521693043 18.350000000000005 20.950000000000003 25.214094862718042 4.0995000000000008 15.369080298915867 304.50000000000006 20.912705562421412 14.783757555679001 20.764670391518649
decision_type=2 2 2 2 2 2 2 2 2 2 2 2 2 2 2 2 2 2 2 2 2 2 2 2 2 2 2 2 2 2 2 2 2 2 2 2 2 2 2 2 2 2 2 2 2 2
left_child=1 4 5 6 7 8 13 -1 18 12 24 -7 29 30 19 -8 -11 -6 -2 21 39 -15 31 34 -4 -13 35 -19 41 42 -3 -9 -33 36 37 38 -21 -17 -23 -18 -22 44 -5 45 -29 -39
right_child=2 3 10 9 17 11 15 22 -10 16 -12 25 -14 14 -16 23 20 27 -20 33 40 26 -24 -25 -26 -27 -28 28 -30 -31 -32 32 -34 -35 -36 -37 -38 43 -40 -41 -42 -43 -44 -45 -46 -47
leaf_value=-0.018416406910852591 0.0088976982403131833 0.00025746627545837202 0.027293204438199638 0.0013803413520175594 -0.0052339591025970678 0.019112086045274708 0.0027070402576114226 -0.016204410879647715 0.0056654401523087237 0.0022288686474973996 0.034834171730676038 0.015908463882416297 -0.0013570991596396208 -0.0016133763624010295 -0.0071361867350024965 -0.0023518757686319162 0.0076906851758199923 -0.006200168515261833 0.013196004025925127 -0.0028580581688228933 0.0028201575990120208 -0.0056921229640521818 -0.011357040820366872 -0.003301838389994038 0.031328814737318258 0.012928938639986313 -0.0062010108851675875 -0.0097559260154145913 -0.0074065859595170485 0.0043434320885674419 -0.0026906893749400972 -0.012416894973827161 -0.015301859555834785 -0.0036681129800349766 0.00091330387546788782 -0.0024536656722560527 -0.00049004194657246958 -0.00052682939102749655 -0.0035714869582547438 0.005464612833210104 0.0047982502637052091 -0.0084218188850901914 0.0027154779073210126 -0.0011378932295358912 -0.010744556630574456 0.00015601441989993679
leaf_weight=6.9999999999999991 4.9999999999999982 4.9999999999999982 4.9999999999999982 8.0000000000000053 4.9999999999999991 5.0000000000000027 4.9999999999999991 6.0000000000000062 5.9999999999999991 8.9999999999999982 4.9999999999999991 6.9999999999999991 4.9999999999999991 4.9999999999999991 6.9999999999999991 6.0000000000000062 6.0000000000000018 4.9999999999999991 5 5.0000000000000018 4.9999999999999991 6.0000000000000053 4.9999999999999991 5.9999999999999991 5 8.9999999999999982 8.9999999999999982 8.0000000000000018 9.0000000000000018 5.9999999999999991 5 7.9999999999999991 7.9999999999999991 6.9999999999999991 6.9999999999999991 5.9999999999999991 7 6.0000000000000018 7 6 7.9999999999999991 4.9999999999999991 5.9999999999999991 6.9999999999999991 5.9999999999999991 5
leaf_count=7 5 5 5 8 5 5 5 6 6 9 5 7 5 5 7 6 6 5 5 5 5 6 5 6 5 9 9 8 9 6 5 8 8 7 7 6 7 6 7 6 8 5 6 7 6 5
internal_value=0 -0.0036522 0.0179958 -0.000409978 -0.0113062 0.0126541 -0.00241805 -0.0148544 0.00904017 0.00336645 0.0311655 0.0154032 0.00186798 -0.00353587 -0.00392895 -0.000579558 0.00446568 -0.00812906 0.011056 -0.00349548 0.00526741 -0.00418498 -0.0139274 -0.00102606 0.029321 0.0142383 -0.00464107 -0.00856502 -0.00898411 0.0026786 -0.00120801 -0.0145074 -0.0138652 -0.0022933 -0.000582753 -0.00389746 -0.001484 -0.00102272 -0.00455706 0.00658511 0.00404423 -0.00972661 0.0019588 -0.00057481 -0.0101861 -0.000208582
internal_weight=0 242 52 170 72 37 111 34 16 59 15 21 25 69 59 42 34 38 10 52 25 33 27 37 10 16 28 33 28 20 10 22 16 19 31 19 12 24 13 12 13 19 14 18 14 11
internal_count=294 242 52 170 72 37 111 34 16 59 15 21 25 69 59 42 34 38 10 52 25 33 27 37 10 16 28 33 28 20 10 22 16 19 31 19 12 24 13 12 13 19 14 18 14 11
is_linear=0
shrinkage=0.0125


Tree=12
num_leaves=48
num_cat=0
split_feature=16 18 14 19 16 17 18 2 10 16 14 19 0 10 8 10 12 2 6 19 16 18 16 0 12 14 19 19 6 19 18 12 12 0 6 2 1 10 16 19 18 6 2 17 16 8 19
split_gain=107.245 27.0014 25.2437 7.34724 5.48351 2.87212 1.77216 1.53652 0.912607 0.794479 0.703166 0.480538 0.535975 0.40912 0.342575 0.340232 0.33299 0.301539 0.288619 0.239136 0.191606 0.293604 0.254325 0.185799 0.171834 0.152985 0.151891 0.151775 0.140306 0.133982 0.13385 0.127699 0.261701 0.145232 0.116523 0.114693 0.104152 0.1341 0.0946787 0.0800986 0.136052 0.0496215 0.0424876 0.0282477 0.0235006 0.0223089 0.00593835
threshold=24.112131118774418 17.020558289736559 43.049774023628032 31.352299790321247 13.349835872650148 20.192972248074621 23.571793418205718 4.6750000000000016 16.050000000000004 21.798913002014164 8.6031130645476157 13.721773123982645 13.982050000000003 19.400000000000002 2.5000000000000004 20.950000000000003 4.7700000000000005 2.9200000000000004 79.450000000000017 28.528525535444768 15.908726692199709 16.177024052361045 14.79185199737549 0.076890000000000014 25.545000000000005 20.050390972739095 23.67536002222543 20.62582473087534 95.500000000000014 15.625213853439371 13.303840409091885 13.335000000000003 10.435 0.16670500000000002 88.65000000000002 10.300000000000002 26.500000000000004 18.550000000000004 12.012733459472658 22.071959549909312 21.360883718293909 89.15000000000002 9.9550000000000018 21.37185495629193 33.707635879516609 5.5000000000000009 14.772027923490429
decision_type=2 2 2 2 2 2 2 2 2 2 2 2 2 2 2 2 2 2 2 2 2 2 2 2 2 2 2 2 2 2 2 2 2 2 2 2 2 2 2 2 2 2 2 2 2 2 2
left_child=1 4 3 6 10 15 -2 19 -5 25 -1 -6 20 14 -11 31 -9 44 -17 -8 22 -22 29 -16 30 34 -18 -27 -24 46 38 32 -3 -33 -7 45 37 -28 -12 40 43 -20 -25 -29 -10 -35 -13
right_child=2 5 -4 8 11 9 7 16 17 13 24 12 -14 -15 23 18 26 -19 41 -21 21 -23 28 42 -26 27 36 39 -30 -31 -32 33 -34 35 -36 -37 -38 -39 -40 -41 -42 -43 -44 -45 -46 -47 -48
leaf_value=-0.018600768990833738 0.013704102789261846 -0.0021046582115915699 0.031741243569334332 0.020413127007695223 -0.011298243520771745 -0.0012521178399472683 0.0077340805903854384 0.0072977213129758883 0.016260394885138592 -0.00048502118175004359 -0.013296536273720516 -0.0082519613835777446 -0.003852021243474819 -0.0014481212410642616 0.0045668029795501684 -0.0029515241719062606 0.0057101412221633565 0.011606542031966654 -0.0076040953239331971 0.01152057958137807 -0.0051289157315747846 -0.0086812626664592839 -0.011627418853667687 0.0027103528891374777 -0.01554282204873832 0.00077150276323125031 0.0050437447731587976 -0.0024431549768357342 -0.0088144449705532656 -0.0064310085429524298 -0.014592647797633959 -0.0011236833999525547 -0.0055045734672075769 -0.0035158834135611433 -0.0039843151532314635 -0.0020901207143867117 0.0016474957978949258 0.0026378433597064798 -0.010883076650762848 -0.0025712715530475539 0.00047552987157428446 -0.0057145110786355549 0.0013789169882815516 -0.0011723932960892808 0.014653407871841998 -0.0047568542744249693 -0.0092475231064841866
leaf_weight=5.9999999999999991 4.9999999999999991 5.9999999999999991 8.9999999999999982 5.0000000000000027 6.9999999999999991 4.9999999999999982 4.9999999999999982 5.0000000000000027 4.9999999999999982 7.0000000000000027 7.0000000000000053 5.0000000000000053 4.9999999999999991 6.9999999999999991 6.0000000000000027 4.9999999999999991 5.0000000000000027 4.9999999999999991 4.9999999999999982 6 6.9999999999999991 7.9999999999999991 5.9999999999999982 6.9999999999999991 6.9999999999999991 6.9999999999999991 7.0000000000000027 5.0000000000000053 6 6.9999999999999991 6.9999999999999991 7.0000000000000027 8.9999999999999982 6.0000000000000018 5 7.9999999999999991 4.9999999999999991 7.9999999999999991 5 5.9999999999999991 6.9999999999999991 5 8.9999999999999982 7 5 5 5
leaf_count=6 5 6 9 5 7 5 5 5 5 7 7 5 5 7 6 5 5 5 5 6 7 8 6 7 7 7 7 5 6 7 7 7 9 6 5 8 5 8 5 6 7 5 9 7 5 5 5
internal_value=0 -0.00518967 0.0120992 0.00941922 -0.0105693 -0.00165612 0.00666583 0.00580525 0.0157474 -0.000104354 -0.0147005 -0.00820693 -0.00776344 0.00125706 0.00191303 -0.00381594 0.00433467 0.0141858 -0.00543524 0.0098077 -0.00820591 -0.00702948 -0.00881131 0.00267997 -0.0137968 -0.00127334 0.00373848 -0.000847587 -0.0102285 -0.00780558 -0.0131486 -0.00322135 -0.00415048 -0.00268192 -0.00262699 -0.00325141 0.00324112 0.00376649 -0.0122986 -0.0013044 -0.000899728 -0.00666826 0.00196689 -0.00170916 0.0154663 -0.004088 -0.00875879
internal_weight=0 222 75 66 88 134 46 41 20 78 32 56 49 36 29 56 30 15 15 11 44 15 29 22 26 42 25 32 12 17 19 41 15 26 10 19 20 15 12 25 19 10 16 12 10 11 10
internal_count=297 222 75 66 88 134 46 41 20 78 32 56 49 36 29 56 30 15 15 11 44 15 29 22 26 42 25 32 12 17 19 41 15 26 10 19 20 15 12 25 19 10 16 12 10 11 10
is_linear=0
shrinkage=0.0125


Tree=13
num_leaves=51
num_cat=0
split_feature=13 15 15 13 13 19 14 12 12 5 17 10 7 14 12 7 7 7 18 17 12 7 17 17 7 19 17 5 12 15 18 12 7 12 18 18 10 7 14 15 17 12 5 17 15 11 5 5 17 10
split_gain=136.214 40.2135 27.0737 6.38363 4.65634 2.54525 1.12118 1.02224 0.887648 0.878097 0.813034 0.653021 0.616764 0.589893 0.41346 0.366339 0.497694 0.350763 0.33523 0.294519 0.263107 0.273483 0.295713 0.252148 0.250011 0.211131 0.198999 0.175995 0.220718 0.210199 0.175937 0.151769 0.14908 0.132452 0.129639 0.114772 0.107057 0.101858 0.0955731 0.126781 0.092897 0.0618229 0.0488363 0.0450364 0.0440893 0.0348594 0.0330126 0.0317787 0.0284675 0.0248839
threshold=26.739365561952624 17.395072021990988 38.441292076325567 22.085516179796979 13.445895763168787 31.352299790321247 43.049774023628032 6.6650000000000009 4.9750000000000005 6.4660000000000011 19.898021009176038 17.850000000000005 3.3765000000000005 8.6031130645476157 9.9250000000000025 1.4784000000000004 2.0162500000000003 6.0721500000000006 17.020558289736559 26.560858733845773 16.250000000000004 1.3989500000000004 13.211802083059199 23.045866618847111 4.4546500000000009 38.220107500115965 15.223253155737341 5.7080000000000011 17.175000000000004 20.131423342344476 18.329154828743047 25.545000000000005 2.0493000000000006 14.680000000000001 20.229465127463317 12.675187036741006 18.550000000000004 5.4009000000000009 20.304941618870306 21.186849682310754 21.232660883906636 11.995000000000003 5.9265000000000008 15.99587988670657 21.643796342237991 394.62500000000006 6.3180000000000005 5.9265000000000008 21.920687000934848 19.150000000000002
decision_type=2 2 2 2 2 2 2 2 2 2 2 2 2 2 2 2 2 2 2 2 2 2 2 2 2 2 2 2 2 2 2 2 2 2 2 2 2 2 2 2 2 2 2 2 2 2 2 2 2 2
left_child=1 4 5 10 13 7 -4 8 11 14 27 -2 -7 -1 23 -15 31 19 20 -11 -6 -22 -23 48 30 -8 32 34 29 33 -12 35 -24 41 -3 -17 46 -14 -32 40 -40 -29 -35 -28 -26 -39 -25 -41 -5 -31
right_child=2 3 6 9 18 12 25 -9 -10 17 24 -13 37 15 -16 16 -18 -19 -20 -21 21 22 26 36 44 -27 43 28 -30 49 38 -33 -34 42 -36 -37 -38 45 39 47 -42 -43 -44 -45 -46 -47 -48 -49 -50 -51
leaf_value=-0.018046424096017633 0.011710823585791806 -0.003176367894811738 0.025308812305011859 0.00034200702267812432 -0.011362412205492906 0.018646861514115976 0.034155054620847225 0.012683880042034065 0.0025378154333053561 0.0049368873161805063 -0.0024964269797529007 0.0055473426128332557 0.011938528200338061 -0.010192326059439703 -0.00076223288866919623 -0.0129200406045495 -0.010331958828997317 0.0028557006862663854 -0.0056311127657739301 0.0087658718217228197 -0.011053042026972411 -0.0050149479514975523 -0.0080748840129685178 0.0033430894399452456 -0.0029244622701198241 0.030498697947651594 -0.0063600885640057647 -0.0037594096322596813 -0.00073032437540033091 -0.0011624593555028425 0.0012061290257184441 -0.016368818219189115 -0.010572197835283532 -0.0018820614019449612 -0.0060791843977214344 -0.015260305042982406 0.0045658031216403265 0.013379508421614505 -0.00061760353869948345 -0.00069984683264081215 0.0015757087967453031 -0.0055612105112138452 -0.003683843584923744 -0.0078803096314464718 -0.0014663422548659624 0.01516949502469736 0.001974155171278945 -0.0021438406356451274 0.0016451106405478426 -0.0023330083446755304
leaf_weight=4.9999999999999991 6.0000000000000053 4.9999999999999982 6.0000000000000027 5.0000000000000018 4.9999999999999991 5.0000000000000027 4.9999999999999982 6.9999999999999991 4.9999999999999991 9.0000000000000018 4.9999999999999991 5 4.9999999999999991 4.9999999999999991 6.9999999999999991 8.0000000000000053 4.9999999999999991 6.9999999999999991 6.9999999999999991 4.9999999999999991 4.9999999999999991 4.9999999999999991 8.0000000000000053 6.0000000000000018 7.9999999999999982 7 5.9999999999999991 6.0000000000000018 6.9999999999999991 4.9999999999999991 8.0000000000000018 6.9999999999999991 7.9999999999999991 4.9999999999999982 5 6.9999999999999991 7.9999999999999991 4.9999999999999982 6.0000000000000018 4.9999999999999982 6 7 5 8.9999999999999982 6 5 6 5 6 7.9999999999999991
leaf_count=5 6 5 6 5 5 5 5 7 5 9 5 5 5 5 7 8 5 7 7 5 5 5 8 6 8 7 6 6 7 5 8 7 8 5 5 7 8 5 6 5 6 7 5 9 6 5 6 5 6 8
internal_value=0 -0.00390403 0.0169215 -0.000162657 -0.0105959 0.01153 0.0297955 0.00868471 0.00692935 0.00310944 -0.00205619 0.00891745 0.0147976 -0.0140022 0.00197207 -0.0133673 -0.0139519 0.00516331 -0.00821626 0.0063108 -0.00860771 -0.00826954 -0.0078804 0.00259229 -0.000893048 0.0320306 -0.0083397 -0.0031299 -0.00277744 -0.00317307 -0.00032545 -0.0147705 -0.00932921 -0.00389474 -0.00463664 -0.0140184 0.0034303 0.0135082 3.35255e-05 -0.000388957 0.000471857 -0.00473643 -0.00279173 -0.0072782 -0.0023058 0.0142838 0.00266594 -0.00143056 0.0010607 -0.00188951
internal_weight=0 251 61 161 90 43 18 23 16 59 102 11 20 37 38 32 27 21 53 14 46 41 36 31 49 12 31 53 43 36 35 22 16 23 10 15 20 15 30 22 12 13 10 15 14 10 12 10 11 13
internal_count=312 251 61 161 90 43 18 23 16 59 102 11 20 37 38 32 27 21 53 14 46 41 36 31 49 12 31 53 43 36 35 22 16 23 10 15 20 15 30 22 12 13 10 15 14 10 12 10 11 13
is_linear=0
shrinkage=0.0125


Tree=14
num_leaves=47
num_cat=0
split_feature=16 15 15 13 13 6 7 13 13 16 14 14 14 0 4 10 5 5 10 14 7 6 5 9 7 4 13 16 0 14 0 9 16 5 4 5 6 16 0 2 8 17 16 7 9 17
split_gain=129.148 36.1883 25.8704 6.86281 4.50769 2.71936 1.55492 1.05574 0.961657 0.953287 0.702768 0.51176 0.373647 0.343323 0.338884 0.2997 0.289903 0.233228 0.231427 0.230112 0.292833 0.343841 0.229011 0.223185 0.209339 0.168786 0.157242 0.145965 0.163216 0.140697 0.117918 0.115777 0.109536 0.106966 0.105035 0.130103 0.0998003 0.0972486 0.0971682 0.0797832 0.0609473 0.0540687 0.0433975 0.0245597 0.0195234 0.0191745
threshold=27.573440551757816 17.395072021990988 38.441292076325567 22.085516179796979 12.194339804145175 89.15000000000002 3.4178000000000002 31.923879878172034 20.569959804913267 24.112131118774418 43.049774023628032 15.291504989751953 8.6031130645476157 7.4649500000000009 0.42950000000000005 19.400000000000002 6.8725000000000014 5.7080000000000011 18.350000000000005 20.404795825896006 2.1103000000000005 94.550000000000011 6.7080000000000011 249.50000000000003 1.5313500000000002 0.69650000000000001 47.345645815226511 14.79185199737549 2.2277250000000004 18.063123084583371 0.17388500000000004 302.00000000000006 23.582867622375492 6.1680000000000001 0.46200000000000008 6.4355000000000011 74.450000000000017 20.114000320434574 5.2474100000000012 10.300000000000002 4.5000000000000009 19.82481759995996 23.121353149414066 2.6619000000000006 312.00000000000006 21.811784997637886
decision_type=2 2 2 2 2 2 2 2 2 2 2 2 2 2 2 2 2 2 2 2 2 2 2 2 2 2 2 2 2 2 2 2 2 2 2 2 2 2 2 2 2 2 2 2 2 2
left_child=1 4 5 8 12 6 -2 16 19 15 -4 13 -1 27 -11 32 -8 -13 31 20 -3 29 34 -9 -14 -26 -12 28 -6 -22 40 -10 42 -15 -16 -36 37 -31 -19 -32 -20 43 44 -38 -5 -41
right_child=2 3 10 9 11 -7 7 23 18 14 26 17 24 33 22 -17 -18 38 30 -21 21 -23 -24 -25 25 -27 -28 -29 -30 36 39 -33 -34 -35 35 -37 41 -39 -40 45 -42 -43 -44 -45 -46 -47
leaf_value=-0.017869778981483921 0.0054866388221263733 -0.00090030973537737712 0.025912540625439819 0.0015454146583313208 -0.0093566487924971308 0.019478986373683504 0.0079416221739621439 0.015826373554316778 -0.0012705491721651653 0.0014682260265141626 0.030027887048797608 -0.0085804647620749512 -0.011661588970126365 -0.012001717874585279 0.0055366597334662107 -0.0006745742995744353 0.011763275771983918 -0.0044946693232878945 -0.00017674878188767522 -0.0052602073274944459 -0.0049675565781262341 -0.0064897399991549771 0.0074780346328311188 0.012556655508405137 -0.016223047615490503 -0.013508555223049126 0.03321602378934084 -0.0096112128231787084 -0.0064677920529923041 -0.002901862265584153 0.0016233643577715394 -0.0037209140764475528 0.0035906875922126534 -0.0096937206729619339 0.0047360884445449541 0.0021248604021014013 -0.0045636021184660936 -0.00098617885289953256 -0.0068167093387015397 -0.00073948226183451627 -0.0019108931391330895 -0.0022454849962965135 0.00082980446874321141 -0.0033202509468693423 0.0027153532519322457 0.00030353007166673032
leaf_weight=5.0000000000000027 7.9999999999999991 8.9999999999999982 5.0000000000000027 5.0000000000000089 5.0000000000000027 5.9999999999999991 9.0000000000000018 6.9999999999999982 7.9999999999999982 4.9999999999999991 5.9999999999999982 7.0000000000000027 5.0000000000000027 6.9999999999999982 9.0000000000000053 7.9999999999999991 4.9999999999999991 5.9999999999999982 6.0000000000000018 7.9999999999999991 4.9999999999999991 4.9999999999999991 4.9999999999999991 7 6.9999999999999991 8.9999999999999982 6 8.9999999999999982 8.9999999999999982 9.0000000000000018 6.0000000000000027 5 5.9999999999999991 7 7.9999999999999982 5 5.0000000000000018 7.9999999999999991 6 4.9999999999999982 7 4.9999999999999991 6.9999999999999991 7 5 6
leaf_count=5 8 9 5 5 5 6 9 7 8 5 6 7 5 7 9 8 5 6 6 8 5 5 5 7 7 9 6 9 9 9 6 5 6 7 8 5 5 8 6 5 7 5 7 7 5 6
internal_value=0 -0.00362738 0.0169411 -0.000287635 -0.010428 0.0116714 0.0103675 0.0117589 -0.00226033 0.00296749 0.0299545 -0.00842725 -0.0147337 -0.00928988 0.00448213 0.00140117 0.00931302 -0.00674266 -0.000825981 -0.00326999 -0.00296791 -0.00338885 0.00503702 0.0141982 -0.0139825 -0.014702 0.0316304 -0.0083337 -0.00750598 -0.00298901 -0.000219103 -0.00221975 0.00212692 -0.0108543 0.00447817 0.00373854 -0.00269543 -0.00200551 -0.00566312 0.000462605 -0.00111721 -0.0033802 0.00160513 -0.00384568 0.00213914 -0.000162708
internal_weight=0 249 59 167 82 42 36 28 104 63 17 56 26 37 32 31 14 19 43 61 53 44 27 14 21 16 12 23 14 39 30 13 23 14 22 13 34 17 12 17 13 17 17 12 10 11
internal_count=308 249 59 167 82 42 36 28 104 63 17 56 26 37 32 31 14 19 43 61 53 44 27 14 21 16 12 23 14 39 30 13 23 14 22 13 34 17 12 17 13 17 17 12 10 11
is_linear=0
shrinkage=0.0125


Tree=15
num_leaves=50
num_cat=0
split_feature=16 15 16 13 15 7 18 5 13 16 12 14 9 13 10 5 9 14 13 16 12 12 7 14 15 9 6 16 15 5 13 14 14 5 9 13 14 9 18 6 18 13 13 6 10 6 12 7 5
split_gain=116.327 34.4197 17.2035 6.12006 5.48027 1.50661 2.04063 0.908777 0.867752 0.608479 0.583943 0.439482 0.385112 0.351356 0.346183 0.331653 0.274735 0.234363 0.233007 0.2172 0.261358 0.213402 0.20094 0.197879 0.178998 0.171304 0.167765 0.166751 0.184505 0.279592 0.159961 0.143972 0.137276 0.221318 0.139685 0.133506 0.132327 0.128875 0.103453 0.101436 0.0977196 0.0963017 0.0849258 0.0638502 0.0566697 0.0524686 0.0520916 0.0336184 0.0196186
threshold=27.573440551757816 17.395072021990988 38.913967132568366 22.085516179796979 13.026654302097565 2.8589000000000007 31.120212599060157 7.783500000000001 20.569959804913267 24.112131118774418 15.135000000000002 8.6031130645476157 426.00000000000006 31.229195016810518 18.350000000000005 5.1240000000000014 282.50000000000006 17.681291927075922 21.527548542697033 15.826167583465578 17.115000000000006 23.740000000000006 6.0721500000000006 23.466828783379977 16.730249496504879 249.50000000000003 46.250000000000007 18.698822975158695 19.394241290967923 5.7595000000000001 19.4345496658669 25.009831836524416 13.350932373048851 6.0440000000000014 551.50000000000011 24.54802488140518 25.857492296875183 400.00000000000006 20.537787804315133 40.400000000000006 21.426927763326336 19.733919411536672 15.786082675422991 67.300000000000011 16.850000000000005 96.40000000000002 12.760000000000002 3.9834500000000008 6.3815000000000008
decision_type=2 2 2 2 2 2 2 2 2 2 2 2 2 2 2 2 2 2 2 2 2 2 2 2 2 2 2 2 2 2 2 2 2 2 2 2 2 2 2 2 2 2 2 2 2 2 2 2 2
left_child=1 4 5 8 11 -2 26 -4 16 12 -6 -1 23 -8 37 -12 -3 -18 40 20 -17 -13 31 43 42 -15 -7 -19 30 -30 -29 35 -22 34 -34 -11 -33 44 41 -27 46 47 -21 48 -10 -23 -16 -31 -5
right_child=2 3 7 9 10 6 13 -9 14 22 15 21 -14 25 18 19 17 27 -20 24 32 45 -24 -25 -26 39 -28 28 29 38 -32 36 33 -35 -36 -37 -38 -39 -40 -41 -42 -43 -44 -45 -46 -47 -48 -49 -50
leaf_value=-0.0175047988557047 0.018099965986160624 -0.0053510602669319396 0.024050838208518902 0.0018570533601693483 -0.0038330686165039189 0.0082628729543580831 0.010397683425195503 0.030819611444676195 -0.00044859666619562845 0.0054456328000661251 -0.010904912639477217 -0.012156082980405023 -0.0013603382035819274 0.016023846936861989 -0.0016765726194307767 -0.011267962246230966 -0.00010713907334222424 -0.0046314762106337481 0.0022883702542041552 -0.0048902348103532977 -0.0096708116105336649 -0.016017856210447393 0.0026995162765711266 0.0046699798562773089 -0.0086970682632962187 0.014350622519808752 0.0050924295114486897 -0.0026191077470907927 -0.0058609663267933324 -0.0018746032842681137 0.00039501001283653018 0.0076149240475221454 -0.0075970876497871128 -0.0092459822054746042 -0.00486439569982214 0.0025093125431796472 0.0046650092693261798 -0.0038926241843347722 -0.0015122446399244288 0.011850386079891946 0.000631916533151643 -0.0046700937770420333 -0.0069961912372062396 0.00061105793428753875 -0.00235629578676978 -0.014020240067015395 -0.00015590460386572446 -0.003319559784383377 0.0029475388052903136
leaf_weight=7.0000000000000027 5.9999999999999991 6.9999999999999991 4.9999999999999991 7.0000000000000089 4.9999999999999991 5.9999999999999982 5.0000000000000027 8.9999999999999982 4.9999999999999982 5.0000000000000053 6.9999999999999991 8.0000000000000018 4.9999999999999991 6.0000000000000027 9.0000000000000053 4.9999999999999991 4.9999999999999991 7.9999999999999991 5.9999999999999991 6.0000000000000018 7.0000000000000027 4.9999999999999982 7.9999999999999991 4.9999999999999991 5.9999999999999991 6.9999999999999982 5 5.9999999999999982 5.0000000000000027 6.0000000000000053 5 4.9999999999999982 8.0000000000000018 7.9999999999999991 4.9999999999999991 5 5 4.9999999999999991 8.9999999999999982 5 7.9999999999999991 4.9999999999999991 7 4.9999999999999991 5 6 5.9999999999999991 5 5
leaf_count=7 6 7 5 7 5 6 5 9 5 5 7 8 5 6 9 5 5 8 6 6 7 5 8 5 6 7 5 6 5 6 5 5 8 8 5 5 5 5 9 5 8 5 7 5 5 6 6 5 5
internal_value=0 -0.0037522 0.0164788 -0.000273035 -0.00993639 0.0123007 0.0112745 0.0284092 -0.00204288 0.00310418 -0.00796734 -0.0147797 0.00175988 0.0133963 -0.000702317 -0.0083162 -0.00300842 -0.00270309 9.22362e-05 -0.00796596 -0.00858981 -0.0137708 0.00439733 0.00247297 -0.00687771 0.0142242 0.0068299 -0.00296622 -0.00263913 -0.00314878 -0.00124122 0.00507205 -0.0081083 -0.00758314 -0.00655292 0.00398631 0.0061489 -0.00224418 -0.00260279 0.0133166 -0.000476938 -0.00321075 -0.00603107 0.0018216 -0.00141117 -0.0149367 -0.0010741 -0.00253938 0.00231873
internal_weight=0 250 54 160 90 40 34 14 105 55 64 26 27 23 44 59 61 54 29 52 33 19 28 22 19 18 11 49 41 30 11 20 28 21 13 10 10 15 25 12 23 16 13 17 10 11 15 11 12
internal_count=304 250 54 160 90 40 34 14 105 55 64 26 27 23 44 59 61 54 29 52 33 19 28 22 19 18 11 49 41 30 11 20 28 21 13 10 10 15 25 12 23 16 13 17 10 11 15 11 12
is_linear=0
shrinkage=0.0125


Tree=16
num_leaves=47
num_cat=0
split_feature=16 18 15 13 15 19 5 1 13 11 16 0 6 10 10 9 1 5 5 11 15 15 19 10 18 2 10 9 2 12 15 18 12 6 16 5 19 11 2 15 19 2 18 13 13 18
split_gain=108.734 36.1457 19.9411 6.43961 3.16208 1.57994 1.25188 1.09343 0.964758 0.720625 0.605975 0.482546 0.427956 0.343341 0.29098 0.274047 0.256162 0.233988 0.228159 0.226909 0.197914 0.183723 0.175303 0.170474 0.351907 0.136826 0.135819 0.129732 0.122526 0.122167 0.121415 0.119218 0.110273 0.12214 0.101825 0.129453 0.0966708 0.0904206 0.0869992 0.0699558 0.0608804 0.0461265 0.0350804 0.034236 0.0216831 0.0110242
threshold=27.573440551757816 17.020558289736559 38.441292076325567 22.505229000553388 12.57592059873752 31.352299790321247 6.6330000000000009 15.000000000000002 20.569959804913267 385.03500000000003 24.112131118774418 0.09445000000000002 84.90000000000002 17.700000000000006 18.350000000000005 267.00000000000006 33.500000000000007 5.1240000000000014 6.3755000000000015 394.69500000000011 13.854341132814547 22.057397511867268 26.814930707687534 20.950000000000003 20.609228483326032 4.9400000000000004 17.950000000000003 302.00000000000006 12.380000000000001 12.865 25.25012828670944 14.154861261143227 17.980000000000004 95.90000000000002 10.74905586242676 5.4205000000000005 19.930563575103701 388.67000000000002 10.300000000000002 20.749051465141928 20.69296240257766 2.2800000000000007 19.381344819523061 14.715767186798601 21.01411582341871 16.177024052361045
decision_type=2 2 2 2 2 2 2 2 2 2 2 2 2 2 2 2 2 2 2 2 2 2 2 2 2 2 2 2 2 2 2 2 2 2 2 2 2 2 2 2 2 2 2 2 2 2
left_child=1 4 5 8 18 6 -2 -8 13 -4 11 19 -6 36 27 41 -17 -14 34 -5 -19 39 25 29 37 -12 -13 -10 30 -15 -27 -22 33 -33 35 -1 -3 -25 42 -16 -41 -7 -31 -34 -42 -45
right_child=2 3 9 10 12 15 7 -9 14 -11 22 26 17 23 21 16 -18 20 -20 -21 31 -23 -24 24 -26 28 -28 -29 -30 38 -32 32 43 -35 -36 -37 -38 -39 -40 40 44 -43 -44 45 -46 -47
leaf_value=-0.014345409221756582 0.014204201876466222 -0.0025474134876329576 0.032671938453475997 0.0055534973653105129 -0.012488016577783527 0.014333572462048014 0.0021793715287637405 0.0094955254339597686 -0.0011590312401540334 0.026614386051887502 0.0018704883601737849 0.0014002849372501496 -0.010768610050615392 -0.0044681267290515199 0.00053360099607786739 0.010205583174324278 0.01431473108827782 -0.010066484413282286 -0.012219967759012712 0.0019164796364702511 -0.0065487216348243853 0.0020886743732078205 0.005907473677803558 -0.0073171787830994513 -0.0020084178800839859 0.0060858800851023498 -0.0011623809754574509 -0.0036887346902612045 0.0028856316424039734 -0.0038494619430498125 0.0034773073081564663 -0.0087675698052150832 -0.0080332414867105555 -0.0060348137840657221 -0.013854324954993717 -0.017255662840775007 -0.00017715574320742553 -0.0049573135957985967 -0.0014678562575494054 -0.0019676190343614125 -0.001078814238212036 0.016242984743413014 -0.0024817774136970902 -0.010050731728573233 -1.8060235531084253e-05 -0.0088840971258333287
leaf_weight=5.0000000000000053 5.0000000000000027 4.9999999999999982 4.9999999999999991 5.0000000000000018 4.9999999999999991 6.0000000000000018 4.9999999999999991 8.9999999999999982 6.9999999999999982 8.9999999999999982 5.0000000000000027 5.9999999999999982 6.9999999999999991 8.0000000000000018 7.0000000000000062 4.9999999999999982 5 7.9999999999999991 5.9999999999999991 6 8.9999999999999982 4.9999999999999991 7.9999999999999991 4.9999999999999982 4.9999999999999991 7.0000000000000018 7 6 6.9999999999999991 7.0000000000000018 5 5.0000000000000018 4.9999999999999991 6 6.9999999999999991 6 6 6 6.9999999999999991 6.0000000000000027 4.9999999999999991 5 6 4.9999999999999982 7.9999999999999991 5
leaf_count=5 5 5 5 5 5 6 5 9 7 9 5 6 7 8 7 5 5 8 6 6 9 5 8 5 5 7 7 6 7 7 5 5 5 6 7 6 6 6 7 6 5 5 6 5 8 5
internal_value=0 -0.00373668 0.0159414 -0.000228764 -0.0106182 0.0114437 0.00881886 0.00688895 -0.00214552 0.028785 0.00315824 0.00165086 -0.00896187 -0.00324969 -0.000763329 0.0138141 0.0122694 -0.00860742 -0.01441 0.0035777 -0.00825348 -0.000102124 0.00428603 -0.00374451 -0.00478433 0.00374183 1.37364e-05 -0.00233333 0.00422968 -0.00314717 0.00500636 -0.00783648 -0.00827879 -0.00728515 -0.0151349 -0.0159413 -0.00126248 -0.0060381 -0.00261437 -0.00052679 -0.00092202 0.01521 -0.00322499 -0.00900144 -0.000432725 -0.0094765
internal_weight=0 234 54 155 79 40 19 14 99 14 56 24 55 55 44 21 10 50 24 11 43 31 32 44 16 24 13 13 19 28 12 35 26 11 18 11 11 11 20 26 19 11 13 15 13 10
internal_count=288 234 54 155 79 40 19 14 99 14 56 24 55 55 44 21 10 50 24 11 43 31 32 44 16 24 13 13 19 28 12 35 26 11 18 11 11 11 20 26 19 11 13 15 13 10
is_linear=0
shrinkage=0.0125


Tree=17
num_leaves=48
num_cat=0
split_feature=13 15 15 13 15 11 5 17 7 5 13 5 7 15 19 12 12 13 5 6 6 0 12 17 0 11 17 15 12 19 7 6 15 12 12 0 0 11 13 11 15 0 19 0 2 12 15
split_gain=113.882 35.4207 16.4328 7.3322 4.026 1.27856 1.18587 0.976259 0.884554 1.13008 0.47248 0.310847 0.302726 0.33676 0.441961 0.29316 0.276837 0.238398 0.236613 0.198286 0.198032 0.246073 0.194575 0.193455 0.179228 0.176569 0.172126 0.174939 0.184221 0.167343 0.111316 0.108665 0.103488 0.170241 0.116885 0.101149 0.0981177 0.0958513 0.0900669 0.089755 0.0897339 0.0649536 0.0618116 0.0553567 0.0269435 0.01263 0.0126258
threshold=30.244926810127236 17.395072021990988 38.441292076325567 22.085516179796979 13.026654302097565 390.69000000000005 6.4275000000000011 19.898021009176038 2.6619000000000006 7.783500000000001 13.655945444692023 6.7080000000000011 1.3989500000000004 15.082874448558004 15.625213853439371 28.040000000000003 9.9250000000000025 14.189877300172354 5.7080000000000011 73.350000000000009 94.050000000000011 0.044720000000000003 17.685000000000006 23.045866618847111 0.13937000000000002 346.52000000000004 17.559973283893811 20.131423342344476 14.680000000000001 32.35270823330503 2.2854500000000004 96.40000000000002 10.173458846529179 20.935000000000006 23.740000000000006 0.056895000000000008 0.17388500000000004 391.24000000000007 20.857332459221237 394.52500000000003 14.636076516290053 1.6426200000000002 34.48919600978617 0.14077500000000001 6.0100000000000007 6.7250000000000005 20.437355330771688
decision_type=2 2 2 2 2 2 2 2 2 2 2 2 2 2 2 2 2 2 2 2 2 2 2 2 2 2 2 2 2 2 2 2 2 2 2 2 2 2 2 2 2 2 2 2 2 2 2
left_child=1 4 5 7 15 -2 16 18 -4 -10 30 24 -12 17 -15 32 23 -14 19 -3 21 -9 26 -5 35 -16 -20 28 -28 -7 -6 -27 -1 -34 -35 -8 39 -13 41 -23 -19 -38 -31 45 -41 -25 -29
right_child=2 3 8 6 10 29 11 20 9 -11 12 37 13 14 25 -17 -18 40 22 -21 -22 36 -24 43 -26 31 27 46 -30 42 -32 -33 33 34 -36 -37 38 -39 -40 44 -42 -43 -44 -45 -46 -47 -48
leaf_value=-0.014947883129335671 0.0081467415188340286 -0.0033365887992773042 0.032727556501737996 0.00063244388089965194 -0.011707583198820218 0.012221416183702496 0.0034917472825048163 -0.0027614605196131558 0.021743371617402928 0.029630479071377721 -0.010568502412095421 0.0082438489903067895 -0.0067978289560964439 -0.0036157017547276135 -0.0093988800974402001 -0.016895753309471587 -0.00075872489958380774 -0.011113054032165554 -0.0046893886733311773 -0.0067532781077213602 -0.0030157204899256447 0.0001351556487193101 -0.00072259750122353962 0.0029170038218326155 0.0021690678282712205 -0.0050855095507758852 -0.0047719655582460826 -0.0021139597775683499 -0.0021372368778844199 0.016266542252892542 -0.0091745253830629887 -0.0076631846000195505 -0.014872197872362505 -0.010472439994308268 -0.013207279411576745 0.0057692768237473458 -0.00094950893742943513 0.0056978782232721542 0.0012892182098911454 -0.0023619742758117066 -0.0086014208689117171 0.00082259506326541002 0.014207273624851101 0.0040005273210014574 -0.0010196893799448276 0.0019378360915494931 -0.0012589711425041122
leaf_weight=6.0000000000000062 8.0000000000000018 5.9999999999999982 5.0000000000000027 8.0000000000000053 5.9999999999999982 5.0000000000000027 5.0000000000000062 6.9999999999999991 4.9999999999999982 7 4.9999999999999991 4.9999999999999982 7.0000000000000027 7.0000000000000027 4.9999999999999991 4.9999999999999991 5.9999999999999991 4.9999999999999982 8.9999999999999982 5 5.9999999999999991 7.0000000000000027 5.9999999999999991 4.9999999999999982 4.9999999999999991 4.9999999999999982 9.0000000000000053 4.9999999999999991 7.9999999999999991 4.9999999999999982 6 6 4.9999999999999991 4.9999999999999982 6 8.9999999999999982 9.0000000000000018 5 8.9999999999999982 4.9999999999999982 5 4.9999999999999991 7 5.9999999999999991 5 5 7.9999999999999991
leaf_count=6 8 6 5 8 6 5 5 7 5 7 5 5 7 7 5 5 6 5 9 5 6 7 6 5 5 5 9 5 8 5 6 6 5 5 6 9 9 5 9 5 5 5 7 6 5 5 8
internal_value=0 -0.00348451 0.0187477 -0.000170209 -0.0101121 0.0122937 0.00337865 -0.00209195 0.0282333 0.0263523 -0.00822485 0.00518247 -0.00762981 -0.0072602 -0.00625998 -0.0140928 0.00163203 -0.00860814 -0.00324338 -0.00489771 -0.000873701 -0.000598383 -0.00283702 0.00223333 0.00423179 -0.0074113 -0.00316008 -0.00269834 -0.00353727 0.0142398 -0.0104487 -0.00649964 -0.0134515 -0.0128845 -0.0119725 0.0049622 -0.000217653 0.00697983 0.000311771 -0.000939016 -0.00986634 -0.000310425 0.0150731 0.00302832 -0.00169956 0.00243619 -0.00159453
internal_weight=0 252 42 168 84 25 59 109 17 12 57 29 45 40 23 27 30 17 56 11 53 47 45 24 19 16 39 30 17 17 12 11 22 16 11 14 40 10 23 17 10 14 12 16 10 10 13
internal_count=294 252 42 168 84 25 59 109 17 12 57 29 45 40 23 27 30 17 56 11 53 47 45 24 19 16 39 30 17 17 12 11 22 16 11 14 40 10 23 17 10 14 12 16 10 10 13
is_linear=0
shrinkage=0.0125


Tree=18
num_leaves=48
num_cat=0
split_feature=15 13 15 13 15 19 12 4 13 14 7 9 14 14 13 4 13 0 4 18 0 9 7 15 14 13 0 5 15 4 18 12 18 0 7 7 7 7 13 4 13 10 15 2 18 5 9
split_gain=102.608 30.4987 22.6933 5.0406 3.2203 2.91446 1.95676 0.954863 0.932154 0.804889 0.584879 0.561364 0.52981 0.468154 0.398011 0.355857 0.344264 0.321428 0.289107 0.249552 0.246984 0.256316 0.205523 0.243779 0.172531 0.165051 0.153151 0.150397 0.147045 0.135736 0.215383 0.21917 0.125108 0.108025 0.10182 0.10122 0.0978586 0.0881023 0.0833497 0.0787803 0.0606985 0.0427367 0.0650356 0.042132 0.0282607 0.0198492 0.0156456
threshold=26.1634174392536 16.457561529508936 38.441292076325567 22.085516179796979 12.57592059873752 31.352299790321247 7.8100000000000014 0.52800000000000014 19.460555199921114 43.049774023628032 3.3765000000000005 426.00000000000006 8.6031130645476157 19.237453522859493 23.560470483329262 0.42950000000000005 13.655945444692023 6.6863200000000012 0.43600000000000005 17.329331958417125 1.6426200000000002 400.00000000000006 1.7760500000000004 10.810222494980062 25.009831836524416 24.54802488140518 0.09445000000000002 7.0835000000000008 20.940706683622867 0.59100000000000008 15.519448957315499 17.175000000000004 14.580413155753233 0.15660500000000002 2.7161000000000004 4.4546500000000009 2.5883500000000006 3.7735000000000003 15.369080298915867 0.61900000000000011 18.745201745031427 16.700000000000006 20.193353300368326 8.3500000000000032 22.771636896286129 5.9425000000000008 282.50000000000006
decision_type=2 2 2 2 2 2 2 2 2 2 2 2 2 2 2 2 2 2 2 2 2 2 2 2 2 2 2 2 2 2 2 2 2 2 2 2 2 2 2 2 2 2 2 2 2 2 2
left_child=1 4 5 8 12 6 7 18 13 -4 -7 14 -1 17 26 -16 39 19 -2 -3 21 28 23 -14 25 -17 -5 -12 35 38 32 -32 -31 43 -22 36 -10 40 -18 -6 -21 -37 -43 -30 -28 -39 -29
right_child=2 3 9 11 16 10 -8 -9 20 -11 27 -13 22 -15 15 24 29 -19 -20 37 34 -23 -24 -25 -26 -27 44 46 33 30 31 -33 -34 -35 -36 41 -38 45 -40 -41 -42 42 -44 -45 -46 -47 -48
leaf_value=-0.017259662509132637 0.0048214426475961152 -0.0058889646767092685 0.02460235623945083 0.0032564357579124752 -0.011634774061988731 0.017668852822209338 0.013693196900239719 0.00077109421941766009 -0.0020183940223918377 0.030988705339808333 0.011060702153829816 -0.0013653989088352589 -0.011774347083267959 -0.0072090977979689195 0.0013747635722609508 0.0053126492858601012 -0.01006835416237797 -0.00015066955878167886 0.0087065064676518627 -0.0017210219362536806 0.0018038077013077854 -0.0040081296025978137 -0.011167735408076446 -0.015504884534927085 0.0064701883612059115 0.002449420083335842 0.00031076791818092169 0.014372615697165015 -0.0017109887100429655 -0.0074029597071165023 -0.0040717118263683639 -0.0074600793199781461 -0.010089783262920602 0.0006316263951982007 -0.00060494966264663572 -0.0014876797577141262 0.00033665095642957364 -0.0044041274703020628 -0.0078614447657810848 -0.0093564273497597494 -0.0034753835551409743 -0.0040154025382049263 -0.0021029647440280515 -0.00039871502408016452 0.0014671320313860148 -0.0032270816300565722 0.01297311329693198
leaf_weight=6.0000000000000027 5.0000000000000062 6.0000000000000027 4.9999999999999991 7.0000000000000027 4.9999999999999982 5.0000000000000027 5.9999999999999991 4.9999999999999991 6.0000000000000018 8.9999999999999982 5.9999999999999991 4.9999999999999991 5.0000000000000018 4.9999999999999991 6.0000000000000027 7.0000000000000018 5.9999999999999982 4.9999999999999991 7.9999999999999991 9.0000000000000018 4.9999999999999982 5.9999999999999991 6.9999999999999991 7 6.9999999999999991 6 5.9999999999999991 4.9999999999999982 9.0000000000000053 7.0000000000000018 4.9999999999999991 7.9999999999999991 5 7.9999999999999991 6 5.0000000000000027 5 5.9999999999999982 6 6 4.9999999999999991 4.9999999999999982 7 6.9999999999999991 7.9999999999999991 5 5
leaf_count=6 5 6 5 7 5 5 6 5 6 9 6 5 5 5 6 7 6 5 8 9 5 6 7 7 7 6 6 5 9 7 5 8 5 8 6 5 5 6 6 6 5 5 7 7 8 5 5
internal_value=0 -0.00362509 0.0148128 -0.000601639 -0.0103334 0.0104856 0.00750179 0.00543288 -0.00211807 0.0287149 0.0138912 0.00260452 -0.0139767 -0.00361191 0.0030287 0.004065 -0.00843402 -0.00310982 0.00721913 -0.0035843 -0.00122915 -0.00155519 -0.012935 -0.0139582 0.00486769 0.00399795 0.00174149 0.0127048 -0.00127046 -0.00784697 -0.00730313 -0.00616371 -0.00853002 -0.000547388 0.000482099 -0.00188713 -0.000940079 -0.00302762 -0.00897245 -0.0104003 -0.00235385 -0.0024948 -0.00290715 -0.00114231 0.000977757 -0.00387713 0.0136821
internal_weight=0 235 59 162 73 45 24 18 110 14 21 52 25 41 47 26 48 36 13 31 69 58 19 12 20 13 21 16 52 37 25 13 12 24 11 28 11 25 12 11 14 17 12 16 14 11 10
internal_count=294 235 59 162 73 45 24 18 110 14 21 52 25 41 47 26 48 36 13 31 69 58 19 12 20 13 21 16 52 37 25 13 12 24 11 28 11 25 12 11 14 17 12 16 14 11 10
is_linear=0
shrinkage=0.0125


Tree=19
num_leaves=47
num_cat=0
split_feature=13 15 15 13 15 10 13 18 8 17 4 16 7 6 7 11 8 18 12 6 13 4 4 15 7 8 7 12 6 4 7 18 18 16 12 15 15 6 13 17 2 16 6 13 13 15
split_gain=110.677 31.3079 19.8068 5.62438 4.45062 2.06559 1.38935 0.792755 0.649393 0.566373 0.510479 0.453359 0.44596 0.432768 0.448816 0.610348 0.358985 0.33801 0.301011 0.296573 0.290169 0.217935 0.197469 0.192506 0.170168 0.160791 0.153447 0.135455 0.135186 0.130725 0.128501 0.170499 0.122638 0.120329 0.119721 0.0957833 0.0910979 0.0824886 0.0715446 0.0651601 0.0664946 0.0524365 0.0280355 0.0235495 0.0201904 0.0170643
threshold=27.927522322585784 17.395072021990988 38.441292076325567 22.085516179796979 12.57592059873752 19.050000000000004 32.193415381267997 17.020558289736559 3.5000000000000004 20.192972248074621 0.69650000000000001 15.908726692199709 2.0037000000000007 95.100000000000009 4.4546500000000009 393.71000000000009 3.5000000000000004 31.120212599060157 17.685000000000006 84.90000000000002 34.706507397891052 0.53500000000000014 0.68600000000000005 25.14506835208169 4.0995000000000008 7.5000000000000009 2.9024500000000004 9.1300000000000008 91.65000000000002 0.6070000000000001 2.2085000000000004 20.255726737748333 15.781432987044441 21.399129867553714 14.680000000000001 13.990127535573439 20.131423342344476 46.250000000000007 14.772134163247186 21.37185495629193 9.1250000000000018 19.776233673095707 73.350000000000009 23.792970050360317 10.642785948791458 23.616478822580081
decision_type=2 2 2 2 2 2 2 2 2 2 2 2 2 2 2 2 2 2 2 2 2 2 2 2 2 2 2 2 2 2 2 2 2 2 2 2 2 2 2 2 2 2 2 2 2 2
left_child=1 4 5 9 10 6 17 11 -4 16 22 19 -13 14 15 26 -3 -2 21 -6 24 34 -1 37 -8 -10 -5 -11 41 -21 -29 -32 35 39 36 -31 -18 43 -37 40 -33 -23 -17 45 -12 -16
right_child=2 3 8 13 7 -7 20 -9 25 27 44 12 -14 -15 23 42 18 -19 -20 29 -22 28 -24 -25 -26 -27 -28 30 -30 32 31 33 -34 -35 -36 38 -38 -39 -40 -41 -42 -43 -44 -45 -46 -47
leaf_value=-0.014223866918046999 0.0077091674599243654 -0.006194550687112263 0.024337737726575232 0.0046640626568596006 -0.012069633802884221 0.0036259462366904161 0.011850928322815889 -0.0042391209882742349 0.031410134677160612 -0.0028268437197166364 -0.013009004281451523 -0.0089170092660734272 -0.0045610165878782341 -0.00024000274167389822 0.0018301601766516449 0.0028363009580374106 -0.0039763193789895063 0.0114006107176709 0.00022789172683442463 -0.0073003606862309563 0.01668959213525497 -0.0025845477697508212 -0.01745507198182731 0.0043282116324412359 0.015110428264087842 0.027908533034446837 0.0073680081989747504 -0.0023377181240201591 -0.0054774587815919554 -0.010677786924103374 0.0014320987497206197 -0.0029898445155405505 -0.00754242514829146 0.000258531184547314 -0.00033420442023786393 -0.0079982434725957511 -0.0018387247542804603 0.00015995339918551061 -0.010089004598325077 -0.00045502340767612716 -0.0010042107135321068 -0.0040759712933796915 0.0014572209961483426 0.0012941980560588872 -0.011609356027536977 0.0029405379013451153
leaf_weight=6.0000000000000018 7.9999999999999991 4.9999999999999991 5.9999999999999991 6.0000000000000027 4.9999999999999991 4.9999999999999991 6.0000000000000018 7.9999999999999991 4.9999999999999982 5.9999999999999991 4.9999999999999982 6.9999999999999991 7.9999999999999991 5.9999999999999991 5.0000000000000053 4.9999999999999982 5.0000000000000027 7.9999999999999991 4.9999999999999991 7.9999999999999991 6.9999999999999991 9.0000000000000053 7 4.9999999999999991 5 5 7.9999999999999991 6.9999999999999991 5.9999999999999991 9.0000000000000053 5.9999999999999991 6.0000000000000053 5.9999999999999991 8.9999999999999982 4.9999999999999991 6.9999999999999982 8.9999999999999982 4.9999999999999991 5 5.9999999999999991 5 6.9999999999999991 5 4.9999999999999991 6 5
leaf_count=6 8 5 6 6 5 5 6 8 5 6 5 7 8 6 5 5 5 8 5 8 7 9 7 5 5 5 8 7 6 9 6 6 6 9 5 7 9 5 5 6 5 7 5 5 6 5
internal_value=0 -0.00371319 0.0159612 -0.000271317 -0.00968599 0.0111526 0.0122568 -0.00793779 0.0276761 -0.00209785 -0.0142712 -0.00847416 -0.00659979 0.00291524 0.00330336 0.00452754 -0.00300067 0.00956057 -0.00265157 -0.0091748 0.0146484 -0.00300484 -0.0159709 0.00212462 0.0133409 0.0296693 0.00621554 -0.00107272 -0.00385611 -0.00875863 -0.0008006 -0.000461623 -0.00918738 -0.000901982 -0.00201453 -0.00965307 -0.00260844 0.0015693 -0.00887695 -0.00152145 -0.00209523 -0.00324255 0.00215551 0.0020333 -0.0122539 0.00239411
internal_weight=0 238 55 151 87 39 34 63 16 96 24 55 15 55 49 24 51 16 46 40 18 41 13 25 11 10 14 45 22 35 39 32 27 26 19 21 14 20 12 17 11 16 10 15 11 10
internal_count=293 238 55 151 87 39 34 63 16 96 24 55 15 55 49 24 51 16 46 40 18 41 13 25 11 10 14 45 22 35 39 32 27 26 19 21 14 20 12 17 11 16 10 15 11 10
is_linear=0
shrinkage=0.0125


Tree=20
num_leaves=47
num_cat=0
split_feature=16 15 15 16 15 6 19 6 5 17 5 16 16 18 0 6 0 7 4 8 17 2 2 16 0 0 19 6 0 0 19 4 15 0 15 7 2 10 0 7 11 0 7 19 0 11
split_gain=107.842 26.0691 18.1878 4.90008 3.88381 2.30476 1.88883 1.23687 1.0653 0.920641 0.393367 0.500523 0.342802 0.396076 0.33276 0.294666 0.29089 0.276518 0.242279 0.218552 0.20978 0.199915 0.190194 0.182777 0.158144 0.319486 0.141591 0.139334 0.136945 0.126721 0.214577 0.199288 0.123102 0.113806 0.110874 0.0950014 0.177436 0.092975 0.0688786 0.0519697 0.07762 0.0437526 0.0354061 0.0315447 0.0286153 0.0168754
