tree
version=v3
num_class=1
num_tree_per_iteration=1
label_index=0
max_feature_idx=12
objective=regression
feature_names=Column_0 Column_1 Column_2 Column_3 Column_4 Column_5 Column_6 Column_7 Column_8 Column_9 Column_10 Column_11 Column_12
feature_infos=[0.0090600000000000003:88.976200000000006] [0:100] [0.46000000000000002:27.739999999999998] [0:1] [0.38500000000000001:0.871] [3.5609999999999999:8.7799999999999994] [6.2000000000000002:100] [1.1691:12.1265] [1:24] [187:711] [12.6:22] [2.52:396.89999999999998] [1.9199999999999999:34.770000000000003]
tree_sizes=1440 1556 1444 1550 1542 1554 1656 1660 1547 1769 1765 1659 1791 1667 1587 1677 1631 1548 1541 1553 1599 1770 1802 1573 1772 1588 1576 1878 1692 1792 1421 1695 1828 1709 1818 1559 1563 1562 1847 1717 1698 1702 1691 1700 1697 1813 1772 1576 1823 1728 1683 1850 1707 1835 1698 1825 1693 1816 1719 1829 1608 1583 1851 1670 1965 1970 1747 1983 1826 1710 1808 1757 1714 1709 1806 1718 1670 1841 1691 1831 1714 1623 1740 1583 1599 1496 1578 1704 1601 1745 1590 1801 1814 1710 1709 1726 1831 1646 1827 1971 1692 1718 1933 1703 1730 1726 1522 1709 1817 1921 1558 1835 1791 1838 1588 1685 1683 1691 1729 1582 1631 1807 1490 1593 1681 1641 1701 1717 1620 1643 1698 1612 1710 1849 1596 1484 1854 1492 1809 1721 1708 1598 1720 1852 1722 1759 1847 1718 1754 1811 1608 1739 1722 1833 1889 1868 1509 1695 1700 1608 1690 1454 1714 1833 1676 1706 1952 1623 1617 2100 1869 1731 1736 1741 1628 1719 1829 1714 1635 1814 1718 1835 1703 1882 1853 1620 1750 1713 1874 1503 1720 1986 1771 2136 1715 1606 1854 1607 1636 1870 1781 1756 1838 1714 1860 1854 1850 1738 1630 1619 1717 1744 1606 1858 1770 1867 1738 1864 1806 1832 1500 1861 1854 1841 1757 1605 1671 1836 1825 1646 1631 1854 1493 1906 1875 1716 1720 1856 1638 1824 1810 1741 1751 1788 1627 1872 1731 1624 1728 1735 1643 1773 1989 1744 1693 1498 1612 1991 1991 1622 2018 1894 1728 1740 1622 1770 1741 1842 1821 1506 1649 1750 2028 2010 1646 1743 1841 1738 1486 1810 1937 1687 1759 1711 1696 1759 1768 1903 1600 1794 1724 1636 1730 1603 1877 1640 1757 1770 2014 1883 1744 1525 1661 1887 1613 1655 1764 1596 1662 1674 1659 1875 1753 1559 1760 1865 1620 1723 1892 1891 1616 1826 1727 1602 1861 1498

Tree=0
num_leaves=15
num_cat=0
split_feature=5 12 5 5 7 5 11 0 12 12 7 6 7 6
split_gain=151.233 59.192 13.6851 13.2751 10.7854 4.89422 4.25258 2.47421 2.2748 1.00446 0.98875 0.363139 0.354369 0.324324
threshold=6.9740000000000011 14.475000000000001 7.4620000000000006 6.6785000000000005 1.9963500000000003 6.1525000000000007 365.23000000000008 11.369150000000001 10.040000000000001 19.605000000000004 4.5006000000000013 75.500000000000014 4.5006000000000013 92.000000000000014
decision_type=2 2 2 2 2 2 2 2 2 2 2 2 2 2
left_child=1 3 -2 5 7 11 -6 9 10 -3 -7 12 -1 -8
right_child=2 4 -4 -5 6 8 13 -9 -10 -11 -12 -13 -14 -15
leaf_value=-0.0009855649504054223 0.067222057474998584 -0.037484232502940452 0.12678714632023977 0.043529011350928022 -0.042293492126229563 0.026094591957979904 -0.011323259338242103 -0.068649662588166002 -0.0017937263426812072 -0.05442495841701004 0.010965902195085152 -0.013497924528807166 -0.0096457398290515379 -0.020773471549414755
leaf_weight=21 27 14.999999999999998 14.999999999999998 21 23 18 23 22 25 21 27 23 27 14.999999999999998
leaf_count=21 27 15 15 21 23 18 23 22 25 21 27 23 27 15
internal_value=-2.40183e-09 -0.0132271 0.0884953 0.00644114 -0.0400022 0.00091741 -0.0253244 -0.0554393 0.0102991 -0.0473663 0.0170174 -0.00833217 -0.00585691 -0.0150536
internal_weight=0 281 42 162 119 141 61 58 70 36 45 71 48 38
internal_count=323 281 42 162 119 141 61 58 70 36 45 71 48 38
is_linear=0
shrinkage=1


Tree=1
num_leaves=16
num_cat=0
split_feature=5 12 12 5 7 5 11 0 12 12 7 7 6 6 2
split_gain=136.488 53.4208 13.0017 11.9808 9.73379 4.41703 3.83795 2.23298 2.05301 0.906524 0.892347 0.345289 0.736431 0.292702 0.227691
threshold=6.9740000000000011 14.475000000000001 4.7600000000000007 6.6785000000000005 1.9963500000000003 6.1525000000000007 365.23000000000008 11.369150000000001 10.040000000000001 19.605000000000004 4.5006000000000013 2.3852000000000007 59.150000000000006 92.000000000000014 5.4800000000000013
decision_type=2 2 2 2 2 2 2 2 2 2 2 2 2 2 2
left_child=1 3 -2 5 7 11 -6 9 10 -3 -7 -1 14 -8 -13
right_child=2 4 -4 -5 6 8 13 -9 -10 -11 -12 12 -14 -15 -16
leaf_value=-0.0011783422095080218 0.11953328289091587 -0.035610018670558928 0.062247315593636957 0.041352562420070176 -0.040178814757129422 0.024789864590598478 -0.010757093670089609 -0.065217177705331295 -0.0017040376737713814 -0.051703707377115882 0.010417609501746484 -0.010767058314134678 -0.018404774981386523 -0.019734795636031779 -0.0029142727629126361
leaf_weight=14.999999999999998 15.999999999999998 14.999999999999998 26 21 23 18 23 22 25 21 27 14.999999999999998 17 14.999999999999998 24
leaf_count=15 16 15 26 21 23 18 23 22 25 21 27 15 17 15 24
internal_value=0 -0.0125657 0.0840705 0.00611908 -0.0380021 0.000871541 -0.0240582 -0.0526673 0.00978417 -0.044998 0.0161665 -0.00791556 -0.00972017 -0.0143009 -0.00593457
internal_weight=0 281 42 162 119 141 61 58 70 36 45 71 56 38 39
internal_count=323 281 42 162 119 141 61 58 70 36 45 71 56 38 39
is_linear=0
shrinkage=0.05


Tree=2
num_leaves=15
num_cat=0
split_feature=5 12 5 12 7 5 11 12 0 7 12 6 7 6
split_gain=123.18 48.2123 11.8014 10.986 8.78474 4.50056 3.46375 2.28813 2.01526 1.45027 0.818138 0.312876 0.30594 0.264164
threshold=6.9740000000000011 14.475000000000001 7.4620000000000006 5.6000000000000005 1.9963500000000003 6.1525000000000007 365.23000000000008 10.040000000000001 11.369150000000001 3.8611500000000007 19.605000000000004 75.500000000000014 4.5006000000000013 92.000000000000014
decision_type=2 2 2 2 2 2 2 2 2 2 2 2 2 2
left_child=1 3 -2 -1 8 11 -6 9 10 -7 -3 12 -5 -8
right_child=2 4 -4 5 6 7 13 -9 -10 -11 -12 -13 -14 -15
leaf_value=0.045145331276580693 0.060112079674447032 -0.033829517662525177 0.1154258914788564 -0.00069594476372003555 -0.038169873635406082 0.0273313923444795 -0.01021923921475916 -0.0016003680587918672 -0.06195632029663433 0.0095592863392084844 -0.049118521525746306 -0.012314723681091615 -0.0087426299074043826 -0.018748055676308769
leaf_weight=15.999999999999998 27 14.999999999999998 14.999999999999998 21 23 19 23 27 22 29 21 23 27 14.999999999999998
leaf_count=16 27 15 15 21 23 19 23 27 22 29 21 23 27 15
internal_value=0 -0.0119374 0.079867 0.00581313 -0.036102 0.00150275 -0.0228553 0.0100441 -0.050034 0.0165941 -0.0427481 -0.00751978 -0.00522221 -0.0135859
internal_weight=0 281 42 162 119 146 61 75 58 48 36 71 48 38
internal_count=323 281 42 162 119 146 61 75 58 48 36 71 48 38
is_linear=0
shrinkage=0.05


Tree=3
num_leaves=16
num_cat=0
split_feature=5 12 12 12 7 5 5 0 0 12 12 6 7 0 9
split_gain=111.17 43.5116 11.2237 10.0645 7.92823 3.70279 2.82701 2.44005 1.85169 1.44246 0.617242 0.554353 0.311574 0.27896 0.20798
threshold=6.9740000000000011 14.475000000000001 4.7600000000000007 7.2300000000000013 1.9963500000000003 6.5390000000000006 6.1525000000000007 0.64730500000000013 7.4649500000000009 10.040000000000001 21.490000000000006 79.750000000000014 3.9258500000000005 7.0365050000000009 302.00000000000006
decision_type=2 2 2 2 2 2 2 2 2 2 2 2 2 2 2
left_child=1 3 -2 5 8 -1 11 -6 -3 -8 -10 12 -5 -9 -14
right_child=2 4 -4 6 7 -7 9 13 10 -11 -12 -13 14 -15 -16
leaf_value=0.013391273152748391 0.10882245935499668 -0.03651156354209651 0.055597482392421141 0.00017662782842914264 -0.01049070194432581 0.044295704985658331 0.014539244934386606 -0.02659979513601253 -0.047538763284683233 -0.0015203496544725368 -0.060867683667885635 -0.016545093117747458 -0.004805616867164836 -0.035721125006675722 -0.012418175464057747
leaf_weight=21 15.999999999999998 23 26 14.999999999999998 27 18 29 19 15.999999999999998 27 19 15.999999999999998 19 14.999999999999998 17
leaf_count=21 16 23 26 15 27 18 29 19 16 27 19 16 19 15 17
internal_value=0 -0.0113405 0.0758737 0.00552247 -0.0342969 0.0276549 -0.00149511 -0.0217125 -0.0475323 0.00679623 -0.0547745 -0.00842519 -0.00587777 -0.0306239 -0.00840044
internal_weight=0 281 42 162 119 39 123 61 58 56 35 67 51 34 36
internal_count=323 281 42 162 119 39 123 61 58 56 35 67 51 34 36
is_linear=0
shrinkage=0.05


Tree=4
num_leaves=16
num_cat=0
split_feature=5 12 5 5 7 5 11 0 12 7 12 7 10 9 0
split_gain=100.331 39.2692 10.1767 9.2395 7.15523 3.1513 2.95332 1.69439 1.44227 0.755859 0.710208 0.318872 0.285951 0.394693 0.201893
threshold=6.9740000000000011 14.475000000000001 7.4620000000000006 6.6785000000000005 1.9963500000000003 6.1525000000000007 365.23000000000008 11.369150000000001 10.040000000000001 4.5006000000000013 19.605000000000004 2.3852000000000007 19.650000000000002 302.00000000000006 0.21848000000000004
decision_type=2 2 2 2 2 2 2 2 2 2 2 2 2 2 2
left_child=1 3 -2 5 7 11 -6 10 9 -7 -3 -1 13 -13 -8
right_child=2 4 -4 -5 6 8 14 -9 -10 -11 -12 12 -14 -15 -16
leaf_value=-0.00030962275418763363 0.053735214030301126 -0.030165433684984845 0.10510055581728617 0.036187516379037075 -0.034768121600475002 0.021452149728106131 -0.0075547755385438611 -0.056087754124944857 -0.0014627998247742652 0.0082246247579826539 -0.044410307918276104 -0.00039554217501598248 -0.013709503952931199 -0.010643976288182396 -0.015010887752894476
leaf_weight=14.999999999999998 27 14.999999999999998 14.999999999999998 21 23 18 14.999999999999998 22 25 27 21 17 18 21 23
leaf_count=15 27 15 15 21 23 18 15 22 25 27 21 17 18 21 23
internal_value=0 -0.0107735 0.07208 0.00524635 -0.0325821 0.000638088 -0.0206269 -0.0451557 0.00816619 0.0135156 -0.0384749 -0.00678399 -0.00851819 -0.00605915 -0.0120677
internal_weight=0 281 42 162 119 141 61 58 70 45 36 71 56 38 38
internal_count=323 281 42 162 119 141 61 58 70 45 36 71 56 38 38
is_linear=0
shrinkage=0.05


Tree=5
num_leaves=16
num_cat=0
split_feature=5 12 12 12 7 5 11 12 0 7 12 7 6 6 2
split_gain=90.5487 35.4405 9.68902 8.59767 6.45759 3.20644 2.66537 1.6509 1.55268 1.17923 0.535357 0.287782 0.59791 0.241007 0.180121
threshold=6.9740000000000011 14.475000000000001 4.7600000000000007 5.6000000000000005 1.9963500000000003 6.1525000000000007 365.23000000000008 10.040000000000001 7.4649500000000009 3.8611500000000007 21.490000000000006 2.3852000000000007 59.150000000000006 90.15000000000002 5.4800000000000013
decision_type=2 2 2 2 2 2 2 2 2 2 2 2 2 2 2
left_child=1 3 -2 -1 8 11 -6 9 -3 -7 -10 -5 14 -8 -13
right_child=2 4 -4 5 6 7 13 -9 10 -11 -12 12 -14 -15 -16
leaf_value=0.039779224968515339 0.099089410342276099 -0.032806108082118243 0.049636948080017021 -0.00029414140076066059 -0.033029714845242385 0.023626156705186557 -0.0074823748712476938 -0.0015106376967634317 -0.042790942918509246 0.0076005337735766485 -0.055204293916099947 -0.0089793885312974466 -0.015917594226844172 -0.01544622766148103 -0.0019949136879101087
leaf_weight=15.999999999999998 15.999999999999998 23 26 14.999999999999998 23 19 19 27 15.999999999999998 29 19 14.999999999999998 17 19 24
leaf_count=16 16 23 26 15 23 19 19 27 16 29 19 15 17 19 24
internal_value=0 -0.0102348 0.068476 0.00498403 -0.030953 0.00117086 -0.0195955 0.00838034 -0.0428979 0.013944 -0.0495296 -0.00644479 -0.00809228 -0.0114643 -0.00468125
internal_weight=0 281 42 162 119 146 61 75 58 48 35 71 56 38 39
internal_count=323 281 42 162 119 146 61 75 58 48 35 71 56 38 39
is_linear=0
shrinkage=0.05


Tree=6
num_leaves=17
num_cat=0
split_feature=5 12 5 12 7 5 11 5 0 12 8 6 12 7 6 7
split_gain=81.7202 31.985 8.77543 7.84758 5.82798 2.94851 2.40549 2.12466 1.42461 1.01985 1.59503 0.629783 0.61674 0.337962 0.220407 0.0806621
threshold=6.9740000000000011 14.475000000000001 7.4620000000000006 7.2300000000000013 1.9963500000000003 6.5925000000000002 365.23000000000008 6.0765000000000011 11.369150000000001 10.040000000000001 4.5000000000000009 75.500000000000014 19.605000000000004 4.4582500000000005 92.000000000000014 3.2310000000000003
decision_type=2 2 2 2 2 2 2 2 2 2 2 2 2 2 2 2
left_child=1 3 -2 5 8 -1 -6 11 12 10 -9 13 -3 -5 -8 -11
right_child=2 4 -4 7 6 -7 14 9 -10 15 -12 -13 -14 -15 -16 -17
leaf_value=0.012811642063214727 0.048017133380872788 -0.026883725772301355 0.095715269446372986 0.00043148259865120057 -0.031378229399738104 0.040761493938043715 -0.0078158927595485816 -0.00053879600018262867 -0.050777063078501009 -0.0045779449721643078 0.020817556801355549 -0.016680999867179813 -0.040158193168186009 -0.0090311586846718982 -0.015606383010745049 0.00045253787847126235
leaf_weight=23 27 14.999999999999998 14.999999999999998 15.999999999999998 23 15.999999999999998 23 17 22 14.999999999999998 18 17 21 23 14.999999999999998 17
leaf_count=23 27 15 15 16 23 16 23 17 22 15 18 17 21 23 15 17
internal_value=0 -0.0097231 0.0650522 0.00473483 -0.0294053 0.0242782 -0.0186157 -0.00146187 -0.040753 0.00454598 0.0104445 -0.00864982 -0.0346272 -0.00514905 -0.0108911 -0.0019055
internal_weight=0 281 42 162 119 39 61 123 58 67 35 56 36 39 38 32
internal_count=323 281 42 162 119 39 61 123 58 67 35 56 36 39 38 32
is_linear=0
shrinkage=0.05


Tree=7
num_leaves=17
num_cat=0
split_feature=5 12 12 12 0 5 6 12 4 7 7 10 5 7 6 9
split_gain=73.7524 28.8665 8.36441 7.17133 5.30628 2.58949 1.54406 1.31326 1.27484 1.24662 1.03183 0.681788 0.673082 0.250551 0.505156 0.19458
threshold=6.9740000000000011 14.475000000000001 4.7600000000000007 5.6000000000000005 7.0365050000000009 6.1525000000000007 93.850000000000009 10.040000000000001 0.67500000000000016 1.7760500000000004 3.8611500000000007 19.900000000000002 5.7300000000000013 2.3852000000000007 57.400000000000006 302.00000000000006
decision_type=2 2 2 2 2 2 2 2 2 2 2 2 2 2 2 2
left_child=1 3 -2 -1 6 13 11 10 -6 -10 -7 -3 -8 -5 15 -15
right_child=2 4 -4 5 8 7 12 -9 9 -11 -12 -13 -14 14 -16 -17
leaf_value=0.036276248237118128 0.090243516489863396 -0.0048254854770170318 0.04429560924092165 -8.9314780198037637e-05 -0.029160090121957995 0.021513459458640829 -0.034552395418286315 -0.0013273127773707665 -0.056391357779502875 -0.037109241516966568 0.0065228774597675641 -0.018404948789822431 -0.019573726554711662 -0.00043333722523560653 -0.013992506167606304 -0.0076878253991405181
leaf_weight=15.999999999999998 15.999999999999998 18 26 14.999999999999998 18 19 15.000000000000002 27 14.999999999999998 19 29 19 14.999999999999998 19 19 18
leaf_count=16 16 18 26 15 18 19 15 27 15 19 29 19 15 19 19 18
internal_value=0 -0.00923695 0.0617996 0.00449809 -0.0279351 0.00101555 -0.0186335 0.00749442 -0.0399198 -0.0456161 0.0124566 -0.0117987 -0.0270631 -0.00582833 -0.00736557 -0.00396255
internal_weight=0 281 42 162 119 146 67 75 52 34 48 37 30 71 56 37
internal_count=323 281 42 162 119 146 67 75 52 34 48 37 30 71 56 37
is_linear=0
shrinkage=0.05


Tree=8
num_leaves=16
num_cat=0
split_feature=5 12 5 5 7 11 5 0 12 0 12 7 10 9 0
split_gain=66.5616 26.052 7.56693 6.53035 4.85627 2.06641 2.01564 1.20469 0.888891 0.663016 0.517018 0.22628 0.231305 0.329084 0.157689
threshold=6.9740000000000011 14.475000000000001 7.4620000000000006 6.6785000000000005 1.9963500000000003 365.23000000000008 6.1525000000000007 11.369150000000001 10.040000000000001 0.13995000000000005 19.605000000000004 2.5005500000000005 19.650000000000002 302.00000000000006 0.21848000000000004
decision_type=2 2 2 2 2 2 2 2 2 2 2 2 2 2 2
left_child=1 3 -2 6 7 -6 11 10 9 -8 -3 -1 13 -13 -7
right_child=2 4 -4 -5 5 14 8 -9 -10 -11 -12 12 -14 -15 -16
leaf_value=-0.00086721931706721853 0.042890964186301943 -0.024173834621906282 0.087183127403259286 0.030285601620562375 -0.028518009930849075 -0.0055412750815351805 0.0061112786097259359 -0.046114804189313546 -0.0011395967341959476 0.018790114956209438 -0.036327817681289856 0.00010230369756326957 -0.011826305722610819 -0.0097358536523054623 -0.012130775189270145
leaf_weight=19 27 14.999999999999998 14.999999999999998 21 23 14.999999999999998 29 22 25 15.999999999999998 21 17 18 17 23
leaf_count=19 27 15 15 21 23 15 29 22 25 16 21 17 18 17 23
internal_value=0 -0.0087751 0.0587096 0.00427318 -0.0265383 -0.0166892 0.000398993 -0.0368969 0.0064197 0.0106193 -0.0312637 -0.00553692 -0.00724315 -0.00481677 -0.00952966
internal_weight=0 281 42 162 119 61 141 58 70 45 36 71 52 34 38
internal_count=323 281 42 162 119 61 141 58 70 45 36 71 52 34 38
is_linear=0
shrinkage=0.05


Tree=9
num_leaves=18
num_cat=0
split_feature=12 12 12 0 9 12 6 7 10 4 7 11 9 2 6 0 11
split_gain=59.0635 15.9744 15.3144 4.26895 3.80122 2.86229 1.2927 1.27176 0.865349 0.856424 1.14445 0.812381 0.683758 0.585263 0.404138 0.358721 0.328579
threshold=7.7000000000000011 14.795000000000002 5.1150000000000011 6.7280450000000007 279.50000000000006 3.7450000000000006 91.500000000000014 1.9328500000000002 18.650000000000002 0.67500000000000016 1.7760500000000004 378.31500000000005 298.00000000000006 4.8950000000000005 73.450000000000017 0.10521500000000002 394.73000000000008
decision_type=2 2 2 2 2 2 2 2 2 2 2 2 2 2 2 2 2
left_child=2 6 5 7 -4 -1 8 -3 12 -5 -11 -9 16 -6 15 -10 -2
right_child=1 3 4 9 13 -7 -8 11 14 10 -12 -13 -14 -15 -16 -17 -18
leaf_value=0.080547112425168335 0.012392822019755841 -0.0290693205781281 0.040520126326009633 -0.027337158821961461 0.018773177885450423 0.049658668736616771 0.012370118033825695 -0.021946814265102151 -0.0087456840121497709 -0.051502302487691248 -0.033419518030825116 -0.0075270088722131081 -0.0041626665081518389 0.0058419023950894676 -0.011463026363402606 0.0017237611153783899 0.0019273456837981939
leaf_weight=15.000000000000002 15 15.999999999999998 15.999999999999998 17 14.999999999999998 14.999999999999998 17 14.999999999999998 14.999999999999998 14.999999999999998 21 28 24 21 25 18 15
leaf_count=15 15 16 16 17 15 15 17 15 15 15 21 28 24 21 25 18 15
internal_value=0 -0.0124717 0.0366547 -0.026287 0.0202423 0.0651029 -0.000477075 -0.017035 -0.0024271 -0.0365863 -0.040954 -0.0125572 0.00212775 0.0112299 -0.00666781 -0.00303508 0.00716008
internal_weight=0 241 82 112 52 30 129 59 112 53 36 43 54 36 58 33 30
internal_count=323 241 82 112 52 30 129 59 112 53 36 43 54 36 58 33 30
is_linear=0
shrinkage=0.05


Tree=10
num_leaves=18
num_cat=0
split_feature=5 12 12 5 0 5 6 12 12 0 10 5 11 12 6 7 10
split_gain=55.7086 20.9868 6.48433 5.35514 3.98812 1.68775 1.25432 0.816931 0.74878 0.768873 0.546335 0.544499 0.331555 0.2578 0.255084 0.269503 0.20875
threshold=6.9740000000000011 14.475000000000001 4.7600000000000007 6.6785000000000005 7.0365050000000009 6.0765000000000011 93.850000000000009 19.605000000000004 10.040000000000001 0.14618 19.900000000000002 5.7300000000000013 384.38000000000005 6.7250000000000005 75.500000000000014 4.5006000000000013 19.400000000000002
decision_type=2 2 2 2 2 2 2 2 2 2 2 2 2 2 2 2 2
left_child=1 3 -2 5 6 14 10 -6 9 13 -3 -8 -9 -7 15 -1 -10
right_child=2 4 -4 -5 7 8 11 12 16 -11 -12 -13 -14 -15 -16 -17 -18
leaf_value=0.00052924130060192612 0.078754461929202088 -0.0035047043942742877 0.038298671663953711 0.027239233627915384 -0.026101800622908695 0.0096277228059868034 -0.030240865536034101 -0.033950382168404757 0.0026956919735918439 0.017993244988222919 -0.015660607496178463 -0.0167686817344899 -0.043978526574723863 0.0011270149917849764 -0.011044135748555787 -0.0077203842387958011 -0.0056459740813200677
leaf_weight=18 15.999999999999998 18 26 21 19 14.999999999999998 15.000000000000002 15.999999999999998 15.000000000000002 14.999999999999998 19 14.999999999999998 17 22 19 22 14.999999999999998
leaf_count=18 16 18 26 21 19 15 15 16 15 15 19 15 17 22 19 22 15
internal_value=0 -0.00802789 0.0537104 0.00368344 -0.023971 0.000175134 -0.0159072 -0.0343611 0.0048153 0.0084444 -0.00974692 -0.0235048 -0.0391164 0.00457325 -0.00627391 -0.00400805 -0.00147514
internal_weight=0 281 42 162 119 141 67 52 82 52 37 30 33 37 59 40 30
internal_count=323 281 42 162 119 141 67 52 82 52 37 30 33 37 59 40 30
is_linear=0
shrinkage=0.05


Tree=11
num_leaves=17
num_cat=0
split_feature=5 12 5 12 7 5 11 5 0 12 8 6 12 7 10 6
split_gain=50.277 18.9406 6.11663 4.95654 3.66504 1.98439 1.62433 1.3922 0.97004 0.635309 1.25807 0.510708 0.392049 0.243566 0.186163 0.145987
threshold=6.9740000000000011 14.475000000000001 7.4620000000000006 7.2300000000000013 1.9963500000000003 6.5925000000000002 365.23000000000008 6.0765000000000011 11.369150000000001 10.040000000000001 4.5000000000000009 75.500000000000014 19.605000000000004 4.4582500000000005 19.050000000000004 90.15000000000002
decision_type=2 2 2 2 2 2 2 2 2 2 2 2 2 2 2 2
left_child=1 3 -2 5 8 -1 -6 11 12 10 -9 13 -3 -5 -11 -8
right_child=2 4 -4 7 6 -7 15 9 -10 14 -12 -13 -14 -15 -16 -17
leaf_value=0.0096241636505431452 0.036802732171835724 -0.02054265429576238 0.076624749104181933 0.00064604832732584327 -0.024703673898424632 0.032553520426154135 -0.0047694503574779168 -0.0016611273400485517 -0.040042960366488183 0.0021594885271042585 0.017305777947573611 -0.014476154481663422 -0.031126316920632408 -0.0073871185466566174 -0.005467825449886732 -0.010967649681199539
leaf_weight=23 27 14.999999999999998 14.999999999999998 15.999999999999998 23 15.999999999999998 19 17 22 15.999999999999998 18 17 21 23 15.999999999999998 19
leaf_count=23 27 15 15 16 23 16 19 17 22 16 18 17 21 23 16 19
internal_value=0 -0.00762649 0.0510249 0.00349927 -0.0227725 0.0190311 -0.0142162 -0.00142545 -0.0317713 0.00343778 0.00809328 -0.00724396 -0.0267165 -0.00409146 -0.00165417 -0.00786855
internal_weight=0 281 42 162 119 39 61 123 58 67 35 56 36 39 32 38
internal_count=323 281 42 162 119 39 61 123 58 67 35 56 36 39 32 38
is_linear=0
shrinkage=0.05


Tree=12
num_leaves=18
num_cat=0
split_feature=12 12 12 9 12 0 12 0 9 4 7 11 7 2 7 4 6
split_gain=43.864 11.9971 11.825 3.02783 2.37962 2.32686 1.51807 1.87995 0.971288 0.787099 0.78617 0.756095 0.666834 0.505619 0.395813 0.385514 0.209023
threshold=7.7000000000000011 5.1150000000000011 16.320000000000004 279.50000000000006 3.7450000000000006 7.4649500000000009 9.7250000000000032 0.12299 298.00000000000006 0.67500000000000016 2.2399500000000003 377.42000000000007 1.7760500000000004 4.8950000000000005 3.9258500000000005 0.45100000000000007 79.750000000000014
decision_type=2 2 2 2 2 2 2 2 2 2 2 2 2 2 2 2 2
left_child=1 4 6 -3 -1 11 7 15 -8 -7 -10 -4 -11 -5 16 -2 -12
right_child=2 3 5 13 -6 9 8 -9 10 12 14 -13 -14 -15 -16 -17 -18
leaf_value=0.070849377612272876 0.0038746032310882578 0.035159455798566344 -0.024118464009925015 0.016029449363898798 0.042685457269350691 -0.02361746235440175 0.002728407757563724 0.020038178780426585 -0.017119812575708094 -0.045099595189094538 0.0019036544753950749 -0.011362572806851511 -0.030190605620543161 0.0040101970304801523 -0.010631019037894228 -0.0072828604311992728 -0.0058274337711433574
leaf_weight=15.000000000000002 16.000000000000004 15.999999999999998 21 14.999999999999998 14.999999999999998 14.999999999999998 27 14.999999999999998 19 15.000000000000002 17 26 14.999999999999998 21 22 14.999999999999998 18
leaf_count=15 16 16 21 15 15 15 27 15 19 15 17 26 15 21 22 15 18
internal_value=0 0.0315882 -0.0107478 0.0170617 0.0567674 -0.0248427 -0.00204497 0.00550703 -0.0054177 -0.0329692 -0.00831172 -0.017062 -0.0376451 0.00901822 -0.00537569 -0.00152417 -0.00207233
internal_weight=0 82 241 52 30 92 149 46 103 45 76 47 30 36 57 31 35
internal_count=323 82 241 52 30 92 149 46 103 45 76 47 30 36 57 31 35
is_linear=0
shrinkage=0.05


Tree=13
num_leaves=17
num_cat=0
split_feature=5 12 5 12 4 12 5 11 12 7 0 0 7 6 5 7
split_gain=42.1059 15.2825 5.17037 3.91443 3.14389 2.02042 1.44089 0.667444 0.665845 0.805445 0.571648 0.223801 0.223757 0.46507 0.14237 0.108981
threshold=6.9740000000000011 14.475000000000001 7.4620000000000006 5.6000000000000005 0.6070000000000001 19.605000000000004 6.1215000000000011 390.46500000000009 10.040000000000001 3.8611500000000007 11.369150000000001 6.7280450000000007 2.5005500000000005 57.400000000000006 5.8875000000000002 5.7954500000000015
decision_type=2 2 2 2 2 2 2 2 2 2 2 2 2 2 2 2
left_child=1 3 -2 -1 7 11 12 -3 9 -8 -7 -6 -5 14 -14 -11
right_child=2 4 -4 6 5 10 8 -9 -10 15 -12 -13 13 -15 -16 -17
leaf_value=0.026492604934901465 0.033618961881708216 -0.016460061622783542 0.070231345891952512 -0.00018471585741887492 -0.014742354387417438 -0.029316641381857075 0.016617814781707957 -0.0039709151044245005 -0.0010114663908787971 0.0064140554124605832 -0.041524259395459118 -0.022545360828585485 -0.0071093730845799051 -0.014037150020400683 -0.00059315073303878307 0.00048179664959510171
leaf_weight=15.999999999999998 27 20 14.999999999999998 18 20 22 19 23 29 16.000000000000004 17 17 14.999999999999998 14.999999999999998 19 14.999999999999998
leaf_count=16 27 20 15 18 20 22 19 23 29 16 17 17 15 15 19 15
internal_value=0 -0.0069793 0.0466948 0.00301449 -0.0205843 -0.0266973 0.000441542 -0.00977982 0.00501592 0.00851181 -0.0346379 -0.0183275 -0.00495213 -0.00670342 -0.00346795 0.00354361
internal_weight=0 281 42 162 119 76 146 43 79 50 39 37 67 49 34 31
internal_count=323 281 42 162 119 76 146 43 79 50 39 37 67 49 34 31
is_linear=0
shrinkage=0.05


Tree=14
num_leaves=16
num_cat=0
split_feature=5 12 12 5 4 0 5 12 11 12 2 10 7 7 10
split_gain=38.0006 13.7924 4.79346 3.60713 2.83736 1.85031 1.13965 0.873074 0.602368 0.427244 0.640105 0.171134 0.167999 0.100362 0.0966921
threshold=6.9740000000000011 14.475000000000001 4.7600000000000007 6.6785000000000005 0.6070000000000001 11.369150000000001 6.0765000000000011 18.930000000000003 390.46500000000009 10.040000000000001 6.0100000000000007 19.400000000000002 2.5005500000000005 1.9963500000000003 19.650000000000002
decision_type=2 2 2 2 2 2 2 2 2 2 2 2 2 2 2
left_child=1 3 -2 6 8 7 12 13 -3 10 -8 -11 -1 -6 -14
right_child=2 4 -4 -5 5 -7 9 -9 -10 11 -12 -13 14 -15 -16
leaf_value=-0.0009410655329702422 0.065892686229199179 -0.015637058466672901 0.031109234189184817 0.022196492907546817 -0.017682952259977656 -0.037988197874455232 0.0014027825130532232 -0.027442608986981216 -0.0037723694543313722 0.0028221763220305238 0.012530667173753805 -0.0047306087582061687 -0.0050252864307437379 -0.011899015903472901 -0.0098746921812348509
leaf_weight=15.999999999999998 15.999999999999998 20 26 21 15.000000000000002 21 28 25 23 15.000000000000002 24 14.999999999999998 26 14.999999999999998 17
leaf_count=16 16 20 26 21 15 21 28 25 23 15 24 15 26 15 17
internal_value=0 -0.00663033 0.0443601 0.00286376 -0.0195551 -0.0253625 -1.55803e-05 -0.0205417 -0.00929083 0.00379741 0.00653873 -0.000954216 -0.00531499 -0.014791 -0.00694249
internal_weight=0 281 42 162 119 76 141 55 43 82 52 30 59 30 43
internal_count=323 281 42 162 119 76 141 55 43 82 52 30 59 30 43
is_linear=0
shrinkage=0.05


Tree=15
num_leaves=17
num_cat=0
split_feature=5 12 5 12 4 0 5 5 12 6 11 6 9 7 10 7
split_gain=34.2955 12.4477 4.46117 3.3842 2.56072 1.6699 1.42634 0.991496 0.78795 0.553829 0.543637 0.414541 0.343334 0.238689 0.124268 0.0905765
threshold=6.9740000000000011 14.475000000000001 7.4620000000000006 7.2300000000000013 0.6070000000000001 11.369150000000001 6.5925000000000002 6.0765000000000011 18.930000000000003 84.90000000000002 390.46500000000009 76.950000000000017 361.00000000000006 4.4582500000000005 18.100000000000005 1.9963500000000003
decision_type=2 2 2 2 2 2 2 2 2 2 2 2 2 2 2 2
left_child=1 3 -2 6 10 8 -1 11 15 12 -3 13 14 -5 -9 -6
right_child=2 4 -4 7 5 -7 -8 9 -10 -11 -12 -13 -14 -15 -16 -17
leaf_value=0.0075792750404418815 0.029996069341346073 -0.014855205663479865 0.064004869659741712 0.00087591429679271062 -0.016798804576198256 -0.036088788509368898 0.027018995420075954 0.006275559645146131 -0.026070478256791832 0.010255742415837529 -0.0035837510114778643 -0.013371252225091061 -0.0060105819909949789 -0.0068677733443716239 0.00011350833843203469 -0.011304064796616635
leaf_weight=23 27 20 14.999999999999998 17 15.000000000000002 21 15.999999999999998 14.999999999999998 25 18 23 14.999999999999998 15.999999999999998 24 18 14.999999999999998
leaf_count=23 27 20 15 17 15 21 16 15 25 18 23 15 16 24 18 15
internal_value=0 -0.00629881 0.0421421 0.00272057 -0.0185773 -0.0240943 0.0155545 -0.00134873 -0.0195146 0.00275538 -0.00882629 -0.00625901 1.4761e-07 -0.00365698 0.00291444 -0.0140514
internal_weight=0 281 42 162 119 76 39 123 55 67 43 56 49 41 33 30
internal_count=323 281 42 162 119 76 39 123 55 67 43 56 49 41 33 30
is_linear=0
shrinkage=0.05


Tree=16
num_leaves=17
num_cat=0
split_feature=5 12 12 12 4 12 5 5 5 4 11 6 7 6 0 5
split_gain=30.9517 11.234 4.24643 3.09378 2.31105 1.52229 1.02915 0.603322 0.555861 0.496696 0.490633 0.207557 0.182807 0.406924 0.168295 0.123374
threshold=6.9740000000000011 14.475000000000001 5.1150000000000011 5.6000000000000005 0.6070000000000001 19.605000000000004 6.1215000000000011 6.221000000000001 6.5585000000000013 0.69650000000000001 390.46500000000009 59.150000000000006 2.5005500000000005 57.400000000000006 6.7280450000000007 5.8875000000000002
decision_type=2 2 2 2 2 2 2 2 2 2 2 2 2 2 2 2
left_child=1 3 -2 -1 10 14 12 -8 11 -7 -3 -9 -5 15 -6 -14
right_child=2 4 -4 6 5 9 7 8 -10 -11 -12 -13 13 -15 -16 -17
leaf_value=0.023457007762044669 0.057527171192984831 -0.014112445356440732 0.025584882821725764 4.7935425148655973e-05 -0.012515537589788437 -0.035006248596168701 0.01283354767219862 0.0026622435029007886 0.008847638741135597 -0.023687418622689117 -0.0034045633353778854 -0.0043327938532456761 -0.0062074895886083444 -0.012704126940419279 -0.019282092603252216 -0.00014154933589069469
leaf_weight=15.999999999999998 19 20 23 18 20 21 15.999999999999998 19 20 18 23 24 14.999999999999998 14.999999999999998 17 19
leaf_count=16 19 20 23 18 20 21 16 19 20 18 23 24 15 15 17 19
internal_value=0 -0.00598387 0.040035 0.00258455 -0.0176484 -0.0228896 0.000297152 0.0041631 0.00196108 -0.0297822 -0.00838497 -0.00124196 -0.00426121 -0.00584416 -0.0156245 -0.0028177
internal_weight=0 281 42 162 119 76 146 79 63 39 43 43 67 49 37 34
internal_count=323 281 42 162 119 76 146 79 63 39 43 43 67 49 37 34
is_linear=0
shrinkage=0.05


Tree=17
num_leaves=16
num_cat=0
split_feature=5 12 5 12 4 0 5 5 12 5 11 6 9 7 7
split_gain=27.9339 10.1387 3.92715 2.81593 2.08572 1.43022 1.22093 0.821248 0.635881 0.510745 0.442796 0.370578 0.312074 0.211293 0.0810404
threshold=6.9740000000000011 14.475000000000001 7.4140000000000006 7.2300000000000013 0.6070000000000001 11.369150000000001 6.5925000000000002 6.0765000000000011 18.930000000000003 6.221000000000001 390.46500000000009 76.950000000000017 394.50000000000006 4.4582500000000005 1.9963500000000003
decision_type=2 2 2 2 2 2 2 2 2 2 2 2 2 2 2
left_child=1 3 -2 6 10 8 -1 11 14 -9 -3 13 -11 -5 -6
right_child=2 4 -4 7 5 -7 -8 9 -10 12 -12 -13 -14 -15 -16
leaf_value=0.0067835986533242732 0.024792396579869092 -0.013406823039986193 0.055687644581000006 0.00099951196461915974 -0.015197756408403313 -0.032845488155171985 0.024769120686687532 0.0091707255201254161 -0.023396172076463703 0.0031373667634195753 -0.0032343351484640788 -0.012450045434137186 -0.0051030842401087288 -0.0062862452876288446 -0.010000308896414936
leaf_weight=23 24 20 18 17 15.000000000000002 21 15.999999999999998 20 25 27 23 14.999999999999998 20 24 14.999999999999998
leaf_count=23 24 20 18 17 15 21 16 20 25 27 23 15 20 24 15
internal_value=0 -0.00568468 0.0380332 0.00245532 -0.016766 -0.0217451 0.0141623 -0.00125664 -0.0175068 0.00247853 -0.00796572 -0.00572552 -0.000369208 -0.00326532 -0.012599
internal_weight=0 281 42 162 119 76 39 123 55 67 43 56 47 41 30
internal_count=323 281 42 162 119 76 39 123 55 67 43 56 47 41 30
is_linear=0
shrinkage=0.05


Tree=18
num_leaves=16
num_cat=0
split_feature=5 12 12 5 0 5 11 4 7 12 12 6 12 6 7
split_gain=25.2103 9.15019 3.72601 2.58414 1.8833 0.744225 0.737533 0.585089 0.645145 0.37538 0.742466 0.341984 0.314252 0.161603 0.319767
threshold=6.9740000000000011 14.475000000000001 5.1150000000000011 6.6785000000000005 7.4649500000000009 6.1525000000000007 377.42000000000007 0.67500000000000016 1.7760500000000004 11.185 9.2650000000000023 92.500000000000014 6.7250000000000005 45.650000000000013 2.5005500000000005
decision_type=2 2 2 2 2 2 2 2 2 2 2 2 2 2 2
left_child=1 3 -2 5 6 13 -3 -6 -9 10 12 -8 -7 -1 -15
right_child=2 4 -4 -5 7 9 11 8 -10 -11 -12 -13 -14 14 -16
leaf_value=-0.00084069381500112604 0.052516855652395049 -0.017141909842137936 0.022595874094606741 0.018695833817833945 -0.015599238325376064 0.0067587915031860277 -0.0020342512876682338 -0.034908509751160936 -0.02086829650733206 -0.0031726852233987302 0.015000557166834672 -0.01095469204962931 -0.0022443833383953291 -0.00065589564878286595 -0.0094718486788527428
leaf_weight=29 19 27 23 21 15.999999999999998 18 21 14.999999999999998 18 15.999999999999998 14.999999999999998 22 21 18 24
leaf_count=29 19 27 23 21 16 18 21 15 18 16 15 22 21 18 24
internal_value=0 -0.00540045 0.0361316 0.00233255 -0.0159277 -0.000104532 -0.0106651 -0.0234458 -0.0272502 0.00355388 0.00554694 -0.0065982 0.00191093 -0.00371142 -0.00569358
internal_weight=0 281 42 162 119 141 70 49 33 70 54 43 39 71 42
internal_count=323 281 42 162 119 141 70 49 33 70 54 43 39 71 42
is_linear=0
shrinkage=0.05


Tree=19
num_leaves=16
num_cat=0
split_feature=12 12 5 12 0 5 11 12 7 6 12 6 10 8 5
split_gain=22.941 10.1439 5.83539 1.79688 1.77861 0.722374 0.627524 0.576572 0.646922 0.30326 0.276254 0.180321 0.167117 0.183298 0.0831019
threshold=5.1150000000000011 14.795000000000002 7.096000000000001 3.7450000000000006 7.4649500000000009 6.1525000000000007 377.42000000000007 11.185 3.2310000000000003 92.500000000000014 21.490000000000006 59.150000000000006 16.850000000000005 4.5000000000000009 6.416500000000001
decision_type=2 2 2 2 2 2 2 2 2 2 2 2 2 2 2
left_child=3 2 5 -1 6 12 -3 8 -7 -8 -6 14 -2 -14 -10
right_child=1 4 -4 -5 10 7 9 -9 11 -11 -12 -13 13 -15 -16
leaf_value=0.053880421221256247 0.0006541709807750427 -0.016619470636718547 0.030938931423075064 0.029406792620817818 -0.020160495391714255 0.014712207652628423 -0.001574187944917118 -0.0037621622545305983 0.0022550494642928245 -0.010557470268133515 -0.027854471020400524 -0.0014974226884078236 -0.0076460751763079322 -0.0019744391922421499 0.0071457677300235155
leaf_weight=15.000000000000002 19 26 17 14.999999999999998 28 14.999999999999998 17 22 15.999999999999998 21 20 15.999999999999998 28 29 19
leaf_count=15 19 26 17 15 28 15 17 22 16 21 20 16 28 29 19
internal_value=0 -0.00426385 0.00305442 0.0416436 -0.0160907 0.000163949 -0.010634 0.00324781 0.00558447 -0.00653863 -0.0233663 0.00289984 -0.00340684 -0.00476051 0.00491001
internal_weight=0 293 181 30 112 164 64 88 66 38 48 51 76 57 35
internal_count=323 293 181 30 112 164 64 88 66 38 48 51 76 57 35
is_linear=0
shrinkage=0.05


Tree=20
num_leaves=16
num_cat=0
split_feature=5 12 10 12 4 0 6 5 5 12 2 6 9 2 11
split_gain=20.738 7.41138 3.35836 2.13883 1.61754 1.15083 1.05412 0.62627 0.530702 0.515751 0.358551 0.334934 0.259104 0.0974098 0.00744555
threshold=6.9740000000000011 14.475000000000001 14.800000000000002 7.2300000000000013 0.6070000000000001 11.369150000000001 36.900000000000013 6.0765000000000011 6.221000000000001 18.930000000000003 8.3500000000000032 76.950000000000017 394.50000000000006 8.0050000000000026 378.31500000000005
decision_type=2 2 2 2 2 2 2 2 2 2 2 2 2 2 2
left_child=1 3 -2 6 10 9 -1 11 -9 14 -3 13 -10 -5 -6
right_child=2 4 -4 7 5 -7 -8 8 12 -11 -12 -13 -14 -15 -16
leaf_value=0.0057657190617950022 0.051739381824930514 -0.012860497211416563 0.022231988870987186 -0.0045882744839988079 -0.011323112087945141 -0.028714536236865179 0.022662168170015019 0.0089099296467611572 0.0023805463876299289 -0.020259326964616776 -0.0032807341302811565 -0.011468990255768101 -0.0051280535059049729 0.00047149801044724885 -0.009747723132992785
leaf_weight=24 14.999999999999998 14.999999999999998 27 26 15.000000000000002 21 14.999999999999998 20 27 25 28 14.999999999999998 20 14.999999999999998 14.999999999999998
leaf_count=24 15 15 27 26 15 21 15 20 27 25 28 15 20 15 15
internal_value=0 -0.00489806 0.0327703 0.00206151 -0.0143724 -0.0187572 0.0122644 -0.00117354 0.00208824 -0.0149554 -0.00662251 -0.00507603 -0.000814603 -0.00273714 -0.0105354
internal_weight=0 281 42 162 119 76 39 123 67 55 43 56 47 41 30
internal_count=323 281 42 162 119 76 39 123 67 55 43 56 47 41 30
is_linear=0
shrinkage=0.05


Tree=21
num_leaves=18
num_cat=0
split_feature=12 12 5 12 4 0 5 12 7 9 12 2 6 8 6 0 5
split_gain=19.3785 8.23733 4.72202 1.54059 1.51844 0.818458 0.578051 0.492633 0.599773 0.363517 0.494875 0.328403 0.159176 0.148944 0.207966 0.0701001 0.0694134
threshold=5.1150000000000011 14.795000000000002 7.096000000000001 3.7450000000000006 0.6070000000000001 13.636600000000001 6.1525000000000007 11.185 3.2310000000000003 453.00000000000006 19.605000000000004 9.1250000000000018 59.150000000000006 4.5000000000000009 45.650000000000013 1.3081500000000001 6.416500000000001
decision_type=2 2 2 2 2 2 2 2 2 2 2 2 2 2 2 2 2
left_child=3 2 6 -1 11 9 13 8 -8 -6 -11 -3 16 14 -2 -15 -10
right_child=1 4 -4 -5 5 -7 7 -9 12 10 -12 -13 -14 15 -16 -17 -18
leaf_value=0.049604411531860626 -0.0018569351088157612 -0.012314273568335921 0.027759666960029041 0.026943178549408916 -0.0096967314195353545 -0.028889005770906806 0.013783161441485087 -0.0036451909013769847 0.0018715546175371855 -0.013832763687747976 -0.025082945560707767 -0.0030664873542264105 -0.0017220172914676369 -0.0028180748872135 -0.0094692319813047491 0.001416121652308742 0.0063413619823557768
leaf_weight=15.000000000000002 19 15.999999999999998 17 14.999999999999998 15.999999999999998 15.999999999999998 14.999999999999998 22 15.999999999999998 23 17 24 15.999999999999998 23 17 17 19
leaf_count=15 19 16 17 15 16 16 15 22 16 23 17 24 16 23 17 17 19
internal_value=0 -0.00391882 0.00267594 0.0382738 -0.0145764 -0.0189158 7.58008e-05 0.00283445 0.00499433 -0.0160663 -0.0186141 -0.0067656 0.00240938 -0.00311843 -0.00545163 -0.00101854 0.00429802
internal_weight=0 293 181 30 112 72 164 88 66 56 40 40 51 76 36 40 35
internal_count=323 293 181 30 112 72 164 88 66 56 40 40 51 76 36 40 35
is_linear=0
shrinkage=0.05


Tree=22
num_leaves=18
num_cat=0
split_feature=12 12 5 12 0 12 0 11 5 4 7 9 4 5 6 4 7
split_gain=17.4891 7.43419 4.26162 1.39039 1.37366 0.529892 0.824809 0.51427 0.480473 0.43448 0.382927 0.364101 0.331721 0.258031 0.150972 0.184975 0.103121
threshold=5.1150000000000011 14.795000000000002 7.096000000000001 3.7450000000000006 7.4649500000000009 9.7250000000000032 0.35086500000000004 377.42000000000007 6.5585000000000013 0.67500000000000016 1.7760500000000004 298.00000000000006 0.48850000000000005 5.7580000000000009 73.450000000000017 0.60100000000000009 6.4007500000000013
decision_type=2 2 2 2 2 2 2 2 2 2 2 2 2 2 2 2 2
left_child=3 2 5 -1 7 6 8 -3 12 -6 -11 -7 16 -9 -13 -16 -2
right_child=1 4 -4 -5 9 11 -8 13 -10 10 -12 14 -14 -15 15 -17 -18
leaf_value=0.047124190765122559 0.003127935400698334 -0.014470654109922741 0.026371683443293853 0.025596019526322684 -0.013185777862866718 0.0025661489237909733 0.013098906207596885 -0.010446626966198287 0.0083114187093451617 -0.02934886823097865 -0.018531968325583469 -0.0013184234104119241 -0.0081156166937823102 -0.0020173909223597983 -0.010380935203284026 -0.0034735539872642789 -0.0022574968148546758
leaf_weight=15.000000000000002 20 26 17 14.999999999999998 14.999999999999998 23 15.999999999999998 14.999999999999998 14.999999999999998 14.999999999999998 18 20 14.999999999999998 23 18 21 15.999999999999998
leaf_count=15 20 26 17 15 15 23 16 15 15 15 18 20 15 23 18 21 16
internal_value=0 -0.00372288 0.00254215 0.0363601 -0.0138476 7.20108e-05 0.00291413 -0.00905213 0.000445088 -0.0202416 -0.0234487 -0.0027701 -0.00186854 -0.00534472 -0.00485034 -0.00666158 0.00073441
internal_weight=0 293 181 30 112 164 82 64 66 48 33 82 51 38 59 39 36
internal_count=323 293 181 30 112 164 82 64 66 48 33 82 51 38 59 39 36
is_linear=0
shrinkage=0.05


Tree=23
num_leaves=16
num_cat=0
split_feature=12 12 5 4 4 0 5 12 12 11 5 2 7 10 8
split_gain=15.7839 6.70935 3.84611 1.27645 1.2581 0.696054 0.494995 0.407836 0.547346 0.314408 0.303887 0.211294 0.277245 0.140297 0.157341
threshold=5.1150000000000011 14.795000000000002 7.096000000000001 0.6070000000000001 0.44395000000000007 13.636600000000001 6.1525000000000007 11.185 9.4500000000000011 377.42000000000007 5.7580000000000009 7.0150000000000015 6.0721500000000006 16.850000000000005 4.5000000000000009
decision_type=2 2 2 2 2 2 2 2 2 2 2 2 2 2 2
left_child=4 2 6 10 -1 9 13 8 11 -5 -3 12 -8 -2 -15
right_child=1 3 -4 5 -6 -7 7 -9 -10 -11 -12 -13 -14 14 -16
leaf_value=0.024302894548357771 0.00083345511045895132 -0.011331347608938815 0.025053099016932881 -0.018388752639293671 0.044781303852796557 -0.026331068808212878 0.0080969858179359058 -0.0032744585568169979 0.012316823208375891 -0.010891017330617741 -0.0024354359600692989 -0.0030387806426733733 -0.00099626095810284219 -0.0068011986912357063 -0.0015464764608246885
leaf_weight=15.000000000000002 19 15.999999999999998 17 27 14.999999999999998 15.999999999999998 19 22 17 29 24 14.999999999999998 14.999999999999998 28 29
leaf_count=15 19 16 17 27 15 16 19 22 17 29 24 15 15 28 29
internal_value=0 -0.00353673 0.00241504 -0.0131552 0.0345421 -0.0171338 6.84102e-05 0.00262119 0.00458641 -0.014506 -0.0059938 0.00190443 0.00408526 -0.00288744 -0.00412774
internal_weight=0 293 181 112 30 72 164 88 66 56 40 49 34 76 57
internal_count=323 293 181 112 30 72 164 88 66 56 40 49 34 76 57
is_linear=0
shrinkage=0.05


Tree=24
num_leaves=18
num_cat=0
split_feature=12 12 5 6 0 12 12 8 12 4 7 9 6 0 6 6 4
split_gain=14.2449 6.05519 3.47112 1.30135 1.16403 0.463415 0.460056 0.827708 0.396742 0.374469 0.337526 0.329595 0.321981 0.262489 0.172518 0.137692 0.160044
threshold=5.1150000000000011 14.795000000000002 7.096000000000001 35.800000000000004 7.4649500000000009 21.490000000000006 9.7250000000000032 6.5000000000000009 7.0650000000000004 0.67500000000000016 1.7760500000000004 298.00000000000006 84.90000000000002 0.64730500000000013 43.000000000000007 73.450000000000017 0.60100000000000009
decision_type=2 2 2 2 2 2 2 2 2 2 2 2 2 2 2 2 2
left_child=3 2 6 -1 5 12 7 8 -2 -6 -11 -8 -3 -14 -10 -13 -17
right_child=1 4 -4 -5 9 -7 11 -9 14 10 -12 15 13 -15 -16 16 -18
leaf_value=0.022401279939028119 0.0056579944900358508 0.00052035514265298839 0.023800444646793255 0.043228708977500599 -0.011832941782971224 -0.01515743777375011 0.0024938727162130501 0.01332999958967169 0.00068536027154715909 -0.026900146553913751 -0.016744708722560769 -0.0011894345331893421 -0.0035366976385315264 -0.012611355342190057 -0.0055763132065873256 -0.0097518154575179025 -0.0033267754773121509
leaf_weight=15.000000000000002 23 14.999999999999998 17 14.999999999999998 14.999999999999998 17 23 14.999999999999998 22 14.999999999999998 18 20 14.999999999999998 17 22 18 21
leaf_count=15 23 15 17 15 15 17 23 15 22 15 18 20 15 17 22 18 21
internal_value=0 -0.0033599 0.00229429 0.032815 -0.0124975 -0.00808304 6.49898e-05 0.00271321 0.000336312 -0.0183834 -0.0213608 -0.00258323 -0.00552422 -0.00835761 -0.00244548 -0.00456243 -0.00629218
internal_weight=0 293 181 30 112 64 164 82 67 48 33 82 47 32 44 59 39
internal_count=323 293 181 30 112 64 164 82 67 48 33 82 47 32 44 59 39
is_linear=0
shrinkage=0.05


Tree=25
num_leaves=16
num_cat=0
split_feature=12 12 5 12 4 0 5 6 6 2 11 7 11 6 7
split_gain=12.8561 5.46481 3.13268 1.28899 1.05877 0.595084 0.436678 0.406078 0.324567 0.290124 0.285108 0.240647 0.177127 0.122255 0.19088
threshold=5.1150000000000011 14.795000000000002 7.096000000000001 3.7450000000000006 0.6070000000000001 13.636600000000001 6.0765000000000011 89.700000000000017 74.65000000000002 9.1250000000000018 377.42000000000007 3.9736500000000006 392.21500000000009 45.650000000000013 3.1322000000000005
decision_type=2 2 2 2 2 2 2 2 2 2 2 2 2 2 2
left_child=3 2 6 -1 9 10 13 8 11 -3 -6 -8 -13 -2 -15
right_child=1 4 -4 -5 5 -7 7 -9 -10 -11 -12 12 -14 14 -16
leaf_value=0.041538393131146822 -0.00048949761642143135 -0.010565598565153779 0.022610422026585131 0.020810095878938836 -0.016763743211480758 -0.024000140442512932 0.0070808789765578698 0.0094068375183269382 -0.0045045187950811605 -0.0018734740947062773 -0.0096239188396982089 -0.0029991256061475727 0.0034346696639777686 -0.0021297606720548611 -0.0093796746960530687
leaf_weight=15.000000000000002 25 15.999999999999998 17 14.999999999999998 27 15.999999999999998 20 15.999999999999998 22 24 29 20 23 23 14.999999999999998
leaf_count=15 25 16 17 15 27 16 20 16 22 24 29 20 23 23 15
internal_value=0 -0.0031919 0.00217957 0.0311742 -0.0118726 -0.0154961 6.17402e-05 0.00209943 0.000723918 -0.00535032 -0.0130663 0.00254972 0.000442207 -0.00320503 -0.00499157
internal_weight=0 293 181 30 112 72 164 101 85 40 56 63 43 63 38
internal_count=323 293 181 30 112 72 164 101 85 40 56 63 43 63 38
is_linear=0
shrinkage=0.05


Tree=26
num_leaves=16
num_cat=0
split_feature=5 12 10 4 4 0 10 6 12 12 0 6 4 10 5
split_gain=11.6836 3.88853 2.7939 1.37003 0.928237 0.719359 0.703136 0.588634 0.347793 0.329036 0.274633 0.204502 0.178228 0.128496 0.00147087
threshold=6.9740000000000011 14.475000000000001 16.050000000000004 0.62750000000000006 0.6070000000000001 11.369150000000001 17.850000000000005 73.450000000000017 18.930000000000003 7.0650000000000004 0.21848000000000004 65.350000000000009 0.44850000000000007 19.400000000000002 6.1835000000000013
decision_type=2 2 2 2 2 2 2 2 2 2 2 2 2 2 2
left_child=1 3 -2 6 10 8 9 12 14 -1 -3 -11 -8 -14 -6
right_child=2 4 -4 -5 5 -7 7 -9 -10 11 -12 -13 13 -15 -16
leaf_value=0.010386449136422017 0.03878576133988406 0.00052248550928197808 0.012876249509661096 0.015254396677482874 -0.0068752499607702081 -0.021733192052869572 -0.0036932970612094957 -0.0095479368387411043 -0.015210466732736678 -0.001461219962636408 -0.0077443466478682782 0.0059157190734849263 0.0042110602186188444 -0.001326427894528024 -0.0075754573009908207
leaf_weight=15.999999999999998 19 15.999999999999998 23 15.999999999999998 15.000000000000002 21 26 24 25 21 27 17 22 20 14.999999999999998
leaf_count=16 19 16 23 16 15 21 26 24 25 21 27 17 22 20 15
internal_value=0 -0.00367645 0.0245972 0.00136465 -0.0105391 -0.0138608 -0.000157511 -0.00281589 -0.010855 0.00437157 -0.00466832 0.00183899 -0.000439867 0.00157416 -0.00722535
internal_weight=0 281 42 162 119 76 146 92 55 54 43 38 68 42 30
internal_count=323 281 42 162 119 76 146 92 55 54 43 38 68 42 30
is_linear=0
shrinkage=0.05


Tree=27
num_leaves=19
num_cat=0
split_feature=12 12 5 6 0 12 0 12 9 5 4 4 7 6 11 6 4 11
split_gain=10.9073 4.42812 2.52191 1.20283 0.916622 0.393553 0.888695 0.3806 0.362014 0.354625 0.30849 0.289211 0.281239 0.267058 0.220787 0.162335 0.0939299 0.0844005
threshold=5.1150000000000011 14.795000000000002 7.096000000000001 35.800000000000004 7.4649500000000009 10.040000000000001 0.42171000000000008 21.490000000000006 298.00000000000006 6.5585000000000013 0.67500000000000016 0.49100000000000005 1.7760500000000004 84.90000000000002 377.42000000000007 73.450000000000017 0.60100000000000009 393.42500000000007
decision_type=2 2 2 2 2 2 2 2 2 2 2 2 2 2 2 2 2 2
left_child=3 2 5 -1 7 6 9 13 -7 11 -6 17 -12 -3 -15 -10 -17 -2
right_child=1 4 -4 -5 10 8 -8 -9 15 -11 12 -13 -14 14 -16 16 -18 -19
leaf_value=0.018702685261766112 -0.0023680245264104624 0.0009870868548750879 0.020226453091291823 0.038726266548037534 -0.010031762886792422 0.0028576912358403207 0.013385716738800207 -0.013247996347875896 -0.00095523199630214979 0.0062893190313308665 -0.023736023058493934 -0.0078914935968350617 -0.014465958447868211 -0.011519717661043009 -0.0031970585258129765 -0.0093735603834776329 -0.0043184184546407782 0.0023226911826482555
leaf_weight=15.000000000000002 17 14.999999999999998 17 14.999999999999998 14.999999999999998 22 14.999999999999998 17 19 17 14.999999999999998 14.999999999999998 18 14.999999999999998 17 17 20 22
leaf_count=15 17 15 17 15 15 22 15 17 19 17 15 15 18 15 17 17 20 22
internal_value=0 -0.00294005 0.00189517 0.0287145 -0.0107541 -5.02766e-06 0.00232761 -0.0068368 -0.00257691 -8.60833e-06 -0.0159772 -0.00199129 -0.0186796 -0.00451786 -0.0070983 -0.00471193 -0.00664105 0.00027802
internal_weight=0 293 181 30 112 164 86 64 78 71 48 54 33 47 32 56 37 39
internal_count=323 293 181 30 112 164 86 64 78 71 48 54 33 47 32 56 37 39
is_linear=0
shrinkage=0.05


Tree=28
num_leaves=17
num_cat=0
split_feature=5 12 6 0 5 6 7 11 4 12 4 5 9 11 6 6
split_gain=9.91621 4.81291 5.08796 1.87341 0.811208 0.683703 0.495205 0.372926 0.326812 0.373789 0.292104 0.195817 0.1382 0.115568 0.0726264 0.0646623
threshold=7.4140000000000006 10.040000000000001 84.90000000000002 6.134030000000001 6.7540000000000004 84.90000000000002 3.9258500000000005 377.42000000000007 0.67500000000000016 19.605000000000004 0.50850000000000006 6.4860000000000015 400.00000000000006 393.42500000000007 69.200000000000003 53.400000000000013
decision_type=2 2 2 2 2 2 2 2 2 2 2 2 2 2 2 2
left_child=1 2 4 5 10 6 14 -7 -5 -10 11 13 -9 -1 -3 -8
right_child=-2 3 -4 8 -6 7 15 12 9 -11 -12 -13 -14 -15 -16 -17
leaf_value=-0.0043543730921502335 0.036062454515033301 0.0068958550647948876 0.032143908174475655 -0.009336925401691008 0.0091103998392268459 -0.011507258833652098 -0.0021420907927677032 -0.00055809509666527018 -0.011389931515954875 -0.02126135240224275 -0.0072683823729554819 0.0054762842785567051 -0.0065604267874732614 0.0010339110371811937 0.0021318501443602146 -0.0067116118269041182
leaf_weight=17 18 15.999999999999998 15.999999999999998 22 27 28 16.000000000000004 17 17 22 14.999999999999998 14.999999999999998 22 24 15.999999999999998 14.999999999999998
leaf_count=17 18 16 16 22 27 28 16 17 17 22 15 15 22 24 16 15
internal_value=0 -0.00212828 0.00600168 -0.00698071 0.00173356 -0.00358865 0.000150725 -0.00710478 -0.0142097 -0.0169584 -0.00107172 0.000588103 -0.00394403 -0.00120026 0.00451385 -0.00435315
internal_weight=0 305 114 191 98 130 63 67 61 39 71 56 39 41 32 31
internal_count=323 305 114 191 98 130 63 67 61 39 71 56 39 41 32 31
is_linear=0
shrinkage=0.05


Tree=29
num_leaves=18
num_cat=0
split_feature=12 12 5 12 0 5 12 6 9 4 7 6 5 11 6 7 1
split_gain=9.11854 3.5891 2.02658 1.06478 0.742808 0.337069 0.333251 0.332858 0.505211 0.250883 0.238564 0.217904 0.192831 0.181705 0.109632 0.143722 0.0772452
threshold=5.1150000000000011 14.795000000000002 7.096000000000001 3.7450000000000006 7.4649500000000009 6.0765000000000011 21.490000000000006 89.700000000000017 407.00000000000006 0.67500000000000016 1.7760500000000004 84.90000000000002 6.4860000000000015 377.42000000000007 45.650000000000013 3.1322000000000005 20.500000000000004
decision_type=2 2 2 2 2 2 2 2 2 2 2 2 2 2 2 2 2
left_child=3 2 5 -1 6 14 11 8 12 -6 -11 -3 16 -13 -2 -16 -7
right_child=1 4 -4 -5 9 7 -8 -9 -10 10 -12 13 -14 -15 15 -17 -18
leaf_value=0.035674287602305406 -0.00033705405797809367 0.00094578569134076435 0.018097660526194992 0.016834822576493026 -0.0090633284300565727 0.0021297231146255166 -0.01219587311258211 0.008367685065604747 -0.0072030599064686722 -0.021519058719277381 -0.012981219563840164 -0.010368759781122209 0.0060389889501190437 -0.0028185572036925483 -0.0021171085576972238 -0.0084080349560827026 -0.0021728247328770952
leaf_weight=15.000000000000002 25 14.999999999999998 17 14.999999999999998 14.999999999999998 27 17 15.999999999999998 17 14.999999999999998 18 14.999999999999998 24 17 23 14.999999999999998 17
leaf_count=15 25 15 17 15 15 27 17 16 17 15 18 15 24 17 23 15 17
internal_value=0 -0.00268818 0.00166492 0.0262546 -0.0097231 -3.84707e-05 -0.00619672 0.00175179 0.00050645 -0.014425 -0.0168621 -0.00402681 0.00243383 -0.00635771 -0.00290858 -0.00460037 0.000467375
internal_weight=0 293 181 30 112 164 64 101 85 48 33 47 68 32 63 38 44
internal_count=323 293 181 30 112 164 64 101 85 48 33 47 68 32 63 38 44
is_linear=0
shrinkage=0.05


Tree=30
num_leaves=15
num_cat=0
split_feature=5 12 6 0 10 5 6 4 11 4 12 11 9 12
split_gain=8.29065 3.93248 4.50302 1.52579 0.675607 0.742542 0.590191 0.449649 0.313553 0.266188 0.31379 0.21984 0.125116 0.102129
threshold=7.4140000000000006 10.040000000000001 84.90000000000002 6.134030000000001 19.050000000000004 6.7165000000000008 84.90000000000002 0.47800000000000004 377.42000000000007 0.67500000000000016 19.605000000000004 394.3300000000001 400.00000000000006 7.4750000000000005
decision_type=2 2 2 2 2 2 2 2 2 2 2 2 2 2
left_child=1 2 4 6 5 13 7 -3 -8 -5 -11 -9 -10 -1
right_child=-2 3 -4 9 -6 -7 8 11 12 10 -12 -13 -14 -15
leaf_value=0.0030920948070060051 0.032974380989455515 -0.0057705733481617201 0.029996409738669173 -0.0084584901659664792 -0.005176582755354632 0.010922178164124489 -0.010574694872567696 0.0063229244085960092 -0.000417935848236084 -0.010234820524997572 -0.019279350069436162 -0.00098689085118369084 -0.0061290862144563691 -0.0017700987135025638
leaf_weight=18 18 21 15.999999999999998 22 28 25 28 24 17 17 22 18 22 27
leaf_count=18 18 21 16 22 28 25 28 24 17 17 22 18 22 27
internal_value=0 -0.00194603 0.00540279 -0.00633223 0.0013875 0.00401314 -0.00327102 0.00020324 -0.00653785 -0.0128561 -0.0153369 0.00319015 -0.00363961 0.000174779
internal_weight=0 305 114 191 98 70 130 63 67 61 39 42 39 45
internal_count=323 305 114 191 98 70 130 63 67 61 39 42 39 45
is_linear=0
shrinkage=0.05


Tree=31
num_leaves=17
num_cat=0
split_feature=12 10 5 6 12 5 6 4 6 7 12 0 2 10 12 12
split_gain=7.63015 3.07291 2.65404 1.00782 0.99298 0.460625 0.351037 0.520582 0.346587 0.247206 0.239947 0.134113 0.127996 0.171895 0.0858859 0.0817109
threshold=5.1150000000000011 19.650000000000002 7.096000000000001 35.800000000000004 16.490000000000006 5.7965000000000009 84.050000000000011 0.62750000000000006 65.350000000000009 6.2083000000000004 21.490000000000006 7.4649500000000009 14.480000000000002 16.850000000000005 10.575000000000001 8.615000000000002
decision_type=2 2 2 2 2 2 2 2 2 2 2 2 2 2 2 2
left_child=3 2 5 -1 6 -2 8 -8 -3 12 11 -6 13 -7 15 -15
right_child=1 4 -4 -5 10 9 7 -9 -10 -11 -12 -13 -14 14 -16 -17
leaf_value=0.014852119963616128 -0.0057554280005947308 -0.0026128644858928103 0.021605236898176373 0.033180744787678122 -0.0064564866086584518 0.0082920505024958405 -0.0061793321685399867 0.0065753486880566932 -0.012779873684048655 -0.0027759096853864885 -0.015694465109014087 -0.012165862927213313 -0.00098724743454820592 0.0033635727388577328 0.0052114781413062396 -0.0014006141508515512
leaf_weight=15.000000000000002 27 19 15.999999999999998 14.999999999999998 18 15.999999999999998 15.999999999999998 15.999999999999998 14.999999999999998 26 28 24 18 18 18 18
leaf_count=15 27 19 16 15 18 16 16 16 15 26 28 24 18 18 18 18
internal_value=0 -0.00245902 0.00230672 0.0240164 -0.00796065 0.000116823 -0.0035607 0.000198008 -0.00709831 0.00150762 -0.0121092 -0.00971899 0.00277321 0.00374018 0.00239148 0.000981479
internal_weight=0 293 157 30 136 141 66 32 34 114 70 42 88 70 54 36
internal_count=323 293 157 30 136 141 66 32 34 114 70 42 88 70 54 36
is_linear=0
shrinkage=0.05


Tree=32
num_leaves=18
num_cat=0
split_feature=5 4 4 10 9 0 8 10 7 7 0 7 5 6 7 7 6
split_gain=6.97349 2.45964 2.33821 1.41449 0.635365 0.59983 0.544579 0.402498 0.444396 0.209213 0.199998 0.170672 0.162472 0.152983 0.119103 0.115346 0.0144591
threshold=7.4140000000000006 0.65700000000000014 0.61900000000000011 19.650000000000002 228.50000000000003 7.0365050000000009 4.5000000000000009 17.700000000000006 5.7954500000000015 2.5255500000000004 13.636600000000001 5.6317000000000013 6.394000000000001 60.400000000000013 4.5006000000000013 6.8733500000000012 93.550000000000011
decision_type=2 2 2 2 2 2 2 2 2 2 2 2 2 2 2 2 2
left_child=1 2 3 4 -1 16 -5 8 12 -8 -7 13 -6 14 -9 -10 -3
right_child=-2 5 -4 6 7 10 9 11 15 -11 -12 -13 -14 -15 -16 -17 -18
leaf_value=0.011121876067045379 0.030241782478212072 -0.0033645523215333618 0.01622309770742008 -0.013615813770924102 0.0042904585832729937 -0.010873931698501111 -0.0084097314905375239 0.004642015693389112 -0.0040155136212706556 -0.00088231854606419808 -0.01790324642377741 -0.0065463401275337677 0.011336314311871926 -0.0036760140908882024 -0.0015596265916246921 0.0021851785667240621 -0.0055599320276329923
leaf_weight=15.999999999999998 18 15.000000000000002 22 22 18 25 14.999999999999998 16.000000000000004 15.000000000000002 24 17 15.999999999999998 14.999999999999998 24 14.999999999999998 14.999999999999998 14.999999999999998
leaf_count=16 18 15 22 22 18 25 15 16 15 24 17 16 15 24 15 15 15
internal_value=0 -0.00178476 0.000711239 -0.000906111 0.00170453 -0.00986209 -0.00732573 0.000580075 0.00348917 -0.00377748 -0.0137191 -0.00200124 0.00749312 -0.000679027 0.00164122 -0.000915168 -0.00446224
internal_weight=0 305 233 211 150 72 61 134 63 39 42 71 33 55 31 30 30
internal_count=323 305 233 211 150 72 61 134 63 39 42 71 33 55 31 30 30
is_linear=0
shrinkage=0.05


Tree=33
num_leaves=17
num_cat=0
split_feature=12 10 5 12 12 5 0 5 9 12 10 4 4 11 0 12
split_gain=6.45321 2.53137 2.19549 0.898655 0.827785 0.389429 0.330714 0.26244 0.207628 0.201908 0.199182 0.152158 0.14655 0.119331 0.103294 0.0498342
threshold=5.1150000000000011 19.650000000000002 7.096000000000001 3.7450000000000006 16.490000000000006 5.7965000000000009 3.5046450000000005 6.2115000000000009 400.00000000000006 21.490000000000006 16.500000000000004 0.44600000000000006 0.53500000000000014 395.44000000000005 7.4649500000000009 8.2450000000000028
decision_type=2 2 2 2 2 2 2 2 2 2 2 2 2 2 2 2
left_child=3 2 5 -1 6 -2 12 -8 10 14 -7 15 -3 -13 -6 -12
right_child=1 4 -4 -5 9 8 7 -9 -10 -11 11 13 -14 -15 -16 -17
leaf_value=0.030740431199471147 -0.0053271127261083438 -0.0030427644807787149 0.019616402743849903 0.013432868424182138 -0.005986806954671112 0.0073043641634285457 -0.0039311169763095672 0.005274649038910866 -0.0028933180941511758 -0.014331408985890449 0.00059471441588054093 0.0054447835222817959 -0.0095374715820837185 0.00018793637190308226 -0.010997403273358942 -0.0034809924910465875
leaf_weight=15.000000000000002 27 15.999999999999998 15.999999999999998 14.999999999999998 18 17 16.000000000000004 14.999999999999998 23 28 15.000000000000002 25 19 19 24 14.999999999999998
leaf_count=15 27 16 16 15 18 17 16 15 23 28 15 25 19 19 24 15
internal_value=0 -0.00226143 0.00206404 0.0220866 -0.00725481 7.2284e-05 -0.00323749 0.000523286 0.00135109 -0.0110426 0.00242385 0.00130265 -0.00656846 0.00317478 -0.00885 -0.00144314
internal_weight=0 293 157 30 136 141 66 31 114 70 91 74 35 44 42 30
internal_count=323 293 157 30 136 141 66 31 114 70 91 74 35 44 42 30
is_linear=0
shrinkage=0.05


Tree=34
num_leaves=18
num_cat=0
split_feature=12 4 5 6 5 10 4 4 5 8 9 5 0 7 10 6 7
split_gain=5.82402 2.30009 2.29427 0.893352 0.828062 0.400707 0.453122 0.383316 0.342334 0.302514 0.266687 0.176516 0.108101 0.0968269 0.10037 0.0903014 0.00646239
threshold=5.1150000000000011 0.65700000000000014 7.096000000000001 35.800000000000004 5.7580000000000009 20.950000000000003 0.58450000000000013 0.69650000000000001 6.4040000000000008 4.5000000000000009 407.00000000000006 6.4860000000000015 6.134030000000001 6.2950000000000008 17.950000000000003 59.150000000000006 4.5006000000000013
decision_type=2 2 2 2 2 2 2 2 2 2 2 2 2 2 2 2 2
left_child=3 2 4 -1 9 6 10 -3 12 -2 11 13 -9 14 -6 16 -16
right_child=1 7 -4 -5 5 -7 -8 8 -10 -11 -12 -13 -14 -15 15 -17 -18
leaf_value=0.012354107073818642 -0.013653083468476929 -0.015540295335952015 0.018635582842398437 0.029610528095314899 0.0044121160091462495 -0.0059822840298610659 0.0080552995027530754 -0.0025943372476225097 -0.013908052866657576 -0.0037694225356972311 -0.0045014476329088213 0.0052266522162509243 -0.0080495986097957935 -0.0029450506192484974 0.002312557327871521 -0.0029825106379576028 0.00084486165083944801
leaf_weight=15.000000000000002 15.000000000000002 21 15.999999999999998 14.999999999999998 17 22 21 21 14.999999999999998 15.999999999999998 25 22 15.999999999999998 19 15.000000000000002 17 14.999999999999998
leaf_count=15 15 21 16 15 17 22 21 21 15 16 25 22 16 19 15 17 15
internal_value=0 -0.00214836 0.00040351 0.0209823 -0.00102646 0.000322022 0.00124053 -0.00983893 -0.00753645 -0.00855184 0.000139683 0.00124471 -0.00495337 0.00018926 0.00111976 -7.10935e-05 0.00157871
internal_weight=0 293 220 30 204 173 151 73 52 31 130 105 37 83 64 47 30
internal_count=323 293 220 30 204 173 151 73 52 31 130 105 37 83 64 47 30
is_linear=0
shrinkage=0.05


Tree=35
num_leaves=16
num_cat=0
split_feature=5 4 4 10 6 5 4 7 8 11 11 2 0 2 6
split_gain=5.43456 1.79949 2.07493 1.06479 0.573301 0.54505 0.46752 0.322744 0.311846 0.21366 0.196224 0.158486 0.13336 0.121547 0.0607127
threshold=7.4140000000000006 0.65700000000000014 0.61900000000000011 18.650000000000002 73.450000000000017 6.7165000000000008 0.69650000000000001 5.7954500000000015 4.5000000000000009 315.33500000000004 388.41000000000003 5.910000000000001 5.7196700000000007 10.300000000000002 52.400000000000006
decision_type=2 2 2 2 2 2 2 2 2 2 2 2 2 2 2
left_child=1 2 3 5 11 7 -3 10 -6 -8 -1 -5 -11 -12 -13
right_child=-2 6 -4 4 8 -7 9 -9 -10 12 13 14 -14 -15 -16
leaf_value=0.0074679744864503544 0.0266971312256323 -0.014763280642710881 0.01517183811996471 -0.0045047970043252351 -0.013824575061076566 0.0087188753585975901 -0.010685566722531804 -0.0040705426233924097 -0.0053265225086361169 -0.00071148307631827066 -0.001140732635810439 0.0032550983068843683 -0.0068867639159126319 0.0043222428648732603 -0.0011092007810742978
leaf_weight=14.999999999999998 18 21 22 23 19 26 15.999999999999998 27 25 18 28 14.999999999999998 17 15.999999999999998 17
leaf_count=15 18 21 22 23 19 26 16 27 25 18 28 15 17 16 17
internal_value=0 -0.00157557 0.000559362 -0.000964214 -0.00474212 0.00237519 -0.00848444 0.00045733 -0.00899614 -0.00589903 0.00252941 -0.00133891 -0.00371091 0.000845804 0.000936564
internal_weight=0 305 233 211 99 112 72 86 44 51 59 55 35 44 32
internal_count=323 305 233 211 99 112 72 86 44 51 59 55 35 44 32
is_linear=0
shrinkage=0.05


Tree=36
num_leaves=16
num_cat=0
split_feature=5 4 4 10 6 5 0 7 8 11 6 11 2 2 6
split_gain=4.90469 1.62404 1.87263 0.96097 0.517404 0.491908 0.434293 0.291277 0.281441 0.228584 0.278267 0.177092 0.143033 0.109696 0.0547932
threshold=7.4140000000000006 0.65700000000000014 0.61900000000000011 18.650000000000002 73.450000000000017 6.7165000000000008 13.636600000000001 5.7954500000000015 4.5000000000000009 343.66500000000002 97.350000000000009 388.41000000000003 5.910000000000001 10.300000000000002 52.400000000000006
decision_type=2 2 2 2 2 2 2 2 2 2 2 2 2 2 2
left_child=1 2 3 5 12 7 9 11 -6 -3 -11 -1 -5 -13 -14
right_child=-2 6 -4 4 8 -7 -8 -9 -10 10 -12 13 14 -15 -16
leaf_value=0.007094575855880976 0.025362275613264908 -0.010165416359668597 0.014413246586495503 -0.0042795570931680833 -0.013133346571243907 0.008282931550190999 -0.01504498738795519 -0.0038670154064203857 -0.0050601965729147194 0.00062654766401177956 -0.0083229347073938698 -0.0010836960988984043 0.0030923434222737949 0.0041061307769268756 -0.0010537405676372788
leaf_weight=14.999999999999998 18 20 22 23 19 26 17 27 25 19 15.999999999999998 28 14.999999999999998 15.999999999999998 17
leaf_count=15 18 20 22 23 19 26 17 27 25 19 16 28 15 16 17
internal_value=0 -0.00149679 0.000531394 -0.000916003 -0.00450502 0.00225643 -0.00806022 0.000434463 -0.00854633 -0.00590129 -0.00346464 0.00240294 -0.00127197 0.000803514 0.000889736
internal_weight=0 305 233 211 99 112 72 86 44 55 35 59 55 44 32
internal_count=323 305 233 211 99 112 72 86 44 55 35 59 55 44 32
is_linear=0
shrinkage=0.05


Tree=37
num_leaves=16
num_cat=0
split_feature=5 4 4 10 6 5 4 7 8 11 2 11 0 0 2
split_gain=4.42648 1.4657 1.69004 0.867276 0.46758 0.443947 0.395847 0.262877 0.23642 0.175194 0.16815 0.159826 0.116109 0.106443 0.0990007
threshold=7.4140000000000006 0.65700000000000014 0.61900000000000011 18.650000000000002 67.700000000000003 6.7165000000000008 0.69650000000000001 5.7954500000000015 4.5000000000000009 315.33500000000004 5.910000000000001 388.41000000000003 5.7196700000000007 5.5537550000000007 10.300000000000002
decision_type=2 2 2 2 2 2 2 2 2 2 2 2 2 2 2
left_child=1 2 3 5 10 7 -3 11 -6 -8 -5 -1 -11 -10 -13
right_child=-2 6 -4 4 8 -7 9 -9 13 12 -12 14 -14 -15 -16
leaf_value=0.0067398470888535185 0.02409416087385681 -0.013434749225243217 0.013692583766003902 -0.0039931048993908222 -0.011811132867587731 0.00786878512814068 -0.0096125202748226016 -0.003673664713278413 -0.0021724908092223545 -0.00049812294698009898 0.0020223784627607807 -0.0010295112796094535 -0.0062601535135934907 -0.0079512365907430643 0.0039008242281852292
leaf_weight=14.999999999999998 18 21 22 21 20 26 15.999999999999998 27 17 18 26 28 17 14.999999999999998 15.999999999999998
leaf_count=15 18 21 22 21 20 26 16 27 17 18 26 28 17 15 16
internal_value=0 -0.00142195 0.000504824 -0.000870203 -0.00427977 0.00214361 -0.00765721 0.00041274 -0.00754661 -0.00527822 -0.000665391 0.00228279 -0.00329682 -0.00488128 0.000763338
internal_weight=0 305 233 211 99 112 72 86 52 51 47 59 35 32 44
internal_count=323 305 233 211 99 112 72 86 52 51 47 59 35 32 44
is_linear=0
shrinkage=0.05


Tree=38
num_leaves=18
num_cat=0
split_feature=12 4 5 12 5 0 10 11 11 5 10 7 10 0 12 7 6
split_gain=4.28981 1.6038 1.58561 0.768183 0.605726 0.372418 0.345807 0.313933 0.309011 0.20752 0.204804 0.111247 0.137303 0.109161 0.08519 0.111131 0.0616421
threshold=5.1150000000000011 0.67500000000000016 7.096000000000001 3.7450000000000006 5.7965000000000009 11.369150000000001 20.950000000000003 369.02000000000004 388.91000000000003 6.4040000000000008 19.650000000000002 6.2083000000000004 16.850000000000005 5.5537550000000007 12.665000000000001 3.6977500000000005 74.65000000000002
decision_type=2 2 2 2 2 2 2 2 2 2 2 2 2 2 2 2 2
left_child=3 2 4 -1 8 9 7 -6 -2 13 11 12 -9 -3 15 -14 -12
right_child=1 5 -4 -5 6 -7 -8 10 -10 -11 16 -13 14 -15 -16 -17 -18
leaf_value=0.026008761798342064 -0.011688904413569939 -0.0020525812637060882 0.015326151835870406 0.010006854763875405 0.0066518126182596796 -0.015343788197787945 -0.0055782653899355376 0.0063804770354181535 -0.0027135074741884389 -0.011500015246371429 -0.0010490498133003711 -0.0016364167716043693 -0.003467064145952463 -0.0076951490707385037 0.0043732446556289991 0.0019006014232420259 -0.0055105814331909645
leaf_weight=15.000000000000002 17 20 15.999999999999998 14.999999999999998 22 15.999999999999998 22 15.999999999999998 22 14.999999999999998 15.000000000000002 24 14.999999999999998 14.999999999999998 14.999999999999998 27 15.999999999999998
leaf_count=15 17 20 16 15 22 16 22 16 22 15 15 24 15 15 15 27 16
internal_value=0 -0.0018438 0.000150861 0.0180078 -0.000999872 -0.00870424 0.000275788 0.00113438 -0.00662586 -0.00657958 0.000186074 0.00131673 0.00228762 -0.00447082 0.00113875 -1.6422e-05 -0.00335178
internal_weight=0 293 227 30 211 66 172 150 39 50 128 97 73 35 57 42 31
internal_count=323 293 227 30 211 66 172 150 39 50 128 97 73 35 57 42 31
is_linear=0
shrinkage=0.05


Tree=39
num_leaves=17
num_cat=0
split_feature=12 12 10 4 7 11 12 9 4 9 0 9 4 9 5 0
split_gain=3.87155 1.46177 1.03097 0.73533 0.613557 0.535439 0.398993 0.595875 0.244671 0.24459 0.187122 0.186966 0.149836 0.133897 0.116773 0.0725736
threshold=5.1150000000000011 10.040000000000001 15.700000000000001 0.44395000000000007 1.9328500000000002 377.42000000000007 9.2650000000000023 332.00000000000006 0.47800000000000004 267.00000000000006 4.6578600000000003 302.00000000000006 0.69650000000000001 288.00000000000006 5.8820000000000006 0.37249000000000004
decision_type=2 2 2 2 2 2 2 2 2 2 2 2 2 2 2 2
left_child=3 2 -2 -1 12 10 7 9 -7 -4 -6 -10 14 -11 -3 -13
right_child=1 4 6 -5 5 8 -8 -9 11 13 -12 15 -14 -15 -16 -17
leaf_value=0.0092794244488080321 0.014735335274599493 -0.014129998413845896 0.0069429273309651769 0.024935410519440968 -0.0039750141294106192 -0.0054821550108802818 0.0083223673592632014 -0.009502964212248723 0.0051437163504306233 -0.0039147154078818863 -0.010587854972109199 -0.0026422763283809893 -0.0058044131469124792 0.0019902792487603922 -0.0080773373791838392 0.0011186775105106164
leaf_weight=15.000000000000002 15.999999999999998 14.999999999999998 15.999999999999998 14.999999999999998 23 18 14.999999999999998 14.999999999999998 20 15.999999999999998 20 23 26 24 17 29
leaf_count=15 16 15 16 15 23 18 15 15 20 16 20 23 26 24 17 29
internal_value=0 -0.00175161 0.00308112 0.0171074 -0.00433245 -0.00246103 0.000912897 -0.000652484 -0.000268169 0.00171818 -0.00705075 0.00103533 -0.00862378 -0.000371719 -0.0109145 -0.000544821
internal_weight=0 293 102 30 191 133 86 71 90 56 43 72 58 40 32 52
internal_count=323 293 102 30 191 133 86 71 90 56 43 72 58 40 32 52
is_linear=0
shrinkage=0.05


Tree=40
num_leaves=17
num_cat=0
split_feature=12 12 6 2 5 7 11 7 6 0 4 5 2 12 6 4
split_gain=3.58787 1.77599 1.31464 0.854124 0.757217 0.565816 0.429924 0.265377 0.204103 0.199225 0.135227 0.105388 0.0966891 0.0934233 0.0847831 0.0425218
threshold=3.7450000000000006 9.7250000000000032 82.950000000000017 8.3500000000000032 6.7815000000000003 1.9328500000000002 377.42000000000007 4.4582500000000005 69.200000000000003 4.6578600000000003 0.69650000000000001 5.8820000000000006 3.9850000000000008 13.095000000000001 39.500000000000007 0.58050000000000013
decision_type=2 2 2 2 2 2 2 2 2 2 2 2 2 2 2 2
left_child=-1 2 3 4 12 10 9 8 -8 -7 11 -3 -2 -10 -14 -15
right_child=1 5 -4 -5 -6 6 7 -9 13 -11 -12 -13 14 15 -16 -17
leaf_value=0.02387904526801625 -0.0031488335256775221 -0.013423498546083767 0.01710349714558106 -0.0093356236753364408 0.010498667930908225 -0.0033015578752383593 0.0050816041576168085 -0.0053197355519625407 -0.003998980911759039 -0.010058462277957007 -0.0055141924092402825 -0.0076734702760244125 0.003978453855961561 0.0026164824608713392 -0.00063119972667967286 -0.00088194638833795727
leaf_weight=14.999999999999998 14.999999999999998 14.999999999999998 15.999999999999998 14.999999999999998 27 24 22 21 14.999999999999998 20 26 17 19 15.999999999999998 21 19
leaf_count=15 15 15 16 15 27 24 22 21 15 20 26 17 19 16 21 19
internal_value=0 -0.00116294 0.00382468 0.00163436 0.00364106 -0.0040532 -0.00230076 -0.000374163 0.0010683 -0.00637288 -0.00819259 -0.0103688 0.000274599 -0.00069756 0.00155839 0.000717335
internal_weight=0 308 113 97 82 195 137 93 72 44 58 32 55 50 40 35
internal_count=323 308 113 97 82 195 137 93 72 44 58 32 55 50 40 35
is_linear=0
shrinkage=0.05


Tree=41
num_leaves=17
num_cat=0
split_feature=12 9 4 8 12 0 6 0 0 6 9 0 6 9 2 12
split_gain=3.23805 1.62079 1.1238 0.856967 0.931484 1.39004 0.581481 0.308308 0.196116 0.191345 0.189389 0.141452 0.102088 0.100816 0.0944716 0.0709756
threshold=3.7450000000000006 222.50000000000003 0.67500000000000016 4.5000000000000009 9.615000000000002 0.30724500000000005 76.950000000000017 11.369150000000001 0.35086500000000004 89.700000000000017 322.00000000000006 6.134030000000001 97.350000000000009 276.50000000000006 13.360000000000001 12.665000000000001
decision_type=2 2 2 2 2 2 2 2 2 2 2 2 2 2 2 2
left_child=-1 -2 3 6 5 -5 10 9 -8 -4 13 14 -11 -3 15 -6
right_child=1 2 7 4 11 -7 8 -9 -10 12 -12 -13 -14 -15 -16 -17
leaf_value=0.022685093159476918 0.014925677220647535 -0.0017692158322056965 -0.010459868870675564 0.0019960388300362332 -0.00327036214987268 0.020744518913949531 -0.013252241959174474 -0.013709329976700248 -0.0056043236663467014 -0.00093152409090715288 -0.0059596033828953907 -0.0040834529579363088 -0.0063344579448716513 0.0025516294063655316 0.0033037043572957852 0.0011239003902301194
leaf_weight=14.999999999999998 14.999999999999998 27 14.999999999999998 29 17 14.999999999999998 14.999999999999998 15.999999999999998 19 17 14.999999999999998 22 18 27 21 20
leaf_count=15 15 27 15 29 17 15 15 16 19 17 15 22 18 27 21 20
internal_value=0 -0.00110479 -0.00192547 -0.000255762 0.00254417 0.00838757 -0.00362655 -0.00766823 -0.00897841 -0.00573508 -0.000989404 -0.000669704 -0.00371018 0.000391207 0.000625166 -0.000895085
internal_weight=0 308 293 227 124 44 103 66 34 50 69 80 35 54 58 37
internal_count=323 308 293 227 124 44 103 66 34 50 69 80 35 54 58 37
is_linear=0
shrinkage=0.05


Tree=42
num_leaves=17
num_cat=0
split_feature=5 12 7 7 11 10 7 9 4 0 4 11 5 5 11 9
split_gain=2.99935 1.43239 2.36234 0.458555 0.379385 0.371747 0.235424 0.176609 0.175716 0.168967 0.116816 0.0994197 0.0940852 0.0698723 0.0674305 0.0127452
threshold=7.4620000000000006 9.7250000000000032 2.8425500000000006 1.9328500000000002 377.42000000000007 16.500000000000004 4.4582500000000005 329.50000000000006 0.51650000000000007 6.134030000000001 0.69650000000000001 394.3300000000001 5.8820000000000006 6.4210000000000003 393.42500000000007 431.00000000000006
decision_type=2 2 2 2 2 2 2 2 2 2 2 2 2 2 2 2
left_child=1 2 -1 10 9 -4 8 11 -6 -5 12 -7 -3 -13 -10 -16
right_child=-2 3 5 4 6 7 -8 -9 14 -11 -12 13 -14 -15 15 -17
leaf_value=0.021216247451957316 0.021832935195416212 -0.012294290587306023 0.0069644366391003135 -0.0035644155195248984 0.0059021622315049175 0.0023760490243399423 -0.0049296285070124131 -0.0055124665774843274 0.0016327411048459234 -0.010005491078482011 -0.0048959868404870998 0.00046353225285808251 -0.0068613426855710499 -0.0041570605027178922 -0.00078091589889178661 -0.002842078573691348
leaf_weight=15.999999999999998 14.999999999999998 14.999999999999998 18 28 14.999999999999998 29 21 17 27 15.999999999999998 26 18 17 14.999999999999998 15 15
leaf_count=16 15 15 18 28 15 29 21 17 27 16 26 18 17 15 15 15
internal_value=0 -0.00106329 0.00341594 -0.00365895 -0.00208133 0.000479804 -0.000271513 -0.000997707 0.0010871 -0.00590662 -0.00738539 0.000240211 -0.00940804 -0.00163674 -0.000180016 -0.0018115
internal_weight=0 308 113 195 137 97 93 79 72 44 58 62 32 33 57 30
internal_count=323 308 113 195 137 97 93 79 72 44 58 62 32 33 57 30
is_linear=0
shrinkage=0.05


Tree=43
num_leaves=17
num_cat=0
split_feature=12 9 4 8 12 0 6 0 0 5 0 2 0 9 12 8
split_gain=2.763 1.39083 0.960339 0.780592 0.762159 1.17253 0.507653 0.26026 0.257116 0.1872 0.107988 0.0865993 0.0821423 0.0700892 0.0642295 0.0328985
threshold=3.7450000000000006 222.50000000000003 0.67500000000000016 4.5000000000000009 9.615000000000002 0.30724500000000005 59.150000000000006 11.369150000000001 0.30724500000000005 6.4040000000000008 6.134030000000001 13.360000000000001 5.5537550000000007 312.00000000000006 12.665000000000001 3.5000000000000004
decision_type=2 2 2 2 2 2 2 2 2 2 2 2 2 2 2 2
left_child=-1 -2 3 6 5 -5 13 9 -8 12 11 14 -4 15 -6 -3
right_child=1 2 7 4 10 -7 8 -9 -10 -11 -12 -13 -14 -15 -16 -17
leaf_value=0.02095506790249298 0.013829216032754631 -0.00070636285818181932 -0.0012127573322504759 0.0018504705151607252 -0.0030558596481569111 0.019069706852703046 -0.011190029403025454 -0.012639909583958798 -0.0038456197326573044 -0.009986674344787996 -0.0034548828632316808 0.0032237601366692358 -0.006107466022173564 -0.0028436790932627287 0.0011243567895144223 0.0022733791657215496
leaf_weight=14.999999999999998 14.999999999999998 15.999999999999998 20 29 17 14.999999999999998 22 15.999999999999998 26 14.999999999999998 22 21 14.999999999999998 17 20 22
leaf_count=15 15 16 20 29 17 15 22 16 26 15 22 21 15 17 20 22
internal_value=0 -0.00102054 -0.00178077 -0.000237262 0.00243499 0.00772066 -0.00345434 -0.00708948 -0.00721181 -0.00531335 -0.000472137 0.00065925 -0.00331049 -0.000175091 -0.000796283 0.00101875
internal_weight=0 308 293 227 124 44 103 66 48 50 80 58 35 55 37 38
internal_count=323 308 293 227 124 44 103 66 48 50 80 58 35 55 37 38
is_linear=0
shrinkage=0.05


Tree=44
num_leaves=17
num_cat=0
split_feature=12 9 4 4 10 7 6 0 6 0 0 7 6 11 4 12
split_gain=2.49361 1.25522 0.866706 0.735697 0.598236 0.442127 0.42877 0.234884 0.190492 0.182516 0.139713 0.0983345 0.092398 0.0784811 0.060278 0.0437808
threshold=3.7450000000000006 222.50000000000003 0.67500000000000016 0.62750000000000006 17.700000000000006 5.1663000000000006 73.450000000000017 11.369150000000001 89.700000000000017 0.25875000000000004 0.11428500000000001 3.2310000000000003 97.350000000000009 392.01500000000004 0.48850000000000005 8.7800000000000011
decision_type=2 2 2 2 2 2 2 2 2 2 2 2 2 2 2 2
left_child=-1 -2 3 4 5 -3 10 8 -4 -8 15 -11 -10 -7 -12 -6
right_child=1 2 7 -5 6 13 9 -9 12 11 14 -13 -14 -15 -16 -17
leaf_value=0.0199073139919589 0.013137755322580536 0.0078306299899446059 -0.0097619150703152028 0.009473967329702444 -0.0011776246406186961 -0.0030820201972828194 -0.0095311000654791402 -0.012007913904380985 -0.00038379146991407171 -0.0020778134663554807 -0.00098874499017256325 -0.0069322972613222456 -0.0055239279573369359 0.0015387469390407205 0.002834186431598561 -0.0047911295232673486
leaf_weight=14.999999999999998 14.999999999999998 27 14.999999999999998 18 19 17 22 15.999999999999998 17 27 15.999999999999998 17 18 20 29 14.999999999999998
leaf_count=15 15 27 15 18 19 17 22 16 17 27 16 17 18 20 29 15
internal_value=0 -0.000969512 -0.00169173 -0.000225399 -0.00106075 0.00296574 -0.00283796 -0.00673501 -0.00504768 -0.00581264 -0.000352789 -0.00395341 -0.00302729 -0.000584308 0.00147492 -0.00277182
internal_weight=0 308 293 227 209 64 145 66 50 66 79 44 35 37 45 34
internal_count=323 308 293 227 209 64 145 66 50 66 79 44 35 37 45 34
is_linear=0
shrinkage=0.05


Tree=45
num_leaves=18
num_cat=0
split_feature=5 7 10 12 5 7 6 9 0 11 5 5 2 11 7 4 0
split_gain=2.38627 1.22855 0.802253 0.485574 0.349801 0.147763 0.132732 0.129346 0.127425 0.158211 0.129395 0.138803 0.12396 0.133449 0.10539 0.0389181 0.0374504
threshold=7.4620000000000006 1.4721500000000003 18.650000000000002 21.490000000000006 6.7815000000000003 5.7954500000000015 94.750000000000014 267.00000000000006 0.082545000000000021 319.36500000000007 6.0940000000000003 5.8900000000000015 14.480000000000002 393.3300000000001 2.1018000000000003 0.50850000000000006 0.20935000000000004
decision_type=2 2 2 2 2 2 2 2 2 2 2 2 2 2 2 2 2
left_child=1 -1 4 6 5 12 8 -6 -4 -10 11 -11 13 -3 -8 -15 -12
right_child=-2 2 3 -5 7 -7 14 -9 9 10 16 -13 -14 15 -16 -17 -18
leaf_value=0.012116707992904327 0.019474121800934274 0.0054623884061584249 -0.0053885365249184171 -0.011147536784188734 0.0089868182916688962 -0.0033038552276723624 -0.0030589065955657709 0.0025240017209822935 -0.0058188408737381301 -0.00081182657005755528 -0.00052321107126772402 0.0056222622127582635 -0.0024533575235277808 0.0020534660636136923 -0.0084779196090119732 -0.0014915753679815682 -0.0039059874666337343
leaf_weight=17 14.999999999999998 20 23 21 16.000000000000004 28 19 14.999999999999998 14.999999999999998 19 14.999999999999998 14.999999999999998 19 15.000000000000002 17 15.999999999999998 18
leaf_count=17 15 20 23 21 16 28 19 15 15 19 15 15 19 15 17 16 18
internal_value=0 -0.000948415 -0.00171167 -0.00405437 0.00123033 -0.000234053 -0.00299794 0.00585965 -0.00209967 -0.00117719 -0.000138011 0.00202674 0.000993868 0.00227813 -0.00561788 0.000223767 -0.00236836
internal_weight=0 308 291 162 129 98 141 31 105 82 67 34 70 51 36 31 33
internal_count=323 308 291 162 129 98 141 31 105 82 67 34 70 51 36 31 33
is_linear=0
shrinkage=0.05


Tree=46
num_leaves=18
num_cat=0
split_feature=5 7 10 12 9 5 7 10 6 12 5 4 11 11 9 5 12
split_gain=2.1551 1.12577 0.666593 0.438231 0.271018 0.211686 0.1568 0.130641 0.119791 0.117587 0.0957957 0.0898455 0.119592 0.12738 0.0983074 0.0536923 0.021959
threshold=7.4140000000000006 1.4721500000000003 18.650000000000002 21.490000000000006 400.00000000000006 6.9540000000000006 3.9258500000000005 17.950000000000003 94.750000000000014 11.360000000000001 6.2115000000000009 0.58450000000000013 386.37000000000006 394.3300000000001 284.50000000000006 5.9740000000000011 8.0750000000000011
decision_type=2 2 2 2 2 2 2 2 2 2 2 2 2 2 2 2 2
left_child=1 -1 4 8 5 6 7 -3 11 16 -10 12 -4 -14 -15 -13 -8
right_child=-2 2 3 -5 -6 -7 9 -9 10 -11 -12 15 13 14 -16 -17 -18
leaf_value=0.011510872523135998 0.016811889671306642 0.00679779761703685 -0.0059344762612296188 -0.01059015963359603 -0.0033409095731258276 0.0069753675868636685 -0.00025886827531982872 0.00039580496338506544 -0.0077767073519920049 -0.0043936317507177599 -0.0026102483820389299 0.0024141658175115782 0.0017919356831245952 -0.006084530055522919 -0.00062399025282502409 -0.0017497438937425615 0.0023658420906091729
leaf_weight=17 18 17 23 21 28 19 17 14.999999999999998 19 14.999999999999998 17 15.000000000000002 18 17 15.999999999999998 15.999999999999998 14.999999999999998
leaf_count=17 18 17 23 21 28 19 17 15 19 15 17 15 18 17 16 16 15
internal_value=0 -0.000992177 -0.0017302 -0.00385165 0.000997369 0.00223688 0.00109724 0.00379686 -0.00284804 -0.0007408 -0.00533699 -0.00199469 -0.00294134 -0.00159149 -0.003437 0.000265051 0.000971465
internal_weight=0 305 288 162 126 98 79 32 141 47 36 105 74 51 33 31 32
internal_count=323 305 288 162 126 98 79 32 141 47 36 105 74 51 33 31 32
is_linear=0
shrinkage=0.05


Tree=47
num_leaves=16
num_cat=0
split_feature=12 9 4 8 12 11 6 0 4 5 7 7 11 9 5
split_gain=2.03026 1.03326 0.691046 0.615025 0.645315 1.10146 0.403066 0.246237 0.206057 0.169447 0.113958 0.149225 0.0682123 0.0645188 0.0444892
threshold=3.7450000000000006 222.50000000000003 0.67500000000000016 4.5000000000000009 9.615000000000002 388.41000000000003 59.150000000000006 0.28458500000000003 0.72900000000000009 6.1835000000000013 2.4613000000000005 2.9393500000000006 392.01500000000004 431.00000000000006 6.1140000000000017
decision_type=2 2 2 2 2 2 2 2 2 2 2 2 2 2 2
left_child=-1 -2 3 6 5 -5 12 -8 9 -4 13 -12 -3 -6 -14
right_child=1 2 8 4 10 -7 7 -9 -10 -11 11 -13 14 -15 -16
leaf_value=0.017962811651329201 0.011924501036604246 -0.0024837077013216916 -0.0053713435914529411 0.016522661633785497 -0.00024350114108528942 0.0004326152077947672 -0.010485118668570761 -0.0032661375969096473 -0.0024555810050806031 -0.011848423919743962 0.0048528177499332853 -0.0011273244134995535 -0.00076585015885939362 -0.0045033020386472345 0.0028125967168690343
leaf_weight=14.999999999999998 14.999999999999998 20 23 18 15.999999999999998 26 21 27 25 18 17 27 15.999999999999998 20 19
leaf_count=15 15 20 23 18 16 26 21 27 25 18 17 27 16 20 19
internal_value=0 -0.000874812 -0.00153007 -0.000220738 0.00215124 0.00701491 -0.00307633 -0.00642444 -0.00603336 -0.00821494 -0.000523774 0.00118319 -0.000154335 -0.00261006 0.00117674
internal_weight=0 308 293 227 124 44 103 48 66 41 80 44 55 36 35
internal_count=323 308 293 227 124 44 103 48 66 41 80 44 55 36 35
is_linear=0
shrinkage=0.05


Tree=48
num_leaves=18
num_cat=0
split_feature=5 7 10 12 5 7 10 2 11 0 0 0 11 0 6 5 9
split_gain=1.83532 0.997577 0.599007 0.375772 0.25839 0.130911 0.116215 0.1023 0.115501 0.0982003 0.328265 0.229854 0.157614 0.185604 0.108207 0.0544959 0.02433
threshold=7.4620000000000006 1.4721500000000003 18.650000000000002 21.490000000000006 6.7815000000000003 5.7954500000000015 16.500000000000004 14.480000000000002 393.3300000000001 5.7196700000000007 8.8875400000000031 3.5046450000000005 378.31500000000005 0.11428500000000001 63.050000000000004 6.0420000000000007 294.50000000000006
decision_type=2 2 2 2 2 2 2 2 2 2 2 2 2 2 2 2 2
left_child=1 -1 4 9 5 7 -6 8 -3 11 -11 12 -4 15 -15 -14 -10
right_child=-2 2 3 -5 6 -7 -8 -9 16 10 -12 -13 13 14 -16 -17 -18
leaf_value=0.010941322799772025 0.017078689088424047 0.0050488958542700864 -0.0074605145840905612 -0.0097836932779977182 0.0081631671606252568 -0.0031253982135759934 0.0020371686172438786 -0.0022117754442565218 0.0015315468132030216 -0.0094341041814339794 -0.00013972869829127665 0.0028543720188151517 -0.0069115258629123353 0.0037765889211247364 -0.0018412835570052266 -0.0027165705309016631 -0.0012714115157723427
leaf_weight=17 14.999999999999998 20 15.999999999999998 21 15.000000000000002 28 15.999999999999998 19 16.000000000000004 19 19 21 15.000000000000002 14.999999999999998 20 15.999999999999998 14.999999999999998
leaf_count=17 15 20 16 21 15 28 16 19 16 19 19 21 15 15 20 16 15
internal_value=0 -0.000831754 -0.00151953 -0.00354384 0.00102263 -0.000235953 0.00500136 0.000919825 0.0020865 -0.0026145 -0.00478692 -0.00181302 -0.00300833 -0.00192901 0.000566376 -0.00474639 0.000175277
internal_weight=0 308 291 162 129 98 31 70 51 141 38 103 82 66 35 31 31
internal_count=323 308 291 162 129 98 31 70 51 141 38 103 82 66 35 31 31
is_linear=0
shrinkage=0.05


Tree=49
num_leaves=17
num_cat=0
split_feature=12 9 4 10 0 6 5 4 11 2 6 10 5 12 6 5
split_gain=1.73659 0.912646 0.602133 0.458912 0.318313 0.350453 0.286284 0.392678 0.199483 0.191648 0.216048 0.111788 0.0979527 0.154925 0.15771 0.0537886
threshold=3.7450000000000006 222.50000000000003 0.65700000000000014 15.700000000000001 7.0365050000000009 94.750000000000014 6.4650000000000007 0.69650000000000001 343.66500000000002 3.4250000000000003 32.550000000000004 17.700000000000006 5.7965000000000009 13.550000000000002 74.65000000000002 6.025500000000001
decision_type=2 2 2 2 2 2 2 2 2 2 2 2 2 2 2 2
left_child=-1 -2 3 -3 5 9 7 -4 -9 -5 -11 -12 -13 14 15 -14
right_child=1 2 6 4 -6 -7 -8 8 -10 10 11 12 13 -15 -16 -17
leaf_value=0.016612944727142653 0.01122005253409346 0.0058606848835812088 -0.010156563576310874 -0.0058523795375710029 0.0060020825639367104 -0.0081963796996408055 -0.011516879331320526 -0.0057099731452763085 0.0015307683994671187 0.0038847259012982252 0.0020503258591898802 -0.0054727005905078844 -0.0031653201382141564 0.0028904100643962413 -0.0066494965809397403 0.00046882664069666395
leaf_weight=14.999999999999998 14.999999999999998 28 17 17 14.999999999999998 18 14.999999999999998 14.999999999999998 26 26 22 15.999999999999998 15.999999999999998 18 15.999999999999998 28
leaf_count=15 15 28 17 17 15 18 15 15 26 26 22 16 16 18 16 28
internal_value=0 -0.000809072 -0.0014249 -0.00011923 -0.000991301 -0.00158396 -0.00535979 -0.00376743 -0.00111828 -0.000835385 -0.000234759 -0.00115809 -0.001909 -0.00117798 -0.0023985 -0.000852681
internal_weight=0 308 293 220 192 177 73 58 41 159 142 116 94 78 60 44
internal_count=323 308 293 220 192 177 73 58 41 159 142 116 94 78 60 44
is_linear=0
shrinkage=0.05


Tree=50
num_leaves=17
num_cat=0
split_feature=12 9 4 4 10 7 6 5 7 5 0 0 12 5 11 12
split_gain=1.56727 0.823663 0.5458 0.504167 0.381047 0.341108 0.302808 0.279327 0.187947 0.379783 0.150947 0.0939009 0.0835055 0.0667441 0.0504827 0.0350134
threshold=3.7450000000000006 222.50000000000003 0.67500000000000016 0.62750000000000006 17.700000000000006 5.7954500000000015 73.450000000000017 6.4040000000000008 1.9726500000000002 5.682500000000001 0.25875000000000004 0.11428500000000001 14.315000000000001 5.9090000000000016 393.75500000000005 8.7800000000000011
decision_type=2 2 2 2 2 2 2 2 2 2 2 2 2 2 2 2
left_child=-1 -2 3 4 5 7 11 -3 9 -4 -8 15 -12 -13 -7 -6
right_child=1 2 8 -5 6 14 10 -9 -10 -11 12 13 -14 -15 -16 -17
leaf_value=0.015782297775149345 0.010659050171573958 0.0017340347366897686 -0.0022681086137890816 0.0078393362824701607 -0.00076896156012815867 -0.0036051317118108266 -0.0081813894550908702 0.010861356481909753 -0.0017075481743592281 -0.011689019017301136 -0.0061376449093222618 -0.00096565253885560912 -0.0015423949426521773 0.0029330407502129677 0.00049701103513749936 -0.0040004638085762668
leaf_weight=14.999999999999998 14.999999999999998 19 20 18 19 15 22 14.999999999999998 23 23 14.999999999999998 19 29 26 15 14.999999999999998
leaf_count=15 15 19 20 18 19 15 22 15 23 23 15 19 29 26 15 15
internal_value=0 -0.000768618 -0.00135365 -0.000190031 -0.000881555 0.00233196 -0.00229993 0.00576079 -0.00535581 -0.0073072 -0.00479977 -0.000211463 -0.00310896 0.00128693 -0.00155406 -0.00219462
internal_weight=0 308 293 227 209 64 145 34 66 43 66 79 44 45 30 34
internal_count=323 308 293 227 209 64 145 34 66 43 66 79 44 45 30 34
is_linear=0
shrinkage=0.05


Tree=51
num_leaves=18
num_cat=0
split_feature=5 7 10 12 5 5 7 4 6 5 6 2 12 5 6 6 6
split_gain=1.47128 0.885886 0.458916 0.308313 0.272007 0.183396 0.134812 0.11152 0.165906 0.111009 0.101085 0.0996864 0.086839 0.07213 0.0695825 0.0606936 0.0687773
threshold=7.4620000000000006 1.4721500000000003 18.650000000000002 23.315000000000001 6.6785000000000005 6.9540000000000006 5.7954500000000015 0.69650000000000001 43.000000000000007 6.3455000000000004 94.750000000000014 14.480000000000002 13.095000000000001 6.4860000000000015 35.800000000000004 82.950000000000017 67.700000000000003
decision_type=2 2 2 2 2 2 2 2 2 2 2 2 2 2 2 2 2
left_child=1 -1 5 4 7 6 11 8 -4 10 15 12 13 -3 -8 16 -10
right_child=-2 2 3 -5 -6 -7 14 -9 9 -11 -12 -13 -14 -15 -16 -17 -18
leaf_value=0.010349737365237054 0.015291352445880571 -0.00062156793607685433 0.0018896476831287146 -0.0099931268444440023 -0.0088482344926645359 0.0048795166273560868 -0.00052577671303879461 0.0011230951330314079 -0.0025775246344329344 0.00052912679190437008 -0.0077040261239744723 -0.002029003626912048 0.0054175025224685669 0.0037324231117963793 -0.0052659626550545608 -0.00098923435522010558 -0.0070104314185058083
leaf_weight=17 14.999999999999998 26 18 14.999999999999998 14.999999999999998 23 16.000000000000004 27 21 14.999999999999998 15.999999999999998 19 14.999999999999998 14.999999999999998 14.999999999999998 20 14.999999999999998
leaf_count=17 15 26 18 15 15 23 16 27 21 15 16 19 15 15 15 20 15
internal_value=0 -0.000744709 -0.00139284 -0.00316469 -0.00246791 0.00083228 -4.58945e-05 -0.00174287 -0.00247984 -0.00338387 -0.00419908 0.00110049 0.00216229 0.000971356 -0.00281942 -0.00319766 -0.00442457
internal_weight=0 308 291 162 147 129 106 132 105 87 72 75 56 41 31 56 36
internal_count=323 308 291 162 147 129 106 132 105 87 72 75 56 41 31 56 36
is_linear=0
shrinkage=0.05


Tree=52
num_leaves=17
num_cat=0
split_feature=12 9 4 8 12 11 11 5 4 11 6 0 7 7 5 5
split_gain=1.34508 0.718906 0.507073 0.54533 0.433524 0.906817 0.295787 0.274718 0.302962 0.170424 0.122792 0.220886 0.10887 0.097213 0.0423248 0.031659
threshold=3.7450000000000006 222.50000000000003 0.65100000000000013 4.5000000000000009 9.615000000000002 388.41000000000003 377.42000000000007 6.4650000000000007 0.69650000000000001 343.66500000000002 59.150000000000006 0.30724500000000005 2.4613000000000005 3.0992500000000005 5.9860000000000015 6.416500000000001
decision_type=2 2 2 2 2 2 2 2 2 2 2 2 2 2 2 2
left_child=-1 -2 3 6 5 -5 -3 8 -4 -10 14 -12 -6 -14 -8 -16
right_child=1 2 7 4 12 -7 10 -9 9 -11 11 -13 13 -15 15 -17
leaf_value=0.014620863348245623 0.0099642003762225317 -0.0089126068691257384 -0.0083278502710163599 0.014870833672790063 -0.0024342887521047016 0.0002714890897130737 -0.0019717589355423117 -0.010835515887786945 -0.0050657135217140117 0.0016268933263535682 -0.0072650667210109529 0.00036968485866155891 0.0043208015615366297 -0.00058515833168949825 0.002575623396033835 -0.00053461516896883654
leaf_weight=14.999999999999998 14.999999999999998 15.999999999999998 20 18 29 26 15.999999999999998 14.999999999999998 14.999999999999998 26 20 18 18 23 18 14.999999999999998
leaf_count=15 15 16 20 18 29 26 16 15 15 26 20 18 18 23 18 15
internal_value=0 -0.000712055 -0.00125862 -2.76485e-05 0.00235487 0.00624395 -0.00266461 -0.00477337 -0.00328268 -0.000821621 -0.00151555 -0.00364861 -8.96941e-05 0.00156868 0.00013865 0.00116188
internal_weight=0 308 293 217 114 44 103 76 61 41 87 38 70 41 49 33
internal_count=323 308 293 217 114 44 103 76 61 41 87 38 70 41 49 33
is_linear=0
shrinkage=0.05


Tree=53
num_leaves=18
num_cat=0
split_feature=5 7 10 12 5 5 7 4 6 5 6 11 6 11 6 6 7
split_gain=1.23903 0.806533 0.381882 0.26722 0.252488 0.154322 0.121216 0.103325 0.143781 0.0973644 0.0893705 0.142 0.0841705 0.0674601 0.0584508 0.0601205 0.05821
threshold=7.4620000000000006 1.4721500000000003 18.650000000000002 23.315000000000001 6.6785000000000005 6.9540000000000006 5.7954500000000015 0.69650000000000001 43.000000000000007 6.3455000000000004 79.750000000000014 394.91000000000003 94.750000000000014 392.81500000000005 82.950000000000017 67.700000000000003 2.5465500000000003
decision_type=2 2 2 2 2 2 2 2 2 2 2 2 2 2 2 2 2
left_child=1 -1 5 4 7 6 10 8 -4 12 11 -3 14 -8 15 -10 -12
right_child=-2 2 3 -5 -6 -7 13 -9 9 -11 16 -13 -14 -15 -16 -17 -18
leaf_value=0.0099024905247942496 0.014032612343629201 0.0051777388343749488 0.0017874214384290908 -0.0092752558955301843 -0.0084165890142321592 0.004440562281271686 -0.0051164889450107387 0.00118774454695759 -0.0024486779834010774 0.00054275716034074626 -0.0029944801456568875 -0.00058288194879423832 -0.0070836355676874522 -0.00044915617763763294 -0.00080430839792825285 -0.0065932274959050116 0.0012789203661183518
leaf_weight=17 14.999999999999998 23 18 14.999999999999998 14.999999999999998 23 15.000000000000002 27 21 14.999999999999998 17 20 15.999999999999998 15.999999999999998 20 14.999999999999998 14.999999999999998
leaf_count=17 15 23 18 15 15 23 15 27 21 15 17 20 16 16 20 15 15
internal_value=0 -0.000683406 -0.00130183 -0.00291814 -0.00226945 0.000727962 -7.76022e-05 -0.00157092 -0.00228029 -0.00312188 0.00100944 0.00249838 -0.00388535 -0.00270754 -0.00297155 -0.00417557 -0.000991324
internal_weight=0 308 291 162 147 129 106 132 105 87 75 43 72 31 56 36 32
internal_count=323 308 291 162 147 129 106 132 105 87 75 43 72 31 56 36 32
is_linear=0
shrinkage=0.05


Tree=54
num_leaves=17
num_cat=0
split_feature=12 9 4 4 6 10 5 4 2 6 11 7 7 11 11 6
split_gain=1.15727 0.629746 0.453016 0.455319 0.323244 0.488628 0.252653 0.269209 0.156715 0.174305 0.151068 0.117602 0.191211 0.0387482 0.0469616 0.0161039
threshold=3.7450000000000006 222.50000000000003 0.65100000000000013 0.61900000000000011 94.550000000000011 15.700000000000001 6.4650000000000007 0.69650000000000001 3.4250000000000003 32.550000000000004 343.66500000000002 2.5255500000000004 3.0992500000000005 392.21500000000009 395.26000000000005 53.750000000000007
decision_type=2 2 2 2 2 2 2 2 2 2 2 2 2 2 2 2
left_child=-1 -2 3 4 5 -3 7 -4 -7 -10 -9 -11 -13 -14 -15 -16
right_child=1 2 6 -5 -6 8 -8 10 9 11 -12 12 13 14 15 -17
leaf_value=0.013561725119749705 0.0093318286786476783 0.0086465604603290554 -0.0078204080392606564 0.0076068044769474208 -0.0064132269471883774 -0.0053280785898951926 -0.010307743288576603 -0.0047404713183641436 0.0034549497560454677 -0.0049142761334009912 0.0015606180782644797 0.0041022712119707936 -0.0029723053398941247 0.0013237372285833486 -0.00069127149569491548 -0.0028062926346643109
leaf_weight=14.999999999999998 14.999999999999998 14.999999999999998 20 18 22 17 14.999999999999998 14.999999999999998 26 17 26 19 28 19 18 18
leaf_count=15 15 15 20 18 22 17 15 15 26 17 26 19 28 19 18 18
internal_value=0 -0.000660474 -0.00117202 -8.51606e-06 -0.000697339 1.31103e-05 -0.00449415 -0.00306458 -0.000786283 -0.000253797 -0.000744659 -0.00106411 -0.000422417 -0.00145819 -0.000687366 -0.00174878
internal_weight=0 308 293 217 199 177 76 61 162 145 41 119 102 83 55 36
internal_count=323 308 293 217 199 177 76 61 162 145 41 119 102 83 55 36
is_linear=0
shrinkage=0.05


Tree=55
num_leaves=18
num_cat=0
split_feature=5 7 12 11 12 6 7 11 12 12 5 6 11 7 11 6 5
split_gain=1.05465 0.738107 0.324174 0.244947 0.245997 0.171047 0.164559 0.142924 0.122619 0.132428 0.102366 0.135957 0.127916 0.0945137 0.0926142 0.0392938 0.0309699
threshold=7.4620000000000006 1.4721500000000003 23.740000000000006 105.24000000000001 4.7600000000000007 92.500000000000014 2.3497000000000008 390.03500000000003 7.2300000000000013 13.095000000000001 6.6305000000000005 76.950000000000017 392.91000000000003 3.6977500000000005 394.73000000000008 82.950000000000017 5.9860000000000015
decision_type=2 2 2 2 2 2 2 2 2 2 2 2 2 2 2 2 2
left_child=1 -1 3 -3 -5 8 7 -7 14 10 11 12 -10 15 -6 -11 -14
right_child=-2 2 -4 4 5 6 -8 -9 9 13 -12 -13 16 -15 -16 -17 -18
leaf_value=0.0094963825307786479 0.012946504006783169 -0.0064307402405473918 -0.0077212812482482856 -0.0066075897713502255 0.0056276507000438871 0.0018282355294407656 -0.0068548097259675464 -0.0038200111480407601 -0.0034607906003948303 0.0057586685816446931 0.0028252642617250484 -0.0058002574631245809 -0.00043968094719780816 -0.0008094455988612026 0.00068398116337549354 0.0021395607424589498 0.0023568678287450564
leaf_weight=17 14.999999999999998 18 18 14.999999999999998 20 24 14.999999999999998 21 25 15.000000000000002 14.999999999999998 15.999999999999998 18 15.999999999999998 18 14.999999999999998 22
leaf_count=17 15 18 18 15 20 24 15 21 25 15 15 16 18 16 18 15 22
internal_value=0 -0.000630512 -0.00122212 -0.000793601 -0.000395685 -7.44095e-06 -0.00231941 -0.000807613 0.000763216 8.81283e-05 -0.000968834 -0.00167145 -0.000655122 0.00229396 0.00328591 0.00394911 0.00109842
internal_weight=0 308 291 273 255 240 60 45 180 142 96 81 65 46 38 30 40
internal_count=323 308 291 273 255 240 60 45 180 142 96 81 65 46 38 30 40
is_linear=0
shrinkage=0.05


Tree=56
num_leaves=17
num_cat=0
split_feature=12 9 4 8 12 11 6 5 4 11 8 6 7 4 5 6
split_gain=1.00696 0.54642 0.402413 0.476998 0.345214 0.781155 0.245208 0.229908 0.243994 0.130336 0.0990903 0.0979225 0.0850857 0.0765831 0.060629 0.0199728
threshold=3.7450000000000006 222.50000000000003 0.65100000000000013 4.5000000000000009 9.615000000000002 388.41000000000003 93.850000000000009 6.4650000000000007 0.69650000000000001 343.66500000000002 3.5000000000000004 47.900000000000013 2.4613000000000005 0.52800000000000014 5.9265000000000008 53.400000000000013
decision_type=2 2 2 2 2 2 2 2 2 2 2 2 2 2 2 2
left_child=-1 -2 3 6 5 -5 10 8 -4 -10 11 -3 -6 -14 -12 -16
right_child=1 2 7 4 12 -7 -8 -9 9 -11 14 -13 13 -15 15 -17
leaf_value=0.012650395631790164 0.0086916888691484923 -0.00099935394123588732 -0.0073876153415767479 0.013709567643753771 -0.0020218894343245132 0.00015948388049414814 -0.007949323333142435 -0.0097694278780060522 -0.0043628846947103743 0.0014898799574719025 -0.0026422949694097043 -0.0063083031578571539 -0.00069740030448883772 0.003625783104715603 0.002255247492116484 -0.00010381264283376582
leaf_weight=14.999999999999998 14.999999999999998 19 20 18 29 26 17 14.999999999999998 14.999999999999998 26 14.999999999999998 15.999999999999998 20 21 19 17
leaf_count=15 15 19 20 18 29 26 17 15 15 26 15 16 20 21 19 17
internal_value=0 -0.000616091 -0.0010926 4.00385e-06 0.00223226 0.0057027 -0.00246222 -0.00422369 -0.00285998 -0.000651375 -0.00137756 -0.0034263 5.08378e-05 0.00151691 2.84404e-05 0.00114125
internal_weight=0 308 293 217 114 44 103 76 61 41 86 35 70 41 51 36
internal_count=323 308 293 217 114 44 103 76 61 41 86 35 70 41 51 36
is_linear=0
shrinkage=0.05


Tree=57
num_leaves=18
num_cat=0
split_feature=12 9 4 8 4 10 11 5 4 11 12 6 8 6 9 0 10
split_gain=0.908779 0.493144 0.36565 0.416474 0.403753 0.253974 0.22336 0.202369 0.25785 0.117628 0.113937 0.1595 0.103064 0.131387 0.0812898 0.0504475 0.0435375
threshold=3.7450000000000006 222.50000000000003 0.65700000000000014 4.5000000000000009 0.61150000000000004 16.500000000000004 377.42000000000007 6.4650000000000007 0.69650000000000001 343.66500000000002 13.550000000000002 74.65000000000002 3.5000000000000004 47.900000000000013 332.00000000000006 0.11428500000000001 18.550000000000004
decision_type=2 2 2 2 2 2 2 2 2 2 2 2 2 2 2 2 2
left_child=-1 -2 3 6 5 -5 -3 8 -4 -10 11 15 13 -8 16 -7 -14
right_child=1 2 7 4 -6 10 12 -9 9 -11 -12 -13 14 -15 -16 -17 -18
leaf_value=0.012017876009146373 0.0082571046613156805 -0.0077685276664851699 -0.0079428531804724648 0.0057943109847006522 0.0096799713683625079 -0.001491119936690666 -0.00038104746764635342 -0.0092809563068052131 -0.0041447404492646464 0.001415385939897253 0.0024305408680811527 -0.0060407029775281749 -0.0004366847089841031 -0.0065974122231744012 -0.0029399942315649244 0.0020688933758612944 0.0029948586395460697
leaf_weight=14.999999999999998 14.999999999999998 15.999999999999998 17 21 14.999999999999998 24 17 14.999999999999998 14.999999999999998 26 25 14.999999999999998 18 17 15.999999999999998 17 19
leaf_count=15 15 16 17 21 15 24 17 15 15 26 25 15 18 17 16 17 19
internal_value=0 -0.000585286 -0.00103797 -2.05036e-05 0.00202066 0.000894292 -0.00233911 -0.0041043 -0.00276551 -0.000618807 -0.000376083 -0.00162904 -0.00134059 -0.00348923 3.77751e-05 -1.50169e-05 0.00132546
internal_weight=0 308 293 220 117 102 103 73 58 41 81 56 87 34 53 41 37
internal_count=323 308 293 220 117 102 103 73 58 41 81 56 87 34 53 41 37
is_linear=0
shrinkage=0.05


Tree=58
num_leaves=17
num_cat=0
split_feature=5 7 12 12 11 6 11 6 0 2 11 5 12 12 11 10
split_gain=0.845453 0.686102 0.265203 0.245207 0.219746 0.146721 0.12284 0.147117 0.0999763 0.10194 0.0854009 0.068455 0.0608836 0.0284567 0.043719 0.00860008
threshold=7.4620000000000006 1.4721500000000003 23.740000000000006 4.7600000000000007 105.24000000000001 41.70000000000001 332.84500000000008 98.850000000000009 0.047800000000000002 4.8950000000000005 392.91000000000003 5.7840000000000007 15.270000000000001 9.4500000000000011 392.36500000000007 19.400000000000002
